{"learner":{"attributes":{"best_iteration":"470","best_score":"0.00168333856962716"},"feature_names":["distance_score","price_score","number_of_reviews","availability_365","review_scores_rating"],"feature_types":["float","float","int","int","float"],"gradient_booster":{"model":{"gbtree_model_param":{"num_parallel_tree":"1","num_trees":"521"},"iteration_indptr":[0,1,2,3,4,5,6,7,8,9,10,11,12,13,14,15,16,17,18,19,20,21,22,23,24,25,26,27,28,29,30,31,32,33,34,35,36,37,38,39,40,41,42,43,44,45,46,47,48,49,50,51,52,53,54,55,56,57,58,59,60,61,62,63,64,65,66,67,68,69,70,71,72,73,74,75,76,77,78,79,80,81,82,83,84,85,86,87,88,89,90,91,92,93,94,95,96,97,98,99,100,101,102,103,104,105,106,107,108,109,110,111,112,113,114,115,116,117,118,119,120,121,122,123,124,125,126,127,128,129,130,131,132,133,134,135,136,137,138,139,140,141,142,143,144,145,146,147,148,149,150,151,152,153,154,155,156,157,158,159,160,161,162,163,164,165,166,167,168,169,170,171,172,173,174,175,176,177,178,179,180,181,182,183,184,185,186,187,188,189,190,191,192,193,194,195,196,197,198,199,200,201,202,203,204,205,206,207,208,209,210,211,212,213,214,215,216,217,218,219,220,221,222,223,224,225,226,227,228,229,230,231,232,233,234,235,236,237,238,239,240,241,242,243,244,245,246,247,248,249,250,251,252,253,254,255,256,257,258,259,260,261,262,263,264,265,266,267,268,269,270,271,272,273,274,275,276,277,278,279,280,281,282,283,284,285,286,287,288,289,290,291,292,293,294,295,296,297,298,299,300,301,302,303,304,305,306,307,308,309,310,311,312,313,314,315,316,317,318,319,320,321,322,323,324,325,326,327,328,329,330,331,332,333,334,335,336,337,338,339,340,341,342,343,344,345,346,347,348,349,350,351,352,353,354,355,356,357,358,359,360,361,362,363,364,365,366,367,368,369,370,371,372,373,374,375,376,377,378,379,380,381,382,383,384,385,386,387,388,389,390,391,392,393,394,395,396,397,398,399,400,401,402,403,404,405,406,407,408,409,410,411,412,413,414,415,416,417,418,419,420,421,422,423,424,425,426,427,428,429,430,431,432,433,434,435,436,437,438,439,440,441,442,443,444,445,446,447,448,449,450,451,452,453,454,455,456,457,458,459,460,461,462,463,464,465,466,467,468,469,470,471,472,473,474,475,476,477,478,479,480,481,482,483,484,485,486,487,488,489,490,491,492,493,494,495,496,497,498,499,500,501,502,503,504,505,506,507,508,509,510,511,512,513,514,515,516,517,518,519,520,521],"tree_info":[0,0,0,0,0,0,0,0,0,0,0,0,0,0,0,0,0,0,0,0,0,0,0,0,0,0,0,0,0,0,0,0,0,0,0,0,0,0,0,0,0,0,0,0,0,0,0,0,0,0,0,0,0,0,0,0,0,0,0,0,0,0,0,0,0,0,0,0,0,0,0,0,0,0,0,0,0,0,0,0,0,0,0,0,0,0,0,0,0,0,0,0,0,0,0,0,0,0,0,0,0,0,0,0,0,0,0,0,0,0,0,0,0,0,0,0,0,0,0,0,0,0,0,0,0,0,0,0,0,0,0,0,0,0,0,0,0,0,0,0,0,0,0,0,0,0,0,0,0,0,0,0,0,0,0,0,0,0,0,0,0,0,0,0,0,0,0,0,0,0,0,0,0,0,0,0,0,0,0,0,0,0,0,0,0,0,0,0,0,0,0,0,0,0,0,0,0,0,0,0,0,0,0,0,0,0,0,0,0,0,0,0,0,0,0,0,0,0,0,0,0,0,0,0,0,0,0,0,0,0,0,0,0,0,0,0,0,0,0,0,0,0,0,0,0,0,0,0,0,0,0,0,0,0,0,0,0,0,0,0,0,0,0,0,0,0,0,0,0,0,0,0,0,0,0,0,0,0,0,0,0,0,0,0,0,0,0,0,0,0,0,0,0,0,0,0,0,0,0,0,0,0,0,0,0,0,0,0,0,0,0,0,0,0,0,0,0,0,0,0,0,0,0,0,0,0,0,0,0,0,0,0,0,0,0,0,0,0,0,0,0,0,0,0,0,0,0,0,0,0,0,0,0,0,0,0,0,0,0,0,0,0,0,0,0,0,0,0,0,0,0,0,0,0,0,0,0,0,0,0,0,0,0,0,0,0,0,0,0,0,0,0,0,0,0,0,0,0,0,0,0,0,0,0,0,0,0,0,0,0,0,0,0,0,0,0,0,0,0,0,0,0,0,0,0,0,0,0,0,0,0,0,0,0,0,0,0,0,0,0,0,0,0,0,0,0,0,0,0,0,0,0,0,0,0,0,0,0,0,0,0,0,0,0,0,0,0,0,0,0,0,0,0,0,0,0,0,0,0,0,0,0,0,0,0,0,0,0,0,0,0,0,0,0,0,0,0,0,0,0,0,0,0,0,0,0,0,0,0,0,0,0,0,0,0,0,0,0,0,0,0],"trees":[{"base_weights":[8.177606E-3,-7.941809E-1,2.2832963E0,-1.1765769E0,1.5189303E0,9.5964026E-1,4.7336354E0,-1.2518344E0,-2.896085E-1,-2.8574893E-1,4.299341E0,-7.337116E-1,4.037388E0,2.0951886E0,4.753358E-1,-1.2642567E-1,-8.6638707E-1,-1.1108435E0,4.5364633E-1,-1.2545793E-1,1.793639E0,3.2336216E0,4.7007248E-1,-1.2594503E-1,8.0233705E-1,-1.1783116E-1,4.5110083E0,5.6935377E-2,2.719874E-1,-1.2397821E-1,3.665907E-1,-1.2530428E-1,1.6672084E-2,-1.18464306E-1,4.608893E-1,-5.227954E-2,4.576609E-1,-1.2402747E-1,4.5626712E-1,2.6643288E0,4.729713E-1,-1.15443446E-1,3.5217944E-1,-1.09916165E-1,1.8108547E-1,-1.06941186E-1,4.325965E-1],"categories":[],"categories_nodes":[],"categories_segments":[],"categories_sizes":[],"default_left":[0,0,0,0,0,0,0,0,0,0,0,0,0,0,0,0,0,0,0,0,0,0,0,0,0,0,0,0,0,0,0,0,0,0,0,0,0,0,0,0,0,0,0,0,0,0,0],"id":0,"left_children":[1,3,5,7,9,11,13,15,17,19,21,23,25,27,-1,-1,29,31,-1,-1,33,35,-1,-1,37,-1,39,-1,-1,-1,-1,-1,41,-1,-1,43,-1,-1,-1,45,-1,-1,-1,-1,-1,-1,-1],"loss_changes":[5.0144224E3,1.7980463E3,2.3183162E3,1.16000244E2,1.4489951E3,2.4329072E3,3.099121E0,6.597168E0,5.5056335E2,3.5661877E2,3.340454E1,2.4458167E2,4.1447363E2,1.9305267E0,0E0,0E0,9.481114E1,1.9008972E1,0E0,0E0,4.7767773E2,1.515633E2,0E0,0E0,6.010812E2,0E0,4.8808838E1,0E0,0E0,0E0,0E0,0E0,6.2560867E1,0E0,0E0,2.332409E1,0E0,0E0,0E0,1.1872536E2,0E0,0E0,0E0,0E0,0E0,0E0,0E0],"parents":[2147483647,0,0,1,1,2,2,3,3,4,4,5,5,6,6,7,7,8,8,9,9,10,10,11,11,12,12,13,13,16,16,17,17,20,20,21,21,24,24,26,26,32,32,35,35,39,39],"right_children":[2,4,6,8,10,12,14,16,18,20,22,24,26,28,-1,-1,30,32,-1,-1,34,36,-1,-1,38,-1,40,-1,-1,-1,-1,-1,42,-1,-1,44,-1,-1,-1,46,-1,-1,-1,-1,-1,-1,-1],"split_conditions":[5.797813E-1,6.6166174E-1,6.0248184E-1,6.3656473E-1,4.8906282E-1,7.249747E-1,6.0577697E-1,6.2372124E-1,5.5073494E-1,7.1477926E-1,5.2344847E-1,5.498512E-1,3.1667763E-1,6.3552827E-1,4.753358E-1,-1.2642567E-1,5.638985E-1,5.3161705E-1,4.5364633E-1,-1.2545793E-1,4.712301E-1,6.976312E-1,4.7007248E-1,-1.2594503E-1,6.3552827E-1,-1.1783116E-1,4.5937604E-1,5.6935377E-2,2.719874E-1,-1.2397821E-1,3.665907E-1,-1.2530428E-1,6.554657E-1,-1.18464306E-1,4.608893E-1,5.14781E-1,4.576609E-1,-1.2402747E-1,4.5626712E-1,8.5744655E-1,4.729713E-1,-1.15443446E-1,3.5217944E-1,-1.09916165E-1,1.8108547E-1,-1.06941186E-1,4.325965E-1],"split_indices":[0,1,1,1,0,0,1,1,0,1,0,1,1,0,0,0,0,0,0,0,0,1,0,0,0,0,1,0,0,0,0,0,1,0,0,0,0,0,0,0,0,0,0,0,0,0,0],"split_type":[0,0,0,0,0,0,0,0,0,0,0,0,0,0,0,0,0,0,0,0,0,0,0,0,0,0,0,0,0,0,0,0,0,0,0,0,0,0,0,0,0,0,0,0,0,0,0],"sum_hessian":[2.7449417E3,2.029763E3,7.1517883E2,1.7422339E3,2.8752905E2,4.6524716E2,2.4993164E2,1.6055913E3,1.3664255E2,1.7490247E2,1.1262659E2,3.0061362E2,1.6463356E2,2.6500373E0,2.472816E2,1.553253E3,5.2338238E1,1.1742978E2,1.921277E1,1.1958293E2,5.5319527E1,3.3291092E1,7.9335495E1,2.2409378E2,7.651983E1,1.3581441E1,1.5105212E2,1.3250186E0,1.3250186E0,4.902569E1,3.3125467E0,1.0417959E2,1.3250187E1,2.7162882E1,2.8156647E1,9.93764E0,2.3353453E1,5.0019455E1,2.6500374E1,1.739087E1,1.3366125E2,1.0434522E1,2.8156645E0,6.6250935E0,3.3125467E0,5.465702E0,1.1925168E1],"tree_param":{"num_deleted":"0","num_feature":"5","num_nodes":"47","size_leaf_vector":"1"}},{"base_weights":[-9.365377E-3,-7.489338E-1,1.7834905E0,-1.1663597E0,-3.3097088E-1,9.879489E-1,3.045562E0,-1.2308595E-1,-8.967208E-1,-1.179353E0,1.6443206E-1,-7.4558824E-1,1.6957422E0,3.2128763E-1,2.8134341E0,-1.215358E-1,-7.176088E-1,-1.1845489E0,3.18225E-2,-1.1398665E-1,8.603364E-1,-1.0500069E0,-2.3210892E-1,2.2070675E0,1.58855E0,1.3013138E-1,2.8317222E-1,2.6963386E-1,-8.6255693E-1,-1.19886816E-1,-8.702852E-1,1.3254273E0,-2.218116E-1,1.7943115E0,6.375969E-1,-1.1264626E0,-6.5929157E-1,1.0049906E0,-8.6284405E-1,2.3461626E-1,1.6636074E0,1.4410557E0,1.8636854E0,7.585756E-2,-5.137539E-2,-4.6536896E-2,-9.3621574E-2,-4.455069E-2,-1.0050595E-1,1.986685E-1,-4.661517E-2,2.9635464E-3,-6.001803E-2,2.093382E-2,1.846128E-1,1.1251923E-1,2.2554515E-2,-3.502291E-2,-1.1494601E-1,-2.6014907E-2,-8.106458E-2,1.6065425E-1,5.3139318E-2,-1.111547E-1,1.333621E-1,1.8245538E-1,4.2331934E-2,1.7546746E-1,1.1179272E-1,2.4424522E-1,1.2203723E-1],"categories":[],"categories_nodes":[],"categories_segments":[],"categories_sizes":[],"default_left":[0,0,0,0,0,0,0,0,0,0,0,0,0,0,0,0,0,0,0,0,0,0,0,0,0,0,0,0,0,0,0,0,0,0,0,0,0,0,0,0,0,0,0,0,0,0,0,0,0,0,0,0,0,0,0,0,0,0,0,0,0,0,0,0,0,0,0,0,0,0,0],"id":1,"left_children":[1,3,5,7,9,11,13,-1,15,17,19,21,23,-1,25,-1,27,29,-1,31,33,35,37,39,41,-1,-1,43,45,-1,47,49,51,53,55,57,59,61,63,-1,65,67,69,-1,-1,-1,-1,-1,-1,-1,-1,-1,-1,-1,-1,-1,-1,-1,-1,-1,-1,-1,-1,-1,-1,-1,-1,-1,-1,-1,-1],"loss_changes":[3.6519856E3,3.3980994E2,8.045884E2,1.5856445E1,4.1027994E2,6.084321E2,3.0205078E0,0E0,1.0081375E1,3.17688E0,1.1962143E2,2.229042E1,1.5769897E1,0E0,1.3427734E-1,0E0,1.816346E1,5.71228E-1,0E0,6.881533E1,3.555214E1,1.952446E0,4.3735733E1,5.1000977E-1,9.257446E0,0E0,0E0,6.826108E0,2.7678986E0,0E0,6.5627384E-1,3.7545246E1,3.917536E1,2.3579254E0,2.8673882E1,9.1922E-1,8.267751E-1,4.5633106E0,2.1653671E1,0E0,2.288681E0,1.7901276E1,3.3991486E1,0E0,0E0,0E0,0E0,0E0,0E0,0E0,0E0,0E0,0E0,0E0,0E0,0E0,0E0,0E0,0E0,0E0,0E0,0E0,0E0,0E0,0E0,0E0,0E0,0E0,0E0,0E0,0E0],"parents":[2147483647,0,0,1,1,2,2,3,3,4,4,5,5,6,6,8,8,9,9,10,10,11,11,12,12,14,14,16,16,17,17,19,19,20,20,21,21,22,22,23,23,24,24,27,27,28,28,30,30,31,31,32,32,33,33,34,34,35,35,36,36,37,37,38,38,40,40,41,41,42,42],"right_children":[2,4,6,8,10,12,14,-1,16,18,20,22,24,-1,26,-1,28,30,-1,32,34,36,38,40,42,-1,-1,44,46,-1,48,50,52,54,56,58,60,62,64,-1,66,68,70,-1,-1,-1,-1,-1,-1,-1,-1,-1,-1,-1,-1,-1,-1,-1,-1,-1,-1,-1,-1,-1,-1,-1,-1,-1,-1,-1,-1],"split_conditions":[5.797813E-1,4.712882E-1,7.249747E-1,4.712301E-1,2.7E1,8E0,1.67E2,-1.2308595E-1,1.1E1,3.73E2,5.5073494E-1,6.3552827E-1,4.51E0,3.2128763E-1,1.72E2,-1.215358E-1,2E0,2E0,3.18225E-2,6E1,4.67E0,3.9E1,6.357877E-1,6.357877E-1,6.3552827E-1,1.3013138E-1,2.8317222E-1,3.22E2,6E0,-1.19886816E-1,5.3161705E-1,5.3161705E-1,5.3161705E-1,5.2E1,5.638985E-1,5.8310395E-1,5.3E1,4E0,5E1,2.3461626E-1,1.5E1,2.6E1,6.357877E-1,7.585756E-2,-5.137539E-2,-4.6536896E-2,-9.3621574E-2,-4.455069E-2,-1.0050595E-1,1.986685E-1,-4.661517E-2,2.9635464E-3,-6.001803E-2,2.093382E-2,1.846128E-1,1.1251923E-1,2.2554515E-2,-3.502291E-2,-1.1494601E-1,-2.6014907E-2,-8.106458E-2,1.6065425E-1,5.3139318E-2,-1.111547E-1,1.333621E-1,1.8245538E-1,4.2331934E-2,1.7546746E-1,1.1179272E-1,2.4424522E-1,1.2203723E-1],"split_indices":[0,0,0,0,3,3,3,0,3,2,0,0,4,0,3,0,2,3,0,3,4,2,0,0,0,0,0,3,2,0,0,0,0,3,0,0,2,2,2,0,2,2,0,0,0,0,0,0,0,0,0,0,0,0,0,0,0,0,0,0,0,0,0,0,0,0,0,0,0,0,0],"split_type":[0,0,0,0,0,0,0,0,0,0,0,0,0,0,0,0,0,0,0,0,0,0,0,0,0,0,0,0,0,0,0,0,0,0,0,0,0,0,0,0,0,0,0,0,0,0,0,0,0,0,0,0,0,0,0,0,0,0,0,0,0,0,0,0,0,0,0,0,0,0,0],"sum_hessian":[2.7522546E3,1.9488993E3,8.033554E2,9.7418024E2,9.747191E2,4.9384497E2,3.095104E2,7.8325464E2,1.9092558E2,3.5883322E2,6.1588586E2,1.4316061E2,3.5068436E2,1.724036E2,1.3710683E2,6.662153E1,1.24304054E2,3.5780087E2,1.0323628E0,4.4049E2,1.7539587E2,8.9220764E1,5.3939854E1,5.7380356E1,2.9330402E2,2.5006404E0,1.3460619E2,1.5803828E1,1.0850022E2,3.3951617E2,1.828469E1,2.9910187E1,4.105798E2,3.2415962E1,1.429799E2,7.30443E1,1.617647E1,1.8014177E1,3.5925674E1,4.304594E1,1.4334415E1,1.9500404E2,9.829996E1,9.750098E0,6.05373E0,1.811847E1,9.038175E1,5.441111E0,1.2843578E1,2.1767189E1,8.142998E0,2.47214E2,1.633658E2,1.1857576E0,3.1230204E1,6.469423E1,7.8285675E1,2.5688038E0,7.0475494E1,5.1950917E0,1.0981379E1,6.8813915E0,1.1132787E1,3.27153E1,3.2103744E0,1.2270993E1,2.0634222E0,9.670999E1,9.829406E1,5.0273716E1,4.802624E1],"tree_param":{"num_deleted":"0","num_feature":"5","num_nodes":"71","size_leaf_vector":"1"}},{"base_weights":[-1.8261047E-2,-7.088673E-1,1.4830658E0,-1.0995685E0,-2.7083766E-1,8.3418256E-1,2.4674358E0,-1.2021901E-1,-8.0829245E-1,-1.1444372E0,2.4259011E-1,-7.244168E-1,1.3918227E0,2.5578403E-1,2.2052911E-1,-1.17646635E-1,-6.651554E-1,-1.1528937E0,3.5751976E-2,1.2578037E-2,6.9686973E-1,-8.994731E-1,2.56125E-1,1.5577129E0,1.2137522E0,-2.6177388E-1,-8.208984E-1,-1.1777699E-1,-6.9688016E-1,4.6932504E-1,-5.579161E-1,1.0431716E0,4.1565707E-1,-1.1112885E0,-5.5022806E-1,-5.134423E-1,1.5097251E0,1.3998E0,1.80729E0,1.7274706E0,1.0029244E0,1.2167581E-2,-9.618003E-2,-7.328644E-2,-1.09130085E-1,-3.7158374E-3,-8.321491E-2,-4.3333452E-2,9.415618E-2,-1.5792595E-2,-6.753093E-2,1.5284072E-1,9.014725E-2,1.1305676E-1,1.2977284E-2,-2.1959065E-2,-1.1234374E-1,4.646599E-2,-1.0178063E-1,4.4169363E-2,-7.1286954E-2,1.7895454E-1,8.1661016E-2,1.8520235E-1,1.3013597E-1,1.0955971E-1,1.926019E-1,1.8937258E-1,1.0177355E-1,1.4982784E-1,8.36904E-2],"categories":[],"categories_nodes":[],"categories_segments":[],"categories_sizes":[],"default_left":[0,0,0,0,0,0,0,0,0,0,0,0,0,0,0,0,0,0,0,0,0,0,0,0,0,0,0,0,0,0,0,0,0,0,0,0,0,0,0,0,0,0,0,0,0,0,0,0,0,0,0,0,0,0,0,0,0,0,0,0,0,0,0,0,0,0,0,0,0,0,0],"id":2,"left_children":[1,3,5,7,9,11,13,-1,15,17,19,21,23,-1,-1,-1,25,27,-1,29,31,33,35,37,39,41,43,-1,45,47,49,51,53,55,57,59,61,63,65,67,69,-1,-1,-1,-1,-1,-1,-1,-1,-1,-1,-1,-1,-1,-1,-1,-1,-1,-1,-1,-1,-1,-1,-1,-1,-1,-1,-1,-1,-1,-1],"loss_changes":[2.800714E3,3.163343E2,5.4155884E2,2.824939E1,3.921006E2,4.4814337E2,2.3603516E0,0E0,1.280014E1,4.5215454E0,5.7568394E1,2.3612556E1,9.312073E0,0E0,0E0,0E0,1.1588959E1,2.831604E0,0E0,9.5847466E1,1.7602081E1,7.9553833E0,2.1433617E1,5.0689087E0,1.8567596E1,1.455937E1,2.4158554E0,0E0,1.6739407E0,8.748122E1,7.573612E0,4.283188E0,2.108194E1,5.2360535E-1,2.2159744E1,2.9843824E0,1.676197E-1,3.0442352E0,3.9131165E0,4.344803E0,9.871216E0,0E0,0E0,0E0,0E0,0E0,0E0,0E0,0E0,0E0,0E0,0E0,0E0,0E0,0E0,0E0,0E0,0E0,0E0,0E0,0E0,0E0,0E0,0E0,0E0,0E0,0E0,0E0,0E0,0E0,0E0],"parents":[2147483647,0,0,1,1,2,2,3,3,4,4,5,5,6,6,8,8,9,9,10,10,11,11,12,12,16,16,17,17,19,19,20,20,21,21,22,22,23,23,24,24,25,25,26,26,28,28,29,29,30,30,31,31,32,32,33,33,34,34,35,35,36,36,37,37,38,38,39,39,40,40],"right_children":[2,4,6,8,10,12,14,-1,16,18,20,22,24,-1,-1,-1,26,28,-1,30,32,34,36,38,40,42,44,-1,46,48,50,52,54,56,58,60,62,64,66,68,70,-1,-1,-1,-1,-1,-1,-1,-1,-1,-1,-1,-1,-1,-1,-1,-1,-1,-1,-1,-1,-1,-1,-1,-1,-1,-1,-1,-1,-1,-1],"split_conditions":[5.797813E-1,4.725168E-1,7.249747E-1,4.712301E-1,2.7E1,8E0,2.72E2,-1.2021901E-1,1.1E1,3.73E2,5.5073494E-1,4.5E1,4.87E0,2.5578403E-1,2.2052911E-1,-1.17646635E-1,8E0,2E0,3.5751976E-2,5.3161705E-1,5.638985E-1,6.3552827E-1,6.3552827E-1,6.3552827E-1,3E0,3.37E2,3.6E2,-1.1777699E-1,4E0,4.8906282E-1,4.55E0,5E0,4.73E0,3.56E0,6.357877E-1,5.1E1,6.357877E-1,5.8310395E-1,4E0,6.357877E-1,9.6E1,1.2167581E-2,-9.618003E-2,-7.328644E-2,-1.09130085E-1,-3.7158374E-3,-8.321491E-2,-4.3333452E-2,9.415618E-2,-1.5792595E-2,-6.753093E-2,1.5284072E-1,9.014725E-2,1.1305676E-1,1.2977284E-2,-2.1959065E-2,-1.1234374E-1,4.646599E-2,-1.0178063E-1,4.4169363E-2,-7.1286954E-2,1.7895454E-1,8.1661016E-2,1.8520235E-1,1.3013597E-1,1.0955971E-1,1.926019E-1,1.8937258E-1,1.0177355E-1,1.4982784E-1,8.36904E-2],"split_indices":[0,0,0,0,3,3,3,0,3,2,0,2,4,0,0,0,2,3,0,0,0,0,0,0,2,3,3,0,3,0,4,2,4,4,0,2,0,0,2,0,3,0,0,0,0,0,0,0,0,0,0,0,0,0,0,0,0,0,0,0,0,0,0,0,0,0,0,0,0,0,0],"split_type":[0,0,0,0,0,0,0,0,0,0,0,0,0,0,0,0,0,0,0,0,0,0,0,0,0,0,0,0,0,0,0,0,0,0,0,0,0,0,0,0,0,0,0,0,0,0,0,0,0,0,0,0,0,0,0,0,0,0,0,0,0,0,0,0,0,0,0,0,0,0,0],"sum_hessian":[2.699225E3,1.8491493E3,8.5007574E2,9.7657837E2,8.7257086E2,5.134584E2,3.3661734E2,7.1983936E2,2.5673904E2,3.2253952E2,5.500314E2,1.3522017E2,3.7823822E2,2.4378658E2,9.283078E1,6.985093E1,1.8688812E2,3.209648E2,1.5747242E0,3.658307E2,1.8420068E2,1.14806435E2,2.041373E1,1.9180516E2,1.8643307E2,5.2804035E1,1.3408409E2,3.0286053E2,1.8104263E1,2.0326817E2,1.625625E2,8.133294E1,1.02867744E2,7.010568E1,4.4700752E1,1.3014648E1,7.3990817E0,1.2152331E2,7.0281845E1,5.2154873E1,1.342782E2,3.4650112E1,1.8153923E1,1.0395129E2,3.0132803E1,3.2973616E0,1.4806902E1,6.9844986E1,1.3342319E2,3.741723E1,1.2514528E2,1.6170912E1,6.5162025E1,2.8540901E1,7.432684E1,1.1987041E0,6.8906975E1,1.4100839E1,3.0599913E1,2.038182E0,1.0976467E1,4.1441436E0,3.2549381E0,1.8539803E1,1.02983505E2,1.1510803E1,5.8771038E1,4.090474E1,1.12501335E1,3.16926E1,1.02585594E2],"tree_param":{"num_deleted":"0","num_feature":"5","num_nodes":"71","size_leaf_vector":"1"}},{"base_weights":[-2.8188737E-2,-6.7892945E-1,1.4019895E0,-8.0608255E-1,-3.0347544E-1,6.414801E-1,1.8497512E0,-1.1765549E0,-7.230192E-1,-3.5215342E-1,-4.0915236E-2,3.2761905E-1,7.835592E-1,1.558324E0,2.4166443E0,-1.2262143E-1,-9.701321E-1,-6.660738E-1,-8.1705946E-1,-1.642519E-1,-4.455379E-1,5.9736174E-1,-1.3012344E-1,4.535445E-2,5.1592183E-1,5.3322214E-1,8.8227546E-1,1.2878436E0,1.6541859E0,1.945861E0,2.5040418E-1,-8.274222E-1,-1.1729401E-1,-8.499053E-1,-6.351363E-1,-9.014801E-1,-5.9007895E-1,1.50772E-1,-3.254483E-1,-5.4574794E-1,-2.7715275E-1,2.1381496E-1,9.9929035E-1,-3.6115968E-1,4.0565263E-2,-1.7702498E-1,8.029064E-1,1.0230572E0,3.5195854E-1,3.8302055E-1,1.1827583E0,9.143212E-1,5.436825E-1,1.3575768E0,4.94854E-1,1.6740528E0,5.538919E-1,2.1415177E-1,5.6507576E-1,-3.9554413E-2,-8.848523E-2,-7.515568E-2,-1.05807595E-1,-6.433077E-2,-2.4635182E-3,-1.0392495E-1,-8.5269615E-2,-7.8875445E-2,-1.3184346E-3,3.1734236E-2,-4.313805E-2,-3.9521907E-2,1.0811509E-1,-6.4392574E-2,-3.4489464E-2,-6.873184E-3,-4.38836E-2,8.151637E-2,-7.689756E-2,1.6357465E-1,1.2376497E-2,-6.44178E-2,-1.8866094E-2,-8.141507E-3,5.67046E-2,-4.566559E-2,6.368512E-3,1.1157864E-1,-4.0639218E-2,2.9162228E-2,1.5201353E-1,5.845943E-2,-2.1061392E-3,5.8321256E-2,2.8558276E-3,4.1218664E-2,1.4333573E-1,8.6843945E-2,1.3129027E-1,-6.356782E-2,8.4655926E-2,1.412594E-1,8.227993E-2,-4.1248843E-2,7.449501E-2,1.6959745E-1,8.583719E-2,8.500291E-2,3.5200273E-3,-1.9117957E-2,1.5715353E-1],"categories":[],"categories_nodes":[],"categories_segments":[],"categories_sizes":[],"default_left":[0,0,0,0,0,0,0,0,0,0,0,0,0,0,0,0,0,0,0,0,0,0,0,0,0,0,0,0,0,0,0,0,0,0,0,0,0,0,0,0,0,0,0,0,0,0,0,0,0,0,0,0,0,0,0,0,0,0,0,0,0,0,0,0,0,0,0,0,0,0,0,0,0,0,0,0,0,0,0,0,0,0,0,0,0,0,0,0,0,0,0,0,0,0,0,0,0,0,0,0,0,0,0,0,0,0,0,0,0,0,0],"id":3,"left_children":[1,3,5,7,9,11,13,15,17,19,21,23,25,27,29,-1,31,33,35,37,39,41,43,45,47,49,51,53,55,57,-1,59,-1,61,63,65,67,69,71,73,75,77,79,81,83,85,87,89,91,93,95,97,99,101,103,105,107,-1,109,-1,-1,-1,-1,-1,-1,-1,-1,-1,-1,-1,-1,-1,-1,-1,-1,-1,-1,-1,-1,-1,-1,-1,-1,-1,-1,-1,-1,-1,-1,-1,-1,-1,-1,-1,-1,-1,-1,-1,-1,-1,-1,-1,-1,-1,-1,-1,-1,-1,-1,-1,-1],"loss_changes":[2.4701147E3,8.683789E1,2.814491E2,4.1062256E1,5.9041176E0,1.3527481E1,8.245337E1,1.3511353E0,5.4276733E0,6.7792892E0,4.266034E0,5.187703E0,4.7702484E0,6.880066E0,2.343628E0,0E0,5.591736E-1,3.441162E0,7.44281E0,6.7131643E0,4.2407837E0,1.2044141E0,2.5920691E0,6.9361787E0,4.5220537E0,5.6448364E0,1.1365967E0,4.6062317E0,4.604431E0,7.420517E0,0E0,5.0364494E-1,0E0,1.2086182E0,2.9928284E0,1.1399231E0,1.3252953E1,4.5106535E0,8.97801E0,2.9752922E0,3.3107371E0,4.160584E0,2.148837E0,1.2391391E0,2.5178254E0,2.1827745E0,3.984634E0,4.5815506E0,3.9948134E0,3.6905246E0,1.5835333E0,1.3484039E0,6.069339E0,1.4020996E0,2.4150674E0,2.9799194E0,8.8902855E-1,0E0,4.3523045E0,0E0,0E0,0E0,0E0,0E0,0E0,0E0,0E0,0E0,0E0,0E0,0E0,0E0,0E0,0E0,0E0,0E0,0E0,0E0,0E0,0E0,0E0,0E0,0E0,0E0,0E0,0E0,0E0,0E0,0E0,0E0,0E0,0E0,0E0,0E0,0E0,0E0,0E0,0E0,0E0,0E0,0E0,0E0,0E0,0E0,0E0,0E0,0E0,0E0,0E0,0E0,0E0],"parents":[2147483647,0,0,1,1,2,2,3,3,4,4,5,5,6,6,7,7,8,8,9,9,10,10,11,11,12,12,13,13,14,14,16,16,17,17,18,18,19,19,20,20,21,21,22,22,23,23,24,24,25,25,26,26,27,27,28,28,29,29,31,31,33,33,34,34,35,35,36,36,37,37,38,38,39,39,40,40,41,41,42,42,43,43,44,44,45,45,46,46,47,47,48,48,49,49,50,50,51,51,52,52,53,53,54,54,55,55,56,56,58,58],"right_children":[2,4,6,8,10,12,14,16,18,20,22,24,26,28,30,-1,32,34,36,38,40,42,44,46,48,50,52,54,56,58,-1,60,-1,62,64,66,68,70,72,74,76,78,80,82,84,86,88,90,92,94,96,98,100,102,104,106,108,-1,110,-1,-1,-1,-1,-1,-1,-1,-1,-1,-1,-1,-1,-1,-1,-1,-1,-1,-1,-1,-1,-1,-1,-1,-1,-1,-1,-1,-1,-1,-1,-1,-1,-1,-1,-1,-1,-1,-1,-1,-1,-1,-1,-1,-1,-1,-1,-1,-1,-1,-1,-1,-1],"split_conditions":[6.156035E-1,5.498512E-1,6.6166174E-1,3.8720417E-1,6.0248184E-1,4.73E0,7.1477926E-1,3.3176947E-1,3.2E1,3.1E1,6E1,1.5E1,8E0,6E0,4.3E0,-1.2262143E-1,3.16E2,4.5E0,4.7E1,1.5E1,3.25E2,4.9E1,4.8E0,6.523476E-1,2.3E1,6.554657E-1,3.65E2,5E0,3.19E2,9E0,2.5040418E-1,3.4099594E-1,-1.1729401E-1,9E0,1.33E2,4.66E0,4.93E0,1E0,2.7E1,5.1E1,4.72E0,1.3E1,9.8E1,1E1,9.8E1,2.98E2,9E0,1.9E1,4.64E0,3.09E2,2E0,3.62E2,6.3016605E-1,7.1054727E-1,9.1E1,7.1054727E-1,4.83E0,2.1415177E-1,1.79E2,-3.9554413E-2,-8.848523E-2,-7.515568E-2,-1.05807595E-1,-6.433077E-2,-2.4635182E-3,-1.0392495E-1,-8.5269615E-2,-7.8875445E-2,-1.3184346E-3,3.1734236E-2,-4.313805E-2,-3.9521907E-2,1.0811509E-1,-6.4392574E-2,-3.4489464E-2,-6.873184E-3,-4.38836E-2,8.151637E-2,-7.689756E-2,1.6357465E-1,1.2376497E-2,-6.44178E-2,-1.8866094E-2,-8.141507E-3,5.67046E-2,-4.566559E-2,6.368512E-3,1.1157864E-1,-4.0639218E-2,2.9162228E-2,1.5201353E-1,5.845943E-2,-2.1061392E-3,5.8321256E-2,2.8558276E-3,4.1218664E-2,1.4333573E-1,8.6843945E-2,1.3129027E-1,-6.356782E-2,8.4655926E-2,1.412594E-1,8.227993E-2,-4.1248843E-2,7.449501E-2,1.6959745E-1,8.583719E-2,8.500291E-2,3.5200273E-3,-1.9117957E-2,1.5715353E-1],"split_indices":[1,1,1,1,1,4,1,1,3,3,3,2,2,2,4,0,3,4,2,2,3,2,4,1,2,1,3,2,2,2,0,1,0,2,2,4,4,3,3,2,4,2,2,2,2,3,2,2,4,3,2,3,1,1,3,1,4,0,3,0,0,0,0,0,0,0,0,0,0,0,0,0,0,0,0,0,0,0,0,0,0,0,0,0,0,0,0,0,0,0,0,0,0,0,0,0,0,0,0,0,0,0,0,0,0,0,0,0,0,0,0],"split_type":[0,0,0,0,0,0,0,0,0,0,0,0,0,0,0,0,0,0,0,0,0,0,0,0,0,0,0,0,0,0,0,0,0,0,0,0,0,0,0,0,0,0,0,0,0,0,0,0,0,0,0,0,0,0,0,0,0,0,0,0,0,0,0,0,0,0,0,0,0,0,0,0,0,0,0,0,0,0,0,0,0,0,0,0,0,0,0,0,0,0,0,0,0,0,0,0,0,0,0,0,0,0,0,0,0,0,0,0,0,0,0],"sum_hessian":[2.652088E3,1.8230934E3,8.2899445E2,1.3610175E3,4.6207596E2,3.0811063E2,5.208838E2,2.4685434E2,1.1141631E3,3.8951895E2,7.255702E1,9.704295E1,2.1106767E2,3.465031E2,1.7438069E2,1.9500214E2,5.1852207E1,6.9898267E2,4.151804E2,1.3023277E2,2.5928616E2,8.198832E0,6.435819E1,3.9329365E1,5.7713585E1,6.150279E1,1.495649E2,9.4447624E1,2.5205548E2,3.094639E1,1.434343E2,3.3417294E1,1.8434912E1,9.687532E1,6.0210736E2,3.004593E2,1.14721115E2,4.4104546E1,8.612823E1,1.6114427E2,9.814189E1,4.979263E0,3.2195685E0,2.6870985E1,3.7487206E1,3.0996624E1,8.332742E0,1.2820493E1,4.4893093E1,5.124285E1,1.0259935E1,1.3508005E2,1.44848385E1,8.6159065E1,8.288555E0,2.4707289E2,4.982596E0,2.6622984E1,4.3234057E0,4.847931E0,2.8569365E1,6.892334E1,2.7951977E1,5.9410175E2,8.005625E0,7.326118E1,2.271981E2,8.506019E1,2.9660923E1,3.4646175E1,9.458373E0,8.2743004E1,3.3852286E0,1.0675572E2,5.438855E1,4.3496708E1,5.464518E1,3.1949208E0,1.784342E0,1.3615198E0,1.8580487E0,9.140234E0,1.7730751E1,3.1121925E1,6.3652806E0,1.392405E1,1.7072575E1,6.6814003E0,1.6513413E0,5.8293924E0,6.9911E0,2.7300074E1,1.7593021E1,3.2335293E1,1.890756E1,3.1668696E0,7.093066E0,1.23986465E2,1.1093585E1,2.7352695E0,1.1749569E1,7.663365E1,9.525417E0,1.6506644E0,6.637891E0,2.3955556E2,7.5173345E0,2.7651129E0,2.2174833E0,2.9310544E0,1.3923514E0],"tree_param":{"num_deleted":"0","num_feature":"5","num_nodes":"111","size_leaf_vector":"1"}},{"base_weights":[-2.3185175E-2,-6.865304E-1,1.2741579E0,-1.1147879E0,9.4410175E-1,5.1731956E-1,2.3962135E0,-1.1778412E0,-4.3935305E-1,-3.9496216E-1,2.4279969E0,-7.3074144E-1,2.0406451E0,2.4990295E-1,2.1815348E-1,-1.184621E-1,-8.6360043E-1,-1.2046468E-1,2.5243578E0,-1.2190222E-1,1.2017082E0,1.4762961E0,2.6743263E-1,-1.23041146E-1,4.2111444E-1,-1.23883955E-1,2.308875E0,-1.1769139E-1,2.237299E-1,9.9966836E-1,2.7504468E-1,-1.15089916E-1,2.8557697E-1,-1.1837124E-1,2.5255397E-1,-1.1909608E0,2.7543524E-1,1.3153824E0,2.4086511E-1,-8.0076866E-2,2.1601105E-1,-1.242857E-1,1.2344155E-2,-1.18174985E-1,2.3675115E-1],"categories":[],"categories_nodes":[],"categories_segments":[],"categories_sizes":[],"default_left":[0,0,0,0,0,0,0,0,0,0,0,0,0,0,0,0,0,0,0,0,0,0,0,0,0,0,0,0,0,0,0,0,0,0,0,0,0,0,0,0,0,0,0,0,0],"id":4,"left_children":[1,3,5,7,9,11,13,15,17,19,21,23,25,-1,-1,-1,27,-1,29,-1,31,33,-1,-1,35,-1,37,-1,-1,39,-1,-1,-1,-1,-1,41,-1,43,-1,-1,-1,-1,-1,-1,-1],"loss_changes":[2.2482078E3,1.2081532E3,7.493345E2,5.780591E1,7.164636E2,1.00741437E3,2.4003906E0,1.644165E0,2.7186166E2,2.5164322E2,3.612726E1,1.6832571E2,2.1269061E2,0E0,0E0,0E0,3.1906525E1,0E0,5.7466583E0,0E0,2.571236E2,1.0731951E2,0E0,0E0,3.378795E2,0E0,1.8723999E1,0E0,0E0,1.166189E1,0E0,0E0,0E0,0E0,0E0,3.7896194E0,0E0,6.1541466E1,0E0,0E0,0E0,0E0,0E0,0E0,0E0],"parents":[2147483647,0,0,1,1,2,2,3,3,4,4,5,5,6,6,7,7,8,8,9,9,10,10,11,11,12,12,16,16,18,18,20,20,21,21,24,24,26,26,29,29,35,35,37,37],"right_children":[2,4,6,8,10,12,14,16,18,20,22,24,26,-1,-1,-1,28,-1,30,-1,32,34,-1,-1,36,-1,38,-1,-1,40,-1,-1,-1,-1,-1,42,-1,44,-1,-1,-1,-1,-1,-1,-1],"split_conditions":[5.797813E-1,6.554657E-1,6.0577697E-1,6.3016605E-1,4.8906282E-1,7.249747E-1,7.249747E-1,6.2372124E-1,5.5073494E-1,7.1477926E-1,5.14781E-1,5.498512E-1,3.3176947E-1,2.4990295E-1,2.1815348E-1,-1.184621E-1,5.638985E-1,-1.2046468E-1,6.3656473E-1,-1.2190222E-1,4.558923E-1,6.976312E-1,2.6743263E-1,-1.23041146E-1,6.3552827E-1,-1.23883955E-1,4.5937604E-1,-1.1769139E-1,2.237299E-1,5.638985E-1,2.7504468E-1,-1.15089916E-1,2.8557697E-1,-1.1837124E-1,2.5255397E-1,6.0248184E-1,2.7543524E-1,8.5744655E-1,2.4086511E-1,-8.0076866E-2,2.1601105E-1,-1.242857E-1,1.2344155E-2,-1.18174985E-1,2.3675115E-1],"split_indices":[0,1,1,1,0,0,0,1,0,1,0,1,1,0,0,0,0,0,1,0,0,1,0,0,0,0,1,0,0,0,0,0,0,0,0,1,0,0,0,0,0,0,0,0,0],"split_type":[0,0,0,0,0,0,0,0,0,0,0,0,0,0,0,0,0,0,0,0,0,0,0,0,0,0,0,0,0,0,0,0,0,0,0,0,0,0,0,0,0,0,0,0,0],"sum_hessian":[2.6103975E3,1.7275524E3,8.8284503E2,1.368465E3,3.5908743E2,5.280982E2,3.547468E2,1.250943E3,1.1752193E2,1.891409E2,1.6994652E2,2.9056143E2,2.3753676E2,2.3267238E2,1.2207442E2,1.2218125E3,2.9130522E1,9.387493E1,2.364699E1,1.2490995E2,6.423095E1,3.6380905E1,1.3356561E2,2.0260435E2,8.7957085E1,1.7685724E1,2.1985104E2,2.7020813E1,2.10971E0,3.7538073E0,1.9893183E1,2.6641857E1,3.7589092E1,1.0254889E1,2.6126017E1,5.2306896E1,3.565019E1,2.13589E1,1.9849214E2,1.5926856E0,2.1611218E0,5.0372482E1,1.9344118E0,6.2950287E0,1.506387E1],"tree_param":{"num_deleted":"0","num_feature":"5","num_nodes":"45","size_leaf_vector":"1"}},{"base_weights":[-1.9550662E-2,-6.522034E-1,1.155445E0,-1.0814912E0,-2.8301716E-1,6.6391593E-1,1.8440686E0,-1.1553546E-1,-7.870308E-1,-1.0629653E0,7.54809E-2,-6.296894E-1,1.0289471E0,2.0398279E-1,1.722288E-1,-1.1313082E-1,-6.22162E-1,-1.0720088E0,4.9464095E-2,-4.746397E-1,2.2661988E-1,-9.8155105E-1,-1.0168907E-1,1.2459526E0,9.6757615E-1,3.851866E-2,-7.8284407E-1,-1.1006248E0,-5.7968783E-1,-1.887439E-1,-7.33756E-1,8.4552157E-1,1.3582996E-1,-3.5070977E-1,-1.0018115E0,-4.5712262E-1,1.4292668E-1,1.0460908E0,1.4128396E-1,1.2485393E0,9.0109694E-1,2.6552036E-2,-4.9101975E-2,-5.106167E-2,-9.0856284E-2,-1.1070472E-1,-5.0605077E-2,-8.738607E-3,-7.774263E-2,5.4558967E-3,-6.786275E-2,-2.3904359E-2,-8.355963E-2,1.5820529E-1,3.1897426E-2,-7.532219E-3,4.468743E-2,2.0592447E-2,-6.993192E-2,-1.06381945E-1,-6.9265716E-2,4.447389E-2,-9.6171185E-2,1.1457559E-1,6.4306155E-2,4.4776585E-2,1.2866832E-1,7.700684E-2,1.133159E-1],"categories":[],"categories_nodes":[],"categories_segments":[],"categories_sizes":[],"default_left":[0,0,0,0,0,0,0,0,0,0,0,0,0,0,0,0,0,0,0,0,0,0,0,0,0,0,0,0,0,0,0,0,0,0,0,0,0,0,0,0,0,0,0,0,0,0,0,0,0,0,0,0,0,0,0,0,0,0,0,0,0,0,0,0,0,0,0,0,0],"id":5,"left_children":[1,3,5,7,9,11,13,-1,15,17,19,21,23,-1,-1,-1,25,27,-1,29,31,33,35,37,39,41,43,45,47,49,51,53,55,57,59,61,-1,63,-1,65,67,-1,-1,-1,-1,-1,-1,-1,-1,-1,-1,-1,-1,-1,-1,-1,-1,-1,-1,-1,-1,-1,-1,-1,-1,-1,-1,-1,-1],"loss_changes":[1.8794098E3,2.6014783E2,2.9828162E2,1.5609436E1,2.4750461E2,2.4519467E2,5.2593994E0,0E0,8.119209E0,4.456421E0,5.0590656E1,2.1190033E1,4.1786804E0,0E0,0E0,0E0,1.1424305E1,3.2703857E0,0E0,9.579645E0,2.668712E1,5.261154E-1,2.6197433E1,1.378952E0,4.8451233E0,2.7689018E0,2.492363E0,4.3670654E-1,1.6212583E0,7.631262E0,3.249813E0,2.3086002E1,2.743169E1,8.5711634E-1,5.279236E-1,1.810968E1,0E0,9.8353577E-1,0E0,1.2126999E0,7.096039E0,0E0,0E0,0E0,0E0,0E0,0E0,0E0,0E0,0E0,0E0,0E0,0E0,0E0,0E0,0E0,0E0,0E0,0E0,0E0,0E0,0E0,0E0,0E0,0E0,0E0,0E0,0E0,0E0],"parents":[2147483647,0,0,1,1,2,2,3,3,4,4,5,5,6,6,8,8,9,9,10,10,11,11,12,12,16,16,17,17,19,19,20,20,21,21,22,22,23,23,24,24,25,25,26,26,27,27,28,28,29,29,30,30,31,31,32,32,33,33,34,34,35,35,37,37,39,39,40,40],"right_children":[2,4,6,8,10,12,14,-1,16,18,20,22,24,-1,-1,-1,26,28,-1,30,32,34,36,38,40,42,44,46,48,50,52,54,56,58,60,62,-1,64,-1,66,68,-1,-1,-1,-1,-1,-1,-1,-1,-1,-1,-1,-1,-1,-1,-1,-1,-1,-1,-1,-1,-1,-1,-1,-1,-1,-1,-1,-1],"split_conditions":[5.797813E-1,4.712882E-1,7.249747E-1,4.712301E-1,2.7E1,4E0,2.9E1,-1.1553546E-1,1.1E1,3.73E2,4.8906282E-1,6.3552827E-1,4.61E0,2.0398279E-1,1.722288E-1,-1.1313082E-1,3E0,2E0,4.9464095E-2,2.3E1,7.5E1,5.8310395E-1,5E1,8E0,3E0,3.22E2,1.8E1,1.76E2,4.71E0,3.47E2,4.64E0,5.3161705E-1,5.5073494E-1,6E0,3.9E1,6.357877E-1,1.4292668E-1,3.64E2,1.4128396E-1,6.5E1,6.3552827E-1,2.6552036E-2,-4.9101975E-2,-5.106167E-2,-9.0856284E-2,-1.1070472E-1,-5.0605077E-2,-8.738607E-3,-7.774263E-2,5.4558967E-3,-6.786275E-2,-2.3904359E-2,-8.355963E-2,1.5820529E-1,3.1897426E-2,-7.532219E-3,4.468743E-2,2.0592447E-2,-6.993192E-2,-1.06381945E-1,-6.9265716E-2,4.447389E-2,-9.6171185E-2,1.1457559E-1,6.4306155E-2,4.4776585E-2,1.2866832E-1,7.700684E-2,1.133159E-1],"split_indices":[0,0,0,0,3,3,3,0,3,2,0,0,4,0,0,0,2,3,0,2,3,0,2,2,2,3,2,2,4,3,4,0,0,2,2,0,0,3,0,3,0,0,0,0,0,0,0,0,0,0,0,0,0,0,0,0,0,0,0,0,0,0,0,0,0,0,0,0,0],"split_type":[0,0,0,0,0,0,0,0,0,0,0,0,0,0,0,0,0,0,0,0,0,0,0,0,0,0,0,0,0,0,0,0,0,0,0,0,0,0,0,0,0,0,0,0,0,0,0,0,0,0,0,0,0,0,0,0,0,0,0,0,0,0,0,0,0,0,0,0,0],"sum_hessian":[2.526235E3,1.6423759E3,8.838592E2,7.584845E2,8.838914E2,5.168813E2,3.669779E2,6.0404126E2,1.5444322E2,2.7771967E2,6.0617175E2,1.1359519E2,4.0328613E2,1.3470052E2,2.3227737E2,4.8112774E1,1.06330444E2,2.7642645E2,1.293184E0,1.3018385E2,4.759879E2,6.765237E1,4.5942825E1,8.465322E1,3.186329E2,2.0950016E1,8.538043E1,2.6007416E2,1.6352306E1,6.271534E1,6.746852E1,5.9829052E1,4.1615887E2,2.6749134E0,6.4977455E1,3.785553E1,8.087296E0,4.1828358E1,4.2824863E1,5.7564667E1,2.6106824E2,1.5012893E1,5.9371223E0,2.8572357E1,5.6808075E1,2.5644226E2,3.6319137E0,5.0991282E0,1.1253179E1,4.249743E1,2.021791E1,1.208929E1,5.537923E1,2.4105642E1,3.572341E1,2.4833485E2,1.6782402E2,1.18773E0,1.4871835E0,5.2088806E1,1.2888646E1,1.3623898E1,2.4231632E1,3.2057903E1,9.770453E0,3.1965601E0,5.4368107E1,1.696165E2,9.145173E1],"tree_param":{"num_deleted":"0","num_feature":"5","num_nodes":"69","size_leaf_vector":"1"}},{"base_weights":[-2.7481535E-2,-6.3743603E-1,1.0341104E0,-1.078385E0,8.6694497E-1,3.6150137E-1,1.980599E0,-1.15333095E-1,-4.7696492E-1,-3.4447855E-1,2.0245478E0,-6.996488E-1,1.5709144E0,2.0622344E-1,1.7978883E-1,-1.1709201E-1,1.9217584E0,-1.1765075E-1,1.1697462E0,1.3288141E0,2.2870432E-1,-1.2163203E-1,3.824083E-1,-1.3027804E-1,1.801837E0,1.0367274E0,2.2544757E-1,-1.0485854E0,2.4447909E-1,-6.772853E-1,2.1558528E-1,-1.1703557E0,2.192777E-1,8.9331174E-1,1.9119467E-1,-1.00749135E-1,2.312506E-1,-1.1286129E-1,-2.2593142E-2,-1.1502319E-1,3.9434206E-2,-1.2243833E-1,7.1612517E-3,-1.1674183E-1,1.8979822E-1],"categories":[],"categories_nodes":[],"categories_segments":[],"categories_sizes":[],"default_left":[0,0,0,0,0,0,0,0,0,0,0,0,0,0,0,0,0,0,0,0,0,0,0,0,0,0,0,0,0,0,0,0,0,0,0,0,0,0,0,0,0,0,0,0,0],"id":6,"left_children":[1,3,5,7,9,11,13,-1,15,17,19,21,23,-1,-1,-1,25,-1,27,29,-1,-1,31,-1,33,35,-1,37,-1,39,-1,41,-1,43,-1,-1,-1,-1,-1,-1,-1,-1,-1,-1,-1],"loss_changes":[1.5697827E3,1.02225494E3,5.6246313E2,5.313684E1,4.9087735E2,6.663541E2,1.7703857E0,0E0,2.2478401E2,2.1764108E2,2.9630676E1,1.5521465E2,1.6331519E2,0E0,0E0,0E0,6.607338E0,0E0,1.7615787E2,8.672367E1,0E0,0E0,2.5616956E2,0E0,2.0794922E1,2.8802639E1,0E0,1.2658405E0,0E0,8.442493E0,0E0,3.3900375E0,0E0,5.644335E1,0E0,0E0,0E0,0E0,0E0,0E0,0E0,0E0,0E0,0E0,0E0],"parents":[2147483647,0,0,1,1,2,2,3,3,4,4,5,5,6,6,8,8,9,9,10,10,11,11,12,12,16,16,18,18,19,19,22,22,24,24,25,25,27,27,29,29,31,31,33,33],"right_children":[2,4,6,8,10,12,14,-1,16,18,20,22,24,-1,-1,-1,26,-1,28,30,-1,-1,32,-1,34,36,-1,38,-1,40,-1,42,-1,44,-1,-1,-1,-1,-1,-1,-1,-1,-1,-1,-1],"split_conditions":[5.797813E-1,6.554657E-1,6.0577697E-1,6.2372124E-1,4.8906282E-1,7.249747E-1,7.249747E-1,-1.15333095E-1,5.5073494E-1,7.1477926E-1,5.2344847E-1,5.498512E-1,3.3176947E-1,2.0622344E-1,1.7978883E-1,-1.1709201E-1,6.3656473E-1,-1.1765075E-1,4.712301E-1,6.976312E-1,2.2870432E-1,-1.2163203E-1,6.3552827E-1,-1.3027804E-1,4.6420446E-1,5.638985E-1,2.2544757E-1,7.326808E-1,2.4447909E-1,5.14781E-1,2.1558528E-1,6.0248184E-1,2.192777E-1,8.5744655E-1,1.9119467E-1,-1.00749135E-1,2.312506E-1,-1.1286129E-1,-2.2593142E-2,-1.1502319E-1,3.9434206E-2,-1.2243833E-1,7.1612517E-3,-1.1674183E-1,1.8979822E-1],"split_indices":[0,1,1,1,0,0,0,0,0,1,0,1,1,0,0,0,1,0,0,1,0,0,0,0,1,0,0,1,0,0,0,1,0,0,0,0,0,0,0,0,0,0,0,0,0],"split_type":[0,0,0,0,0,0,0,0,0,0,0,0,0,0,0,0,0,0,0,0,0,0,0,0,0,0,0,0,0,0,0,0,0,0,0,0,0,0,0,0,0,0,0,0,0],"sum_hessian":[2.4222712E3,1.5386278E3,8.8364343E2,1.1900853E3,3.4854254E2,5.1736615E2,3.6627725E2,1.0573998E3,1.3268552E2,1.7065532E2,1.7788724E2,2.7579904E2,2.4156714E2,2.4605334E2,1.20223915E2,1.03309685E2,2.937583E1,1.1028143E2,6.0373882E1,5.039077E1,1.2749646E2,1.865833E2,8.921574E1,1.7622608E1,2.2394453E2,9.150732E0,2.0225098E1,2.2100641E1,3.8273243E1,1.4762735E1,3.5628036E1,4.8214985E1,4.100075E1,2.5192427E1,1.987521E2,3.5971704E0,5.553562E0,1.9802359E1,2.2982833E0,1.0191514E1,4.571222E0,4.6218567E1,1.9964211E0,8.203607E0,1.698882E1],"tree_param":{"num_deleted":"0","num_feature":"5","num_nodes":"45","size_leaf_vector":"1"}},{"base_weights":[-2.4267532E-2,-6.080406E-1,9.7411484E-1,-1.0315149E0,-2.7183658E-1,5.813854E-1,1.5327331E0,-1.12003565E-1,-7.151305E-1,-1.0475645E0,5.1528282E-2,-5.289637E-1,8.683403E-1,1.6172118E-1,1.3219021E-1,-1.0966704E-1,-5.4847586E-1,-1.0745953E0,-6.6184646E-1,-4.4101587E-1,1.7722945E-1,-8.422378E-1,-1.0126455E-1,9.1557837E-1,6.4369166E-1,-5.955083E-2,-7.64725E-1,-1.08160906E-1,-2.5091937E-1,-2.89078E-3,-7.180874E-1,-7.0747875E-2,-6.288738E-1,4.9864745E-1,2.8814329E-2,-9.312984E-1,-4.6047634E-1,6.610732E-1,-7.021931E-1,8.1639636E-1,1.2662007E0,8.23745E-1,3.6208293E-1,1.7833602E-2,-6.6268474E-2,-5.8724996E-2,-8.723751E-2,1.7779695E-2,-5.8416802E-2,-4.049478E-2,-8.267906E-2,1.165583E-2,-4.545255E-2,5.2874006E-2,-6.737392E-2,8.472129E-2,3.1193811E-2,-1.5104435E-2,2.5869275E-2,-2.5282865E-2,-9.594221E-2,-6.89738E-2,-6.057724E-3,3.9790343E-2,1.2777592E-1,-1.0653156E-1,2.331152E-2,9.771513E-2,5.9739854E-2,1.0629132E-1,1.4249271E-1,2.4006313E-2,9.211157E-2,-4.032738E-2,4.1515693E-2],"categories":[],"categories_nodes":[],"categories_segments":[],"categories_sizes":[],"default_left":[0,0,0,0,0,0,0,0,0,0,0,0,0,0,0,0,0,0,0,0,0,0,0,0,0,0,0,0,0,0,0,0,0,0,0,0,0,0,0,0,0,0,0,0,0,0,0,0,0,0,0,0,0,0,0,0,0,0,0,0,0,0,0,0,0,0,0,0,0,0,0,0,0,0,0],"id":7,"left_children":[1,3,5,7,9,11,13,-1,15,17,19,21,23,-1,-1,-1,25,27,29,31,33,35,37,39,41,43,45,-1,47,-1,49,51,53,55,57,59,61,63,65,67,69,71,73,-1,-1,-1,-1,-1,-1,-1,-1,-1,-1,-1,-1,-1,-1,-1,-1,-1,-1,-1,-1,-1,-1,-1,-1,-1,-1,-1,-1,-1,-1,-1,-1],"loss_changes":[1.3463055E3,2.0724573E2,1.860957E2,1.7255615E1,2.042125E2,1.6043256E2,4.117981E0,0E0,8.536797E0,1.7859192E0,3.570234E1,1.3813253E1,3.648529E0,0E0,0E0,0E0,1.0741688E1,1.0123596E0,6.302557E-1,8.112829E0,2.1886854E1,1.6022415E0,2.107579E1,1.0358673E1,3.3905659E0,4.7628326E0,8.375664E-1,0E0,5.5794036E-1,0E0,2.3548889E-1,2.971442E0,4.390383E0,9.170277E0,1.3068979E1,6.6301346E-1,1.1755686E0,2.79389E0,8.958108E0,8.505432E0,7.577133E-1,2.2564278E0,1.3924618E0,0E0,0E0,0E0,0E0,0E0,0E0,0E0,0E0,0E0,0E0,0E0,0E0,0E0,0E0,0E0,0E0,0E0,0E0,0E0,0E0,0E0,0E0,0E0,0E0,0E0,0E0,0E0,0E0,0E0,0E0,0E0,0E0],"parents":[2147483647,0,0,1,1,2,2,3,3,4,4,5,5,6,6,8,8,9,9,10,10,11,11,12,12,16,16,17,17,18,18,19,19,20,20,21,21,22,22,23,23,24,24,25,25,26,26,28,28,30,30,31,31,32,32,33,33,34,34,35,35,36,36,37,37,38,38,39,39,40,40,41,41,42,42],"right_children":[2,4,6,8,10,12,14,-1,16,18,20,22,24,-1,-1,-1,26,28,30,32,34,36,38,40,42,44,46,-1,48,-1,50,52,54,56,58,60,62,64,66,68,70,72,74,-1,-1,-1,-1,-1,-1,-1,-1,-1,-1,-1,-1,-1,-1,-1,-1,-1,-1,-1,-1,-1,-1,-1,-1,-1,-1,-1,-1,-1,-1,-1,-1],"split_conditions":[5.797813E-1,4.712882E-1,7.249747E-1,4.712301E-1,2.9E1,6E0,2.69E2,-1.12003565E-1,1.1E1,2E0,4.8906282E-1,6.3552827E-1,6.357877E-1,1.6172118E-1,1.3219021E-1,-1.0966704E-1,6E0,2.35E2,4.4E0,1.2E1,4.71E0,3.9E1,6.357877E-1,6.3552827E-1,4.89E0,3.22E2,4.76E0,-1.08160906E-1,4.57E0,-2.89078E-3,1.1E1,3.59E2,3.9E1,5.3161705E-1,5.5073494E-1,5.8310395E-1,4.85E0,4.7E1,1.4E1,2.6E1,2.3E1,1.28E2,4.9E0,1.7833602E-2,-6.6268474E-2,-5.8724996E-2,-8.723751E-2,1.7779695E-2,-5.8416802E-2,-4.049478E-2,-8.267906E-2,1.165583E-2,-4.545255E-2,5.2874006E-2,-6.737392E-2,8.472129E-2,3.1193811E-2,-1.5104435E-2,2.5869275E-2,-2.5282865E-2,-9.594221E-2,-6.89738E-2,-6.057724E-3,3.9790343E-2,1.2777592E-1,-1.0653156E-1,2.331152E-2,9.771513E-2,5.9739854E-2,1.0629132E-1,1.4249271E-1,2.4006313E-2,9.211157E-2,-4.032738E-2,4.1515693E-2],"split_indices":[0,0,0,0,3,3,3,0,3,3,0,0,0,0,0,0,2,2,4,2,4,2,0,0,4,3,4,0,4,0,2,3,3,0,0,0,4,2,2,2,2,3,4,0,0,0,0,0,0,0,0,0,0,0,0,0,0,0,0,0,0,0,0,0,0,0,0,0,0,0,0,0,0,0,0],"split_type":[0,0,0,0,0,0,0,0,0,0,0,0,0,0,0,0,0,0,0,0,0,0,0,0,0,0,0,0,0,0,0,0,0,0,0,0,0,0,0,0,0,0,0,0,0,0,0,0,0,0,0,0,0,0,0,0,0,0,0,0,0,0,0,0,0,0,0,0,0,0,0,0,0,0,0],"sum_hessian":[2.3079343E3,1.4566151E3,8.5131934E2,6.4372577E2,8.1288934E2,5.010813E2,3.5023804E2,5.0100888E2,1.4271687E2,2.3850183E2,5.743875E2,1.027305E2,3.983508E2,2.4528368E2,1.0495436E2,4.1690327E1,1.0102654E2,2.2121341E2,1.7288424E1,1.1627401E2,4.581135E2,5.8737896E1,4.3992607E1,3.2659946E2,7.175136E1,3.1371965E1,6.965458E1,2.1903513E2,2.1782725E0,1.5343827E0,1.5754041E1,3.959967E1,7.667434E1,1.4396758E2,3.141459E2,4.6459866E1,1.2278031E1,1.9347847E1,2.464476E1,2.5717868E2,6.942077E1,4.259322E1,2.9158138E1,2.300335E1,8.368616E0,2.8735523E1,4.0919052E1,1.1566911E0,1.0215814E0,5.2772417E0,1.0476799E1,2.7079538E1,1.2520129E1,2.458374E0,7.4215965E1,4.8983414E1,9.498416E1,1.7644044E2,1.3770546E2,2.2467995E0,4.4213066E1,7.343329E0,4.9347024E0,1.471393E1,4.633918E0,1.7652416E1,6.9923425E0,1.4631474E2,1.10863945E2,3.3812366E1,3.56084E1,6.585051E0,3.6008167E1,1.4629697E0,2.769517E1],"tree_param":{"num_deleted":"0","num_feature":"5","num_nodes":"75","size_leaf_vector":"1"}},{"base_weights":[-3.637716E-2,-6.1077684E-1,9.697004E-1,-1.0016313E0,1.3323786E0,-5.4570895E-1,1.5704995E0,-1.1115787E0,1.254912E-3,-1.2588213E-1,1.5457401E0,-1.1407297E-1,1.0953054E0,1.0558904E0,1.7366226E0,-1.1394411E-1,-5.1847285E-1,-1.20384336E-1,1.8738168E-1,6.947397E-1,1.643837E-1,-1.0497085E-1,2.1736017E-1,-8.9205885E-1,1.7913015E0,1.1572706E0,1.7534637E0,-1.1253889E-1,1.4669228E0,-1.16125E-1,1.6110162E-1,-1.1596569E-1,2.54225E-1,1.3336451E0,2.1199849E-1,-9.0059295E-2,1.6719806E-1,1.8125369E-1,1.5683737E-1,2.3422148E-3,1.7617716E-1,-1.1075234E-1,1.9789925E-1,-2.259998E-2,1.9049169E-1],"categories":[],"categories_nodes":[],"categories_segments":[],"categories_sizes":[],"default_left":[0,0,0,0,0,0,0,0,0,0,0,0,0,0,0,0,0,0,0,0,0,0,0,0,0,0,0,0,0,0,0,0,0,0,0,0,0,0,0,0,0,0,0,0,0],"id":8,"left_children":[1,3,5,7,9,11,13,15,17,-1,19,-1,21,23,25,-1,27,-1,-1,29,-1,-1,-1,31,33,35,37,-1,39,-1,-1,-1,41,43,-1,-1,-1,-1,-1,-1,-1,-1,-1,-1,-1],"loss_changes":[1.2833785E3,1.0749851E3,7.357122E2,1.2983679E2,1.3306204E2,2.2572144E2,4.759912E1,1.6944946E1,2.670341E2,0E0,1.7187317E1,0E0,1.4495604E2,2.074005E2,2.2207031E0,0E0,6.1234413E1,0E0,0E0,4.3409332E1,0E0,0E0,0E0,1.2576862E1,1.2910339E1,1.7653479E1,1.7640381E0,0E0,5.070797E0,0E0,0E0,0E0,2.1917057E1,4.179628E1,0E0,0E0,0E0,0E0,0E0,0E0,0E0,0E0,0E0,0E0,0E0],"parents":[2147483647,0,0,1,1,2,2,3,3,4,4,5,5,6,6,7,7,8,8,10,10,12,12,13,13,14,14,16,16,19,19,23,23,24,24,25,25,26,26,28,28,32,32,33,33],"right_children":[2,4,6,8,10,12,14,16,18,-1,20,-1,22,24,26,-1,28,-1,-1,30,-1,-1,-1,32,34,36,38,-1,40,-1,-1,-1,42,44,-1,-1,-1,-1,-1,-1,-1,-1,-1,-1,-1],"split_conditions":[6.156035E-1,7.249747E-1,4.8906282E-1,6.3552827E-1,3.3176947E-1,7.1477926E-1,5.5073494E-1,6.0248184E-1,5.498512E-1,-1.2588213E-1,4.6420446E-1,-1.1407297E-1,4.712301E-1,6.6166174E-1,6.204822E-1,-1.1394411E-1,5.797813E-1,-1.20384336E-1,1.8738168E-1,8.5744655E-1,1.643837E-1,-1.0497085E-1,2.1736017E-1,6.554657E-1,5.2344847E-1,5.797813E-1,7.249747E-1,-1.1253889E-1,6.0577697E-1,-1.16125E-1,1.6110162E-1,-1.1596569E-1,5.3161705E-1,6.976312E-1,2.1199849E-1,-9.0059295E-2,1.6719806E-1,1.8125369E-1,1.5683737E-1,2.3422148E-3,1.7617716E-1,-1.1075234E-1,1.9789925E-1,-2.259998E-2,1.9049169E-1],"split_indices":[1,0,0,0,1,1,0,1,1,0,1,0,0,1,1,0,0,0,0,0,0,0,0,1,0,0,0,0,1,0,0,0,0,1,0,0,0,0,0,0,0,0,0,0,0],"split_type":[0,0,0,0,0,0,0,0,0,0,0,0,0,0,0,0,0,0,0,0,0,0,0,0,0,0,0,0,0,0,0,0,0,0,0,0,0,0,0,0,0,0,0,0,0],"sum_hessian":[2.2187732E3,1.412645E3,8.0612823E2,1.1764862E3,2.3615881E2,2.288887E2,5.7723956E2,1.0601522E3,1.1633397E2,1.7593395E1,2.1856543E2,1.6820395E2,6.0684746E1,1.4266234E2,4.345772E2,1.01170404E3,4.844823E1,7.099915E1,4.5334812E1,2.3425821E1,1.951396E2,2.030978E1,4.0374966E1,3.9040157E1,1.03622185E2,1.4245144E1,4.2033206E2,3.743721E1,1.1011022E1,7.654227E0,1.5771594E1,3.1641773E1,7.398384E0,4.5427208E1,5.819498E1,2.7001116E0,1.15450325E1,3.1197107E2,1.08361E2,2.0507138E0,8.960308E0,4.334252E0,3.0641322E0,1.2340488E1,3.308672E1],"tree_param":{"num_deleted":"0","num_feature":"5","num_nodes":"45","size_leaf_vector":"1"}},{"base_weights":[-3.2002613E-2,-5.909998E-1,9.0558684E-1,-1.0932858E0,8.629693E-1,-5.022177E-1,1.4439882E0,-1.1246748E-1,-4.617574E-1,-1.0947481E0,1.0592066E0,-1.1245123E-1,1.0597959E0,9.7425824E-1,1.6053431E0,-1.107255E-1,1.3672723E0,-1.2457272E-1,-3.643534E-1,1.5868407E-1,1.4682635E0,-1.07357465E-1,1.942763E-1,-1.13891E-1,1.556976E0,1.2756685E0,1.6526557E0,1.85556E-2,1.6215979E-1,-9.79401E-2,5.553657E-2,-1.1697721E-1,1.7198545E0,6.97489E-1,1.5446024E-1,6.54628E-1,1.7084172E0,-1.1063047E-1,1.551459E0,1.704031E-1,1.4750545E-1,7.683602E-2,-7.281496E-2,5.3492744E-2,1.7409718E-1,-1.1657097E-1,1.5088892E-1,-4.8670493E-2,1.9720322E-1,1.2326181E-1,1.9223057E-1,8.08919E-2,1.625093E-1],"categories":[],"categories_nodes":[],"categories_segments":[],"categories_sizes":[],"default_left":[0,0,0,0,0,0,0,0,0,0,0,0,0,0,0,0,0,0,0,0,0,0,0,0,0,0,0,0,0,0,0,0,0,0,0,0,0,0,0,0,0,0,0,0,0,0,0,0,0,0,0,0,0],"id":9,"left_children":[1,3,5,7,9,11,13,-1,15,17,19,-1,21,23,25,-1,27,-1,29,31,33,-1,-1,-1,35,37,39,41,-1,-1,-1,-1,43,45,-1,47,49,-1,51,-1,-1,-1,-1,-1,-1,-1,-1,-1,-1,-1,-1,-1,-1],"loss_changes":[1.0929951E3,9.5506024E2,5.9114343E2,1.873767E1,1.3024452E2,2.1137694E2,4.116211E1,0E0,5.7823845E1,2.976036E0,1.1244977E2,0E0,1.1909718E2,1.8238596E2,4.4123535E0,0E0,4.3909893E0,0E0,4.3573513E0,2.0250291E2,1.12925415E1,0E0,0E0,0E0,1.4650452E1,3.9062088E1,7.9119873E-1,2.2707238E0,0E0,0E0,0E0,0E0,1.9090271E-1,3.315662E1,0E0,2.83321E1,7.623047E0,0E0,1.4939575E0,0E0,0E0,0E0,0E0,0E0,0E0,0E0,0E0,0E0,0E0,0E0,0E0,0E0,0E0],"parents":[2147483647,0,0,1,1,2,2,3,3,4,4,5,5,6,6,8,8,9,9,10,10,12,12,13,13,14,14,16,16,18,18,19,19,20,20,24,24,25,25,26,26,27,27,32,32,33,33,35,35,36,36,38,38],"right_children":[2,4,6,8,10,12,14,-1,16,18,20,-1,22,24,26,-1,28,-1,30,32,34,-1,-1,-1,36,38,40,42,-1,-1,-1,-1,44,46,-1,48,50,-1,52,-1,-1,-1,-1,-1,-1,-1,-1,-1,-1,-1,-1,-1,-1],"split_conditions":[6.156035E-1,6.3552827E-1,4.8906282E-1,6.0248184E-1,3.6298913E-1,7.1477926E-1,5.5073494E-1,-1.1246748E-1,5.797813E-1,3.1667763E-1,7.249747E-1,-1.1245123E-1,4.558923E-1,6.554657E-1,6.3656473E-1,-1.107255E-1,6.0577697E-1,-1.2457272E-1,8.5744655E-1,5.498512E-1,4.5937604E-1,-1.07357465E-1,1.942763E-1,-1.13891E-1,6.708522E-1,5.638985E-1,7.249747E-1,1.07E2,1.6215979E-1,-9.79401E-2,5.553657E-2,-1.1697721E-1,5.520974E-1,8.5744655E-1,1.5446024E-1,5.3161705E-1,5.14781E-1,-1.1063047E-1,5.797813E-1,1.704031E-1,1.4750545E-1,7.683602E-2,-7.281496E-2,5.3492744E-2,1.7409718E-1,-1.1657097E-1,1.5088892E-1,-4.8670493E-2,1.9720322E-1,1.2326181E-1,1.9223057E-1,8.08919E-2,1.625093E-1],"split_indices":[1,0,0,1,1,1,0,0,0,1,0,0,0,1,1,0,1,0,0,1,1,0,0,0,1,0,0,3,0,0,0,0,1,0,0,0,0,0,0,0,0,0,0,0,0,0,0,0,0,0,0,0,0],"split_type":[0,0,0,0,0,0,0,0,0,0,0,0,0,0,0,0,0,0,0,0,0,0,0,0,0,0,0,0,0,0,0,0,0,0,0,0,0,0,0,0,0,0,0,0,0,0,0,0,0,0,0,0,0],"sum_hessian":[2.0834102E3,1.3054573E3,7.779528E2,9.704538E2,3.3500354E2,2.1523265E2,5.6272015E2,9.2375916E2,4.669464E1,3.0103556E1,3.0489996E2,1.5411462E2,6.111803E1,1.4567497E2,4.1704517E2,3.4805702E1,1.1888939E1,2.4362135E1,5.7414207E0,9.5671295E1,2.0922868E2,1.7827782E1,4.3290253E1,3.1281439E1,1.1439354E2,5.584924E1,3.6119592E2,2.0564291E0,9.83251E0,3.4016976E0,2.3397229E0,5.1823513E1,4.3847782E1,1.976842E1,1.8946025E2,1.7204552E1,9.718899E1,5.4828696E0,5.036637E1,2.734885E2,8.770744E1,1.0116147E0,1.0448146E0,1.2288036E0,4.261898E1,5.864726E0,1.3903694E1,9.556145E0,7.6484065E0,3.2237957E1,6.495103E1,5.6253233E0,4.4741047E1],"tree_param":{"num_deleted":"0","num_feature":"5","num_nodes":"53","size_leaf_vector":"1"}},{"base_weights":[-2.2682605E-2,-5.666222E-1,8.57387E-1,-9.555056E-1,-4.593413E-1,5.085389E-1,1.1348658E0,-1.1298229E-1,-7.842264E-1,-5.717106E-1,-2.4918132E-1,3.5809073E-1,6.768708E-1,9.781698E-1,1.3505435E0,-1.0031233E0,-6.330251E-1,-4.6556154E-1,-6.5975165E-1,-3.5371568E-2,-3.0864018E-1,-2.0228997E-1,4.1893396E-1,8.2148236E-1,5.1511306E-1,1.0167245E0,7.844433E-1,1.1137499E0,1.4063141E-1,-1.01276375E-1,-2.623837E-2,-7.263168E-1,-2.9172307E-1,-4.8239896E-1,-1.2996839E-1,-7.434053E-1,-6.021116E-1,4.8929417E-1,-2.0216161E-1,-3.6976662E-1,-1.9755086E-2,-3.623178E-1,3.2508618E-1,1.4497845E-1,5.176713E-1,6.567499E-1,9.098812E-1,3.1730565E-1,5.9562993E-1,1.0347616E-1,7.329133E-1,6.935552E-1,1.004729E0,9.180939E-1,1.2802026E0,-7.528177E-2,-4.1877344E-2,-5.0097425E-2,-5.9938006E-4,-4.379217E-2,-6.997002E-2,2.8147092E-2,-1.8087735E-2,-5.753946E-2,-8.263742E-2,-6.2369864E-2,-2.7546464E-2,2.789757E-2,9.246333E-2,-1.1662019E-2,-3.7490424E-2,-4.272997E-2,-2.3373738E-2,9.66957E-3,-3.7523046E-2,-6.9561295E-2,-1.2403413E-2,-1.3146171E-2,5.5681434E-2,2.4090935E-2,-2.2008387E-2,5.3143866E-2,-3.6887307E-2,7.846444E-2,3.4688864E-2,1.0341921E-1,6.9933295E-2,3.9659394E-3,5.2283026E-2,7.2341315E-2,3.7236664E-2,1.4168751E-2,9.301748E-2,8.130488E-2,1.027323E-2,1.1331042E-1,1.059142E-2,1.04000024E-1,5.096327E-2,1.3360439E-1,3.5185598E-2],"categories":[],"categories_nodes":[],"categories_segments":[],"categories_sizes":[],"default_left":[0,0,0,0,0,0,0,0,0,0,0,0,0,0,0,0,0,0,0,0,0,0,0,0,0,0,0,0,0,0,0,0,0,0,0,0,0,0,0,0,0,0,0,0,0,0,0,0,0,0,0,0,0,0,0,0,0,0,0,0,0,0,0,0,0,0,0,0,0,0,0,0,0,0,0,0,0,0,0,0,0,0,0,0,0,0,0,0,0,0,0,0,0,0,0,0,0,0,0,0,0],"id":10,"left_children":[1,3,5,7,9,11,13,-1,15,17,19,21,23,25,27,29,31,33,35,37,39,41,43,45,47,49,51,53,-1,-1,-1,55,57,59,61,63,65,67,69,71,73,75,77,79,81,83,85,87,89,-1,91,93,95,97,99,-1,-1,-1,-1,-1,-1,-1,-1,-1,-1,-1,-1,-1,-1,-1,-1,-1,-1,-1,-1,-1,-1,-1,-1,-1,-1,-1,-1,-1,-1,-1,-1,-1,-1,-1,-1,-1,-1,-1,-1,-1,-1,-1,-1,-1,-1],"loss_changes":[9.350277E2,4.9922028E1,7.164435E1,6.8791046E0,2.2246124E1,8.174599E0,1.2695801E1,0E0,3.815033E0,5.4587555E0,4.2106724E0,6.1408997E0,3.2197342E0,1.0237427E0,7.0391846E-1,1.1430359E-1,2.4064636E0,1.5370712E0,1.1669769E0,6.520585E0,4.578417E0,1.6428853E0,4.267849E0,5.7530594E-1,1.0244637E0,2.6542664E-1,2.0115471E-1,4.840088E-2,0E0,0E0,0E0,2.0561218E-1,1.1523461E0,2.2956161E0,3.628967E-1,1.3693008E0,1.2632446E0,1.3895311E0,7.8952575E-1,1.5771179E0,1.9573941E0,1.0523471E0,5.7403505E-1,1.5912793E0,1.6317368E0,9.8493195E-1,5.8073425E-1,1.3591111E0,1.2429199E0,0E0,1.6618032E0,2.3860645E0,1.134407E0,5.060997E-1,4.5097923E-1,0E0,0E0,0E0,0E0,0E0,0E0,0E0,0E0,0E0,0E0,0E0,0E0,0E0,0E0,0E0,0E0,0E0,0E0,0E0,0E0,0E0,0E0,0E0,0E0,0E0,0E0,0E0,0E0,0E0,0E0,0E0,0E0,0E0,0E0,0E0,0E0,0E0,0E0,0E0,0E0,0E0,0E0,0E0,0E0,0E0,0E0],"parents":[2147483647,0,0,1,1,2,2,3,3,4,4,5,5,6,6,8,8,9,9,10,10,11,11,12,12,13,13,14,14,15,15,16,16,17,17,18,18,19,19,20,20,21,21,22,22,23,23,24,24,25,25,26,26,27,27,31,31,32,32,33,33,34,34,35,35,36,36,37,37,38,38,39,39,40,40,41,41,42,42,43,43,44,44,45,45,46,46,47,47,48,48,50,50,51,51,52,52,53,53,54,54],"right_children":[2,4,6,8,10,12,14,-1,16,18,20,22,24,26,28,30,32,34,36,38,40,42,44,46,48,50,52,54,-1,-1,-1,56,58,60,62,64,66,68,70,72,74,76,78,80,82,84,86,88,90,-1,92,94,96,98,100,-1,-1,-1,-1,-1,-1,-1,-1,-1,-1,-1,-1,-1,-1,-1,-1,-1,-1,-1,-1,-1,-1,-1,-1,-1,-1,-1,-1,-1,-1,-1,-1,-1,-1,-1,-1,-1,-1,-1,-1,-1,-1,-1,-1,-1,-1],"split_conditions":[6.156035E-1,4.7071984E-1,6.723715E-1,3.3176947E-1,5.498512E-1,6.4764595E-1,7.1477926E-1,-1.1298229E-1,4.83E0,4.8942038E-1,1E0,4.48E0,2.36E2,7.062783E-1,4.43E0,2.91E2,7.7E1,6.8E1,4.79E0,6E0,6.0577697E-1,3.65E2,9E0,6.570198E-1,3.14E2,1.7E2,3.43E2,7.286136E-1,1.4063141E-1,-1.01276375E-1,-2.623837E-2,4.5937604E-1,4.95E0,1E0,7.1E1,5.021118E-1,1.21E2,5.841999E-1,8.5E1,5.5E1,3.59E2,7E0,3.9E0,3.63E2,3.73E2,6.3E1,1.42E2,4.79E0,3.65E2,1.0347616E-1,6.8290484E-1,2.72E2,4.7E1,7E0,3.63E2,-7.528177E-2,-4.1877344E-2,-5.0097425E-2,-5.9938006E-4,-4.379217E-2,-6.997002E-2,2.8147092E-2,-1.8087735E-2,-5.753946E-2,-8.263742E-2,-6.2369864E-2,-2.7546464E-2,2.789757E-2,9.246333E-2,-1.1662019E-2,-3.7490424E-2,-4.272997E-2,-2.3373738E-2,9.66957E-3,-3.7523046E-2,-6.9561295E-2,-1.2403413E-2,-1.3146171E-2,5.5681434E-2,2.4090935E-2,-2.2008387E-2,5.3143866E-2,-3.6887307E-2,7.846444E-2,3.4688864E-2,1.0341921E-1,6.9933295E-2,3.9659394E-3,5.2283026E-2,7.2341315E-2,3.7236664E-2,1.4168751E-2,9.301748E-2,8.130488E-2,1.027323E-2,1.1331042E-1,1.059142E-2,1.04000024E-1,5.096327E-2,1.3360439E-1,3.5185598E-2],"split_indices":[1,1,1,1,1,1,1,0,4,1,3,4,3,1,4,2,2,2,4,2,1,3,2,1,3,2,3,1,0,0,0,1,4,3,2,1,2,1,2,2,3,2,4,3,2,2,3,4,3,0,1,3,2,2,3,0,0,0,0,0,0,0,0,0,0,0,0,0,0,0,0,0,0,0,0,0,0,0,0,0,0,0,0,0,0,0,0,0,0,0,0,0,0,0,0,0,0,0,0,0,0],"split_type":[0,0,0,0,0,0,0,0,0,0,0,0,0,0,0,0,0,0,0,0,0,0,0,0,0,0,0,0,0,0,0,0,0,0,0,0,0,0,0,0,0,0,0,0,0,0,0,0,0,0,0,0,0,0,0,0,0,0,0,0,0,0,0,0,0,0,0,0,0,0,0,0,0,0,0,0,0,0,0,0,0,0,0,0,0,0,0,0,0,0,0,0,0,0,0,0,0,0,0,0,0],"sum_hessian":[1.9512303E3,1.2061243E3,7.4510614E2,2.5907925E2,9.47045E2,3.3135596E2,4.1375018E2,1.256273E2,1.3345197E2,6.1597314E2,3.310718E2,1.7662395E2,1.5473201E2,2.4284897E2,1.709012E2,5.221909E1,8.123287E1,2.82118E2,3.3385516E2,7.2382935E1,2.5868887E2,1.7071016E1,1.5955293E2,7.954249E1,7.5189514E1,1.989972E2,4.3851776E1,3.6575783E1,1.3432541E2,5.1185696E1,1.0333931E0,6.290916E1,1.8323711E1,2.6822324E2,1.3894765E1,1.3134111E2,2.0251405E2,1.6993494E1,5.5389442E1,2.1328004E2,4.540882E1,1.3336998E1,3.7340188E0,4.292422E1,1.16628716E2,3.072166E1,4.882083E1,2.3181044E1,5.2008472E1,1.8461816E2,1.4379034E1,3.398024E1,9.871538E0,1.9808102E1,1.676768E1,5.658538E1,6.3237777E0,1.0142572E1,8.181138E0,2.2515393E2,4.3069298E1,1.0312706E0,1.2863495E1,4.604196E1,8.529914E1,1.8910715E2,1.3406902E1,1.2564319E1,4.429176E0,3.816527E1,1.7224173E1,1.4838142E2,6.489863E1,3.475225E1,1.0656568E1,4.759903E0,8.577095E0,1.4028436E0,2.3311753E0,3.4261173E1,8.663046E0,1.1523968E2,1.3890349E0,2.0661455E1,1.0060205E1,2.8237234E1,2.0583595E1,1.0367882E1,1.2813161E1,3.1652308E1,2.0356165E1,4.027179E0,1.0351855E1,2.7951029E1,6.0292106E0,8.409735E0,1.4618033E0,1.4064404E1,5.7436996E0,1.5402062E1,1.3656172E0],"tree_param":{"num_deleted":"0","num_feature":"5","num_nodes":"101","size_leaf_vector":"1"}},{"base_weights":[-2.9928554E-2,-5.552408E-1,7.8827256E-1,-1.0126989E0,6.432024E-1,1.3836432E-1,1.3312337E0,-1.0886658E0,-3.7874284E-1,-3.047582E-1,1.4000753E0,-9.621571E-1,1.1533176E0,8.107707E-1,1.4857683E-1,-1.0977482E-1,-7.2503E-1,-1.112679E-1,1.4454538E0,-1.12151824E-1,8.693152E-1,8.541021E-1,1.5903902E0,-1.14794694E-1,1.6822912E-1,-1.1433722E-1,1.3884169E0,-1.0849484E0,1.5375178E-1,-1.0814798E-1,1.3924204E-1,4.1085866E-1,1.6417997E-1,-1.0729326E-1,1.6628842E-1,-6.376053E-1,1.5661952E-1,1.1414455E0,1.6403478E-1,-1.08411156E-1,1.461471E-1,7.0095575E-1,1.4872237E-1,-1.1416328E-1,-1.8933477E-2,-8.824259E-2,1.4457984E-1,-1.1521595E-1,3.197893E-2,-1.10277295E-1,1.677966E-1,-1.1164387E-1,1.4719748E-1],"categories":[],"categories_nodes":[],"categories_segments":[],"categories_sizes":[],"default_left":[0,0,0,0,0,0,0,0,0,0,0,0,0,0,0,0,0,0,0,0,0,0,0,0,0,0,0,0,0,0,0,0,0,0,0,0,0,0,0,0,0,0,0,0,0,0,0,0,0,0,0,0,0],"id":11,"left_children":[1,3,5,7,9,11,13,15,17,19,21,23,25,27,-1,-1,29,-1,31,-1,33,35,37,-1,39,-1,41,43,-1,-1,-1,45,-1,-1,-1,47,-1,49,-1,-1,-1,51,-1,-1,-1,-1,-1,-1,-1,-1,-1,-1,-1],"loss_changes":[8.1803754E2,6.360846E2,2.624195E2,4.0005188E1,2.3060262E2,3.8071204E2,3.1396362E1,1.6773682E0,1.23895935E2,1.3833943E2,1.7195526E1,3.4550583E1,9.729463E1,1.3254906E2,0E0,0E0,1.7502426E1,0E0,4.7371025E0,0E0,9.323269E1,5.232006E1,1.0712891E0,0E0,4.039792E1,0E0,9.910187E0,1.1501312E0,0E0,0E0,0E0,8.748657E0,0E0,0E0,0E0,8.409237E0,0E0,2.163379E1,0E0,0E0,0E0,3.2687E1,0E0,0E0,0E0,0E0,0E0,0E0,0E0,0E0,0E0,0E0,0E0],"parents":[2147483647,0,0,1,1,2,2,3,3,4,4,5,5,6,6,7,7,8,8,9,9,10,10,11,11,12,12,13,13,16,16,18,18,20,20,21,21,22,22,24,24,26,26,27,27,31,31,35,35,37,37,41,41],"right_children":[2,4,6,8,10,12,14,16,18,20,22,24,26,28,-1,-1,30,-1,32,-1,34,36,38,-1,40,-1,42,44,-1,-1,-1,46,-1,-1,-1,48,-1,50,-1,-1,-1,52,-1,-1,-1,-1,-1,-1,-1,-1,-1,-1,-1],"split_conditions":[5.797813E-1,6.554657E-1,5.622952E-1,6.3016605E-1,4.8906282E-1,7.249747E-1,6.0577697E-1,6.2372124E-1,5.5073494E-1,7.1477926E-1,5.2344847E-1,5.498512E-1,3.3176947E-1,6.3552827E-1,1.4857683E-1,-1.0977482E-1,5.638985E-1,-1.112679E-1,6.3656473E-1,-1.12151824E-1,4.558923E-1,6.976312E-1,6.6320217E-1,-1.14794694E-1,6.3552827E-1,-1.1433722E-1,4.5937604E-1,6.0248184E-1,1.5375178E-1,-1.0814798E-1,1.3924204E-1,5.638985E-1,1.6417997E-1,-1.0729326E-1,1.6628842E-1,5.14781E-1,1.5661952E-1,5.3161705E-1,1.6403478E-1,-1.08411156E-1,1.461471E-1,8.5744655E-1,1.4872237E-1,-1.1416328E-1,-1.8933477E-2,-8.824259E-2,1.4457984E-1,-1.1521595E-1,3.197893E-2,-1.10277295E-1,1.677966E-1,-1.1164387E-1,1.4719748E-1],"split_indices":[0,1,1,1,0,0,1,1,0,1,0,1,1,0,0,0,0,0,1,0,0,1,1,0,0,0,1,1,0,0,0,0,0,0,0,0,0,0,0,0,0,0,0,0,0,0,0,0,0,0,0,0,0],"split_type":[0,0,0,0,0,0,0,0,0,0,0,0,0,0,0,0,0,0,0,0,0,0,0,0,0,0,0,0,0,0,0,0,0,0,0,0,0,0,0,0,0,0,0,0,0,0,0,0,0,0,0,0,0],"sum_hessian":[1.9012307E3,1.1580474E3,7.431834E2,8.382382E2,3.198091E2,3.3884775E2,4.043357E2,7.4789996E2,9.033822E1,1.422467E2,1.7756241E2,1.6259586E2,1.7625188E2,9.399901E1,3.1033667E2,7.277059E2,2.0194092E1,6.4698044E1,2.5640173E1,8.391492E1,5.8331787E1,4.7314617E1,1.3024779E2,1.3963068E2,2.2965183E1,1.6007818E1,1.6024406E2,2.5912746E1,6.808626E1,1.7703203E1,2.4908884E0,4.5831194E0,2.1057055E1,1.6817987E1,4.15138E1,1.5322122E1,3.1992495E1,1.5430434E1,1.1481735E2,1.1749243E1,1.1215941E1,2.1154306E1,1.3908975E2,2.4111982E1,1.8007644E0,2.1027896E0,2.4803298E0,9.833598E0,5.4885235E0,2.7735395E0,1.2656895E1,6.167853E0,1.4986453E1],"tree_param":{"num_deleted":"0","num_feature":"5","num_nodes":"53","size_leaf_vector":"1"}},{"base_weights":[-2.7472965E-2,-5.4018414E-1,7.6017493E-1,-1.0000684E0,6.17304E-1,8.997669E-2,1.2265377E0,-1.0871315E-1,-4.2349553E-1,-2.7940595E-1,1.3304567E0,-1.1185576E0,1.1093485E0,7.528369E-1,1.4165978E-1,-1.10042445E-1,1.2679391E0,-1.10717915E-1,8.445643E-1,8.4909123E-1,1.498871E0,-1.1310881E-1,-1.3791581E-2,-1.1542244E-1,1.3238301E0,-1.0606729E0,1.4747709E-1,4.8785478E-1,1.5330657E-1,-9.5181626E-1,1.5661767E-1,-6.198095E-1,1.4795929E-1,1.1360431E0,1.5422438E-1,6.3730496E-1,1.4195365E-1,-1.1318218E-1,1.5343535E-2,-9.8371744E-2,1.5304993E-1,-1.0552055E-1,-6.5352097E-3,-1.114345E-1,2.6659584E-2,-1.036796E-1,1.5696093E-1,-1.0715582E-1,1.3833097E-1],"categories":[],"categories_nodes":[],"categories_segments":[],"categories_sizes":[],"default_left":[0,0,0,0,0,0,0,0,0,0,0,0,0,0,0,0,0,0,0,0,0,0,0,0,0,0,0,0,0,0,0,0,0,0,0,0,0,0,0,0,0,0,0,0,0,0,0,0,0],"id":12,"left_children":[1,3,5,7,9,11,13,-1,15,17,19,21,23,25,-1,-1,27,-1,29,31,33,-1,-1,-1,35,37,-1,39,-1,41,-1,43,-1,45,-1,47,-1,-1,-1,-1,-1,-1,-1,-1,-1,-1,-1,-1,-1],"loss_changes":[7.189187E2,5.7459656E2,2.1928152E2,3.8295837E1,1.9683403E2,3.5739685E2,3.6191223E1,0E0,1.19243355E2,1.2832465E2,1.2614105E1,1.4755249E0,7.790869E1,1.5949617E2,0E0,0E0,5.4325256E0,0E0,7.7502426E1,4.4172146E1,2.2436523E-1,0E0,0E0,0E0,8.568237E0,3.190937E0,0E0,1.5386379E1,0E0,1.5281992E0,0E0,6.7546573E0,0E0,1.78376E1,0E0,2.6283283E1,0E0,0E0,0E0,0E0,0E0,0E0,0E0,0E0,0E0,0E0,0E0,0E0,0E0],"parents":[2147483647,0,0,1,1,2,2,3,3,4,4,5,5,6,6,8,8,9,9,10,10,11,11,12,12,13,13,16,16,18,18,19,19,20,20,24,24,25,25,27,27,29,29,31,31,33,33,35,35],"right_children":[2,4,6,8,10,12,14,-1,16,18,20,22,24,26,-1,-1,28,-1,30,32,34,-1,-1,-1,36,38,-1,40,-1,42,-1,44,-1,46,-1,48,-1,-1,-1,-1,-1,-1,-1,-1,-1,-1,-1,-1,-1],"split_conditions":[5.797813E-1,6.554657E-1,5.520974E-1,6.2372124E-1,4.8906282E-1,7.249747E-1,6.0577697E-1,-1.0871315E-1,5.5073494E-1,7.1477926E-1,5.2344847E-1,5.498512E-1,3.3176947E-1,6.3552827E-1,1.4165978E-1,-1.10042445E-1,6.3656473E-1,-1.10717915E-1,4.712301E-1,6.976312E-1,6.6320217E-1,-1.1310881E-1,-1.3791581E-2,-1.1542244E-1,4.5937604E-1,6.0248184E-1,1.4747709E-1,5.638985E-1,1.5330657E-1,7.326808E-1,1.5661767E-1,5.14781E-1,1.4795929E-1,5.3161705E-1,1.5422438E-1,8.5744655E-1,1.4195365E-1,-1.1318218E-1,1.5343535E-2,-9.8371744E-2,1.5304993E-1,-1.0552055E-1,-6.5352097E-3,-1.114345E-1,2.6659584E-2,-1.036796E-1,1.5696093E-1,-1.0715582E-1,1.3833097E-1],"split_indices":[0,1,1,1,0,0,1,0,0,1,0,1,1,0,0,0,1,0,0,1,1,0,0,0,1,1,0,0,0,1,0,0,0,0,0,0,0,0,0,0,0,0,0,0,0,0,0,0,0],"split_type":[0,0,0,0,0,0,0,0,0,0,0,0,0,0,0,0,0,0,0,0,0,0,0,0,0,0,0,0,0,0,0,0,0,0,0,0,0,0,0,0,0,0,0,0,0,0,0,0,0],"sum_hessian":[1.7782081E3,1.0772789E3,7.0092926E2,7.710624E2,3.0621655E2,2.8810037E2,4.128289E2,6.6913654E2,1.01925804E2,1.3592023E2,1.7029631E2,1.3177496E2,1.5632542E2,1.1962923E2,2.9319965E2,7.304278E1,2.8883028E1,7.828236E1,5.7637867E1,4.5704468E1,1.2459185E2,1.2996092E2,1.8140382E0,1.3151121E1,1.431743E2,3.3929234E1,8.569999E1,8.046835E0,2.0836193E1,1.642657E1,4.1211296E1,1.3731257E1,3.197321E1,1.6207048E1,1.083848E2,1.8454504E1,1.247198E2,3.2115013E1,1.8142228E0,3.3604565E0,4.686379E0,1.4540361E1,1.8862101E0,8.6488285E0,5.082429E0,2.4645438E0,1.3742505E1,5.475485E0,1.2979019E1],"tree_param":{"num_deleted":"0","num_feature":"5","num_nodes":"49","size_leaf_vector":"1"}},{"base_weights":[-3.0902505E-2,-5.476877E-1,7.3957765E-1,-9.92641E-1,5.702305E-1,2.6646852E-1,1.363998E-1,-1.07806996E-1,-4.3180037E-1,-3.1089523E-1,1.2532729E0,-6.260247E-1,1.1309031E0,-1.0871302E-1,1.1585443E0,-1.0927699E-1,7.3158085E-1,8.083468E-1,1.4128895E0,-1.1155852E-1,2.6192656E-1,-1.1144654E-1,1.2840065E0,4.5584062E-1,1.4465444E-1,-1.04866005E-1,1.4755522E-1,-5.740601E-1,1.4168002E-1,9.722191E-1,1.4656161E-1,-1.0637808E0,1.4462237E-1,6.5051675E-1,1.3615356E-1,-9.765383E-2,1.4643908E-1,-1.08615175E-1,3.4694754E-2,-1.0119791E-1,1.4466305E-1,-1.1097822E-1,-1.3137924E-2,-9.838262E-2,1.2845594E-1],"categories":[],"categories_nodes":[],"categories_segments":[],"categories_sizes":[],"default_left":[0,0,0,0,0,0,0,0,0,0,0,0,0,0,0,0,0,0,0,0,0,0,0,0,0,0,0,0,0,0,0,0,0,0,0,0,0,0,0,0,0,0,0,0,0],"id":13,"left_children":[1,3,5,7,9,11,-1,-1,13,15,17,19,21,-1,23,-1,25,27,29,-1,31,-1,33,35,-1,-1,-1,37,-1,39,-1,41,-1,43,-1,-1,-1,-1,-1,-1,-1,-1,-1,-1,-1],"loss_changes":[6.578356E2,4.9243396E2,1.9558304E2,3.3440735E1,1.7020596E2,2.9280347E2,0E0,0E0,1.0049197E2,1.0188206E2,1.0159973E1,8.154899E1,6.767012E1,0E0,5.061741E0,0E0,7.2734886E1,3.8122314E1,1.2654572E0,0E0,1.0710977E2,0E0,7.9964294E0,1.5411295E1,0E0,0E0,0E0,7.1061153E0,0E0,1.5907797E1,0E0,1.2397232E0,0E0,2.3682352E1,0E0,0E0,0E0,0E0,0E0,0E0,0E0,0E0,0E0,0E0,0E0],"parents":[2147483647,0,0,1,1,2,2,3,3,4,4,5,5,8,8,9,9,10,10,11,11,12,12,14,14,16,16,17,17,18,18,20,20,22,22,23,23,27,27,29,29,31,31,33,33],"right_children":[2,4,6,8,10,12,-1,-1,14,16,18,20,22,-1,24,-1,26,28,30,-1,32,-1,34,36,-1,-1,-1,38,-1,40,-1,42,-1,44,-1,-1,-1,-1,-1,-1,-1,-1,-1,-1,-1],"split_conditions":[5.797813E-1,6.554657E-1,6.0577697E-1,6.2372124E-1,4.8906282E-1,7.249747E-1,1.363998E-1,-1.07806996E-1,5.5073494E-1,7.1477926E-1,5.2344847E-1,5.498512E-1,3.1667763E-1,-1.0871302E-1,6.3656473E-1,-1.0927699E-1,4.712301E-1,6.976312E-1,6.6320217E-1,-1.1155852E-1,6.3552827E-1,-1.1144654E-1,4.6420446E-1,5.638985E-1,1.4465444E-1,-1.04866005E-1,1.4755522E-1,5.14781E-1,1.4168002E-1,5.3161705E-1,1.4656161E-1,6.0248184E-1,1.4462237E-1,8.5744655E-1,1.3615356E-1,-9.765383E-2,1.4643908E-1,-1.08615175E-1,3.4694754E-2,-1.0119791E-1,1.4466305E-1,-1.1097822E-1,-1.3137924E-2,-9.838262E-2,1.2845594E-1],"split_indices":[0,1,1,1,0,0,0,0,0,1,0,1,1,0,1,0,0,1,1,0,0,0,1,0,0,0,0,0,0,0,0,1,0,0,0,0,0,0,0,0,0,0,0,0,0],"split_type":[0,0,0,0,0,0,0,0,0,0,0,0,0,0,0,0,0,0,0,0,0,0,0,0,0,0,0,0,0,0,0,0,0,0,0,0,0,0,0,0,0,0,0,0,0],"sum_hessian":[1.6501189E3,9.8783563E2,6.622832E2,7.0667664E2,2.8115903E2,3.7760626E2,2.8467694E2,6.124622E2,9.421442E1,1.230147E2,1.5814432E2,1.859236E2,1.9168266E2,6.694497E1,2.7269445E1,7.026587E1,5.2748833E1,4.335578E1,1.1478853E2,1.1968207E2,6.624153E1,1.1834986E1,1.7984767E2,8.678118E0,1.8591328E1,1.5426171E1,3.7322662E1,1.3267816E1,3.0087967E1,1.4344136E1,1.0044439E2,3.13028E1,3.493873E1,2.0634472E1,1.5921321E2,3.5987644E0,5.079353E0,8.41157E0,4.8562455E0,2.5491862E0,1.17949505E1,2.9649742E1,1.6530565E0,5.613397E0,1.5021074E1],"tree_param":{"num_deleted":"0","num_feature":"5","num_nodes":"45","size_leaf_vector":"1"}},{"base_weights":[-3.7305776E-2,-5.277077E-1,6.8449086E-1,-1.0192909E0,-4.57716E-1,4.0543136E-1,9.1103864E-1,-1.07507244E-1,-7.8871965E-1,-5.626243E-1,-2.4201101E-1,2.9927093E-1,5.6234455E-1,7.6940686E-1,1.1078125E-1,-8.107858E-2,-2.7532158E-2,-4.8509172E-1,-6.6287655E-1,-3.6291867E-2,-3.0109662E-1,-1.1821309E-1,3.3943275E-1,6.838206E-1,4.3743184E-1,7.839767E-2,5.035008E-1,-7.007927E-1,-4.503466E-1,-7.214124E-1,-4.736005E-1,4.729893E-1,-1.4599623E-1,-3.564294E-1,-8.3494104E-2,-2.7348801E-1,1.4144005E-1,1.4874521E-1,4.0597853E-1,1.3572294E-1,7.2107553E-1,5.2846754E-1,1.0430251E-1,-1.181346E-1,6.86723E-1,-6.062279E-2,-8.660914E-2,-4.5449194E-2,-4.6412437E-3,-8.043394E-2,-6.568456E-2,-6.4569496E-2,-8.9207385E-3,1.8270185E-2,5.8129232E-2,2.1501966E-2,-2.16012E-2,-4.1325115E-2,-2.455285E-2,-2.8504595E-2,3.5671056E-3,8.462848E-3,-4.394966E-2,-6.089482E-3,4.0368862E-2,3.906406E-2,-7.2340593E-3,2.4569584E-2,4.7492813E-2,3.3201873E-2,-2.8103692E-2,9.630504E-2,6.502064E-2,3.0083705E-2,6.1725784E-2,-4.187421E-2,5.0458368E-2,2.7253712E-2,-5.7072204E-2,-1.5160464E-2,7.989913E-2],"categories":[],"categories_nodes":[],"categories_segments":[],"categories_sizes":[],"default_left":[0,0,0,0,0,0,0,0,0,0,0,0,0,0,0,0,0,0,0,0,0,0,0,0,0,0,0,0,0,0,0,0,0,0,0,0,0,0,0,0,0,0,0,0,0,0,0,0,0,0,0,0,0,0,0,0,0,0,0,0,0,0,0,0,0,0,0,0,0,0,0,0,0,0,0,0,0,0,0,0,0],"id":14,"left_children":[1,3,5,7,9,11,13,-1,15,17,19,21,23,25,-1,-1,-1,27,29,31,33,35,37,39,41,-1,43,45,47,49,51,53,55,57,59,61,63,65,67,69,71,73,75,77,79,-1,-1,-1,-1,-1,-1,-1,-1,-1,-1,-1,-1,-1,-1,-1,-1,-1,-1,-1,-1,-1,-1,-1,-1,-1,-1,-1,-1,-1,-1,-1,-1,-1,-1,-1,-1],"loss_changes":[5.4112744E2,3.0851654E1,3.873123E1,6.0069275E-1,1.7935638E1,4.478039E0,8.638763E0,0E0,6.7863464E-2,3.848816E0,3.186655E0,2.86545E0,1.3915443E0,3.8513184E-1,0E0,0E0,0E0,1.9798279E0,2.2205353E0,3.4120488E0,2.429306E0,6.6478765E-1,1.8934879E0,1.0193081E0,1.6949749E0,0E0,1.590488E0,1.11040115E-1,4.2529297E-1,4.0718842E-1,3.7485495E0,2.346127E-1,1.3101432E0,9.22678E-1,1.0359813E0,6.3519347E-1,3.6792177E-1,2.242939E0,1.1383629E0,4.789531E-1,2.4834824E-1,7.253685E-1,3.06523E0,8.398042E-1,1.0982585E0,0E0,0E0,0E0,0E0,0E0,0E0,0E0,0E0,0E0,0E0,0E0,0E0,0E0,0E0,0E0,0E0,0E0,0E0,0E0,0E0,0E0,0E0,0E0,0E0,0E0,0E0,0E0,0E0,0E0,0E0,0E0,0E0,0E0,0E0,0E0,0E0],"parents":[2147483647,0,0,1,1,2,2,3,3,4,4,5,5,6,6,8,8,9,9,10,10,11,11,12,12,13,13,17,17,18,18,19,19,20,20,21,21,22,22,23,23,24,24,26,26,27,27,28,28,29,29,30,30,31,31,32,32,33,33,34,34,35,35,36,36,37,37,38,38,39,39,40,40,41,41,42,42,43,43,44,44],"right_children":[2,4,6,8,10,12,14,-1,16,18,20,22,24,26,-1,-1,-1,28,30,32,34,36,38,40,42,-1,44,46,48,50,52,54,56,58,60,62,64,66,68,70,72,74,76,78,80,-1,-1,-1,-1,-1,-1,-1,-1,-1,-1,-1,-1,-1,-1,-1,-1,-1,-1,-1,-1,-1,-1,-1,-1,-1,-1,-1,-1,-1,-1,-1,-1,-1,-1,-1,-1],"split_conditions":[6.156035E-1,3.8720417E-1,6.723715E-1,3.3176947E-1,5.498512E-1,6.523476E-1,7.1477926E-1,-1.07507244E-1,1.43E2,1E0,1E0,4.47E0,2.32E2,1.7E2,1.1078125E-1,-8.107858E-2,-2.7532158E-2,4.5E0,5.6E1,3E0,6.0248184E-1,3.38E2,9E0,2E0,5.6E1,7.839767E-2,6.8290484E-1,9E0,1.38E2,4.84E0,4.93E0,5.6568325E-1,4.51E0,3.31E2,4.8E0,1.75E2,1.6E1,2.4E2,4.76E0,6.693292E-1,5.8E1,3.14E2,1.03E2,4.82E0,1.83E2,-6.062279E-2,-8.660914E-2,-4.5449194E-2,-4.6412437E-3,-8.043394E-2,-6.568456E-2,-6.4569496E-2,-8.9207385E-3,1.8270185E-2,5.8129232E-2,2.1501966E-2,-2.16012E-2,-4.1325115E-2,-2.455285E-2,-2.8504595E-2,3.5671056E-3,8.462848E-3,-4.394966E-2,-6.089482E-3,4.0368862E-2,3.906406E-2,-7.2340593E-3,2.4569584E-2,4.7492813E-2,3.3201873E-2,-2.8103692E-2,9.630504E-2,6.502064E-2,3.0083705E-2,6.1725784E-2,-4.187421E-2,5.0458368E-2,2.7253712E-2,-5.7072204E-2,-1.5160464E-2,7.989913E-2],"split_indices":[1,1,1,1,1,1,1,0,2,3,3,4,3,2,0,0,0,4,2,2,1,3,2,2,2,0,1,2,2,4,4,1,4,3,4,3,2,3,4,1,3,3,2,4,2,0,0,0,0,0,0,0,0,0,0,0,0,0,0,0,0,0,0,0,0,0,0,0,0,0,0,0,0,0,0,0,0,0,0,0,0],"split_type":[0,0,0,0,0,0,0,0,0,0,0,0,0,0,0,0,0,0,0,0,0,0,0,0,0,0,0,0,0,0,0,0,0,0,0,0,0,0,0,0,0,0,0,0,0,0,0,0,0,0,0,0,0,0,0,0,0,0,0,0,0,0,0,0,0,0,0,0,0,0,0,0,0,0,0,0,0,0,0,0,0],"sum_hessian":[1.5267158E3,9.0923425E2,6.1748157E2,1.1163168E2,7.9760254E2,2.7792535E2,3.3955624E2,8.6936676E1,2.4695013E1,5.355359E2,2.6206662E2,1.675057E2,1.1041964E2,2.00298E2,1.3925822E2,2.3121965E1,1.5730484E0,3.0527927E2,2.3025665E2,5.8834843E1,2.032318E2,1.4529324E1,1.5297638E2,5.3711487E1,5.6708153E1,1.8804607E2,1.22519455E1,3.9692837E1,2.6558643E2,1.7372015E2,5.65365E1,9.840543E0,4.89943E1,1.6152151E2,4.171027E1,9.058798E0,5.4705257E0,4.0411648E1,1.1256473E2,3.713996E0,4.9997494E1,4.407674E1,1.2631414E1,2.8699687E0,9.381977E0,2.8217508E1,1.1475327E1,2.6276465E2,2.8217652E0,7.103208E1,1.0268807E2,3.8582966E1,1.7953533E1,3.4039078E0,6.436635E0,7.6221085E0,4.1372192E1,1.0499794E2,5.652358E1,1.4980592E1,2.672968E1,3.0245035E0,6.0342946E0,3.5214152E0,1.9491105E0,1.8931412E1,2.1480238E1,3.5230366E1,7.7334366E1,2.6630297E0,1.0509661E0,8.474182E0,4.152331E1,1.3599654E1,3.0477085E1,5.45599E0,7.1754246E0,1.7538644E0,1.1161044E0,1.0666599E0,8.315317E0],"tree_param":{"num_deleted":"0","num_feature":"5","num_nodes":"81","size_leaf_vector":"1"}},{"base_weights":[-2.6135167E-2,-4.7955117E-1,6.379812E-1,-8.877499E-1,-3.8145277E-1,3.2276058E-1,8.0597067E-1,-1.0734476E-1,-7.128886E-1,-4.9646613E-1,-1.7915064E-1,1.9317582E-1,3.9213958E-1,6.918019E-1,1.0254362E0,-8.0559874E-1,-4.5193768E-1,-4.433838E-1,-5.939631E-1,-3.9132167E-2,-2.373619E-1,2.282724E-1,-1.2799406E-1,4.8322028E-1,2.9800552E-1,7.121195E-1,5.227388E-1,8.0344534E-1,1.0623898E-1,-9.533216E-2,-6.794217E-1,-6.075203E-1,-6.8318136E-2,-4.4901308E-1,1.409446E-1,-6.419698E-1,-4.3738922E-1,-1.204845E-1,2.0542547E-1,-2.8581768E-1,-1.8271208E-2,1.7993961E-1,4.7482282E-1,1.2711042E-1,-4.5804128E-1,3.3225444E-1,5.861105E-1,8.100272E-2,3.9650437E-1,7.2022116E-1,3.0303305E-1,7.149949E-1,4.021504E-1,8.878004E-1,3.107057E-1,-3.336888E-2,-7.511559E-2,3.75727E-3,-6.618596E-2,-3.5548232E-2,2.048648E-2,-5.9272528E-2,-4.2449676E-2,4.505994E-2,-2.3827849E-2,-8.447244E-2,-6.161467E-2,-6.259122E-2,-1.3211054E-2,3.7008055E-2,-1.7105157E-2,4.9890738E-2,5.6426893E-3,-7.014324E-2,-2.5616437E-2,-3.1575672E-2,1.8937835E-2,2.1934423E-3,3.2811966E-2,1.3366391E-2,7.086252E-2,-2.4785742E-2,3.1082083E-2,-9.8353205E-3,-6.4963855E-2,1.8821253E-2,5.7174515E-2,5.981482E-2,8.719981E-3,-6.5673753E-3,3.790641E-2,-2.4916677E-2,4.2253714E-2,6.4936966E-2,7.6560795E-2,6.76628E-2,8.6907195E-3,4.3799963E-2,9.1245174E-2,-9.40757E-3,5.0479304E-2,9.3635045E-2,3.9841965E-2,-2.4090154E-2,8.306679E-2],"categories":[],"categories_nodes":[],"categories_segments":[],"categories_sizes":[],"default_left":[0,0,0,0,0,0,0,0,0,0,0,0,0,0,0,0,0,0,0,0,0,0,0,0,0,0,0,0,0,0,0,0,0,0,0,0,0,0,0,0,0,0,0,0,0,0,0,0,0,0,0,0,0,0,0,0,0,0,0,0,0,0,0,0,0,0,0,0,0,0,0,0,0,0,0,0,0,0,0,0,0,0,0,0,0,0,0,0,0,0,0,0,0,0,0,0,0,0,0,0,0,0,0,0,0],"id":15,"left_children":[1,3,5,7,9,11,13,-1,15,17,19,21,23,25,27,29,31,33,35,37,39,41,43,45,47,49,51,53,-1,-1,55,57,59,61,63,65,67,69,71,73,75,77,79,81,83,85,87,89,91,93,95,97,99,101,103,-1,-1,-1,-1,-1,-1,-1,-1,-1,-1,-1,-1,-1,-1,-1,-1,-1,-1,-1,-1,-1,-1,-1,-1,-1,-1,-1,-1,-1,-1,-1,-1,-1,-1,-1,-1,-1,-1,-1,-1,-1,-1,-1,-1,-1,-1,-1,-1,-1,-1],"loss_changes":[4.475447E2,3.502826E1,3.1672958E1,4.767044E0,1.652018E1,1.8240757E0,9.130661E0,0E0,1.8307953E0,2.0890274E0,2.11232E0,8.820219E-1,1.0276814E0,5.256729E-1,2.3187256E-1,5.7621384E-1,1.5139194E0,1.0443192E0,9.0148544E-1,1.5693392E0,1.9445896E0,7.315922E-1,7.3969847E-1,8.591213E-1,1.4600778E0,5.460205E-1,4.4983006E-1,6.795416E-1,0E0,0E0,7.139778E-1,6.7036486E-1,7.5111616E-1,7.900162E-1,5.3092164E-1,9.8609924E-2,2.222108E0,1.5240772E0,8.3543146E-1,1.6730576E0,2.180573E0,1.372675E0,7.529831E-1,4.454403E-1,1.9425273E-1,9.20661E-1,1.8229961E-1,1.0326886E0,9.0806293E-1,2.2766113E-1,4.4217646E-1,2.005682E-1,1.15943E0,8.043766E-2,1.6049867E0,0E0,0E0,0E0,0E0,0E0,0E0,0E0,0E0,0E0,0E0,0E0,0E0,0E0,0E0,0E0,0E0,0E0,0E0,0E0,0E0,0E0,0E0,0E0,0E0,0E0,0E0,0E0,0E0,0E0,0E0,0E0,0E0,0E0,0E0,0E0,0E0,0E0,0E0,0E0,0E0,0E0,0E0,0E0,0E0,0E0,0E0,0E0,0E0,0E0,0E0],"parents":[2147483647,0,0,1,1,2,2,3,3,4,4,5,5,6,6,8,8,9,9,10,10,11,11,12,12,13,13,14,14,15,15,16,16,17,17,18,18,19,19,20,20,21,21,22,22,23,23,24,24,25,25,26,26,27,27,30,30,31,31,32,32,33,33,34,34,35,35,36,36,37,37,38,38,39,39,40,40,41,41,42,42,43,43,44,44,45,45,46,46,47,47,48,48,49,49,50,50,51,51,52,52,53,53,54,54],"right_children":[2,4,6,8,10,12,14,-1,16,18,20,22,24,26,28,30,32,34,36,38,40,42,44,46,48,50,52,54,-1,-1,56,58,60,62,64,66,68,70,72,74,76,78,80,82,84,86,88,90,92,94,96,98,100,102,104,-1,-1,-1,-1,-1,-1,-1,-1,-1,-1,-1,-1,-1,-1,-1,-1,-1,-1,-1,-1,-1,-1,-1,-1,-1,-1,-1,-1,-1,-1,-1,-1,-1,-1,-1,-1,-1,-1,-1,-1,-1,-1,-1,-1,-1,-1,-1,-1,-1,-1],"split_conditions":[6.156035E-1,4.6420446E-1,6.6166174E-1,3.3176947E-1,5.498512E-1,6.3656473E-1,7.1477926E-1,-1.0734476E-1,5.4E1,1E0,4.7E1,6.333713E-1,2.32E2,7.077054E-1,4.3E0,4.84E0,4.95E0,1.38E2,5.6E1,5.841999E-1,6.0577697E-1,6.3177013E-1,4.88E0,4.86E0,1E1,2.66E2,1.59E2,7E0,1.0623898E-1,-9.533216E-2,4.94E0,5.9E1,4.2540255E-1,4.5E0,1.58E2,4.21E0,4.9E0,4.2E0,6E0,4.02E0,4.8E0,2.8E1,2.64E2,2.5E1,2.2E1,6.554657E-1,3.19E2,6.554657E-1,4.32E0,1.4E1,3.1E1,9E1,2.02E2,3.64E2,1.79E2,-3.336888E-2,-7.511559E-2,3.75727E-3,-6.618596E-2,-3.5548232E-2,2.048648E-2,-5.9272528E-2,-4.2449676E-2,4.505994E-2,-2.3827849E-2,-8.447244E-2,-6.161467E-2,-6.259122E-2,-1.3211054E-2,3.7008055E-2,-1.7105157E-2,4.9890738E-2,5.6426893E-3,-7.014324E-2,-2.5616437E-2,-3.1575672E-2,1.8937835E-2,2.1934423E-3,3.2811966E-2,1.3366391E-2,7.086252E-2,-2.4785742E-2,3.1082083E-2,-9.8353205E-3,-6.4963855E-2,1.8821253E-2,5.7174515E-2,5.981482E-2,8.719981E-3,-6.5673753E-3,3.790641E-2,-2.4916677E-2,4.2253714E-2,6.4936966E-2,7.6560795E-2,6.76628E-2,8.6907195E-3,4.3799963E-2,9.1245174E-2,-9.40757E-3,5.0479304E-2,9.3635045E-2,3.9841965E-2,-2.4090154E-2,8.306679E-2],"split_indices":[1,1,1,1,1,1,1,0,2,3,3,1,3,1,4,4,4,2,2,1,1,1,4,4,2,2,3,2,0,0,4,2,1,4,2,4,4,4,2,4,4,2,3,2,2,1,2,1,4,2,3,3,3,3,3,0,0,0,0,0,0,0,0,0,0,0,0,0,0,0,0,0,0,0,0,0,0,0,0,0,0,0,0,0,0,0,0,0,0,0,0,0,0,0,0,0,0,0,0,0,0,0,0,0,0],"split_type":[0,0,0,0,0,0,0,0,0,0,0,0,0,0,0,0,0,0,0,0,0,0,0,0,0,0,0,0,0,0,0,0,0,0,0,0,0,0,0,0,0,0,0,0,0,0,0,0,0,0,0,0,0,0,0,0,0,0,0,0,0,0,0,0,0,0,0,0,0,0,0,0,0,0,0,0,0,0,0,0,0,0,0,0,0,0,0,0,0,0,0,0,0,0,0,0,0,0,0,0,0,0,0,0,0],"sum_hessian":[1.4842462E3,8.822087E2,6.0203754E2,1.6937405E2,7.128346E2,2.1031584E2,3.9172168E2,7.96496E1,8.972446E1,4.5353537E2,2.5929922E2,7.465712E1,1.3565872E2,2.604069E2,1.313148E2,6.4663704E1,2.5060755E1,2.972467E2,1.5628865E2,7.663572E1,1.8266351E2,6.756324E1,7.09388E0,6.684684E1,6.881188E1,2.2960179E2,3.0805101E1,2.1985304E1,1.093295E2,2.6768646E1,3.7895054E1,1.7414423E1,7.646331E0,2.946398E2,2.606913E0,1.1724146E2,3.9047195E1,5.7886917E1,1.8748802E1,1.493316E2,3.33319E1,5.79356E1,9.62764E0,4.3480215E0,2.7458584E0,2.880778E1,3.803906E1,2.205184E1,4.676004E1,2.243972E2,5.204588E0,9.974065E0,2.0831038E1,1.8087103E1,3.898202E0,7.482731E0,3.0412323E1,1.3769087E0,1.6037516E1,3.5809014E0,4.0654297E0,3.9560947E1,2.5507886E2,1.3314773E0,1.2754358E0,9.6625185E0,1.0757894E2,2.3490494E1,1.5556701E1,4.818894E0,5.3068024E1,5.522585E0,1.3226217E1,8.436262E0,1.4089534E2,1.3487973E1,1.9843931E1,2.8593847E1,2.9341751E1,4.5541E0,5.0735397E0,1.3149425E0,3.0330791E0,1.4802668E0,1.2655917E0,1.9103716E1,9.704062E0,3.6948654E1,1.0904033E0,1.5301575E1,6.750265E0,1.4800572E0,4.5279984E1,9.359586E1,1.3080133E2,1.1265398E0,4.078048E0,5.49034E0,4.4837246E0,3.5846248E0,1.7246412E1,1.5623776E1,2.4633265E0,2.1519637E0,1.7462385E0],"tree_param":{"num_deleted":"0","num_feature":"5","num_nodes":"105","size_leaf_vector":"1"}},{"base_weights":[-2.1791823E-2,-5.4694784E-1,7.477709E-1,-9.7552216E-1,4.0417972E-1,3.5677174E-1,1.2798728E-1,-1.0541755E0,-3.894442E-1,-4.4207647E-1,1.1205631E0,-5.457561E-1,1.1478174E0,-1.0635153E-1,-7.133842E-1,-1.0764702E-1,1.2263432E0,-1.0958568E-1,5.3164303E-1,6.092491E-1,1.2981027E0,-1.0870173E-1,3.109843E-1,-1.0462945E-1,1.282638E0,-1.03939526E-1,1.0945709E-1,5.177091E-1,1.350011E-1,-9.569623E-1,1.3178839E-1,-5.507697E-1,1.2754907E-1,9.385466E-1,1.3446306E-1,-1.085671E-1,1.3888645E-1,7.0279366E-1,1.3429557E-1,-6.9785036E-2,1.1644067E-1,-1.0558262E-1,-3.6461223E-3,-1.0922291E-1,2.923722E-2,-9.928226E-2,1.3551183E-1,-8.827821E-2,1.3063633E-1],"categories":[],"categories_nodes":[],"categories_segments":[],"categories_sizes":[],"default_left":[0,0,0,0,0,0,0,0,0,0,0,0,0,0,0,0,0,0,0,0,0,0,0,0,0,0,0,0,0,0,0,0,0,0,0,0,0,0,0,0,0,0,0,0,0,0,0,0,0],"id":16,"left_children":[1,3,5,7,9,11,-1,13,15,17,19,21,23,-1,25,-1,27,-1,29,31,33,-1,35,-1,37,-1,-1,39,-1,41,-1,43,-1,45,-1,-1,-1,47,-1,-1,-1,-1,-1,-1,-1,-1,-1,-1,-1],"loss_changes":[5.8649286E2,3.5199667E2,1.2201141E2,2.7013245E1,1.6335736E2,2.4386406E2,0E0,9.0893555E-1,8.122221E1,7.944068E1,1.244165E1,7.444655E1,5.5145508E1,0E0,1.1165764E1,0E0,1.223938E0,0E0,6.0289932E1,3.1194046E1,5.332794E-1,0E0,9.582581E1,0E0,5.0650024E0,0E0,0E0,4.6504855E0,0E0,1.6005573E0,0E0,7.208985E0,0E0,1.3901941E1,0E0,0E0,0E0,1.865275E1,0E0,0E0,0E0,0E0,0E0,0E0,0E0,0E0,0E0,0E0,0E0],"parents":[2147483647,0,0,1,1,2,2,3,3,4,4,5,5,7,7,8,8,9,9,10,10,11,11,12,12,14,14,16,16,18,18,19,19,20,20,22,22,24,24,27,27,29,29,31,31,33,33,37,37],"right_children":[2,4,6,8,10,12,-1,14,16,18,20,22,24,-1,26,-1,28,-1,30,32,34,-1,36,-1,38,-1,-1,40,-1,42,-1,44,-1,46,-1,-1,-1,48,-1,-1,-1,-1,-1,-1,-1,-1,-1,-1,-1],"split_conditions":[5.797813E-1,6.554657E-1,6.0248184E-1,6.3016605E-1,4.8906282E-1,7.249747E-1,1.2798728E-1,6.2372124E-1,5.5073494E-1,7.1477926E-1,5.2344847E-1,5.498512E-1,3.1667763E-1,-1.0635153E-1,5.638985E-1,-1.0764702E-1,6.3656473E-1,-1.0958568E-1,4.712301E-1,6.976312E-1,6.6320217E-1,-1.0870173E-1,6.3552827E-1,-1.0462945E-1,4.6420446E-1,-1.03939526E-1,1.0945709E-1,5.638985E-1,1.350011E-1,7.326808E-1,1.3178839E-1,5.14781E-1,1.2754907E-1,5.3161705E-1,1.3446306E-1,-1.085671E-1,1.3888645E-1,8.5744655E-1,1.3429557E-1,-6.9785036E-2,1.1644067E-1,-1.0558262E-1,-3.6461223E-3,-1.0922291E-1,2.923722E-2,-9.928226E-2,1.3551183E-1,-8.827821E-2,1.3063633E-1],"split_indices":[0,1,1,1,0,0,0,1,0,1,0,1,1,0,0,0,1,0,0,1,1,0,0,0,1,0,0,0,0,1,0,0,0,0,0,0,0,0,0,0,0,0,0,0,0,0,0,0,0],"split_type":[0,0,0,0,0,0,0,0,0,0,0,0,0,0,0,0,0,0,0,0,0,0,0,0,0,0,0,0,0,0,0,0,0,0,0,0,0,0,0,0,0,0,0,0,0,0,0,0,0],"sum_hessian":[1.4491984E3,8.6155524E2,5.876432E2,5.939142E2,2.6764105E2,3.3969727E2,2.479459E2,5.2293604E2,7.0978165E1,1.22874084E2,1.4476697E2,1.5881291E2,1.8088437E2,5.0692236E2,1.6013657E1,5.0036594E1,2.0941568E1,7.343949E1,4.9434597E1,3.8453247E1,1.0631371E2,9.716095E1,6.1651962E1,1.0079923E1,1.7080444E2,1.3927369E1,2.0862877E0,3.8822122E0,1.7059357E1,1.7010723E1,3.2423874E1,1.4091431E1,2.4361816E1,1.4606852E1,9.170686E1,2.6851763E1,3.4800198E1,1.7285704E1,1.5351874E2,1.32069E0,2.561522E0,1.52281685E1,1.7825534E0,8.400966E0,5.690465E0,2.3461194E0,1.2260733E1,4.6383E0,1.2647404E1],"tree_param":{"num_deleted":"0","num_feature":"5","num_nodes":"49","size_leaf_vector":"1"}},{"base_weights":[-1.7575534E-2,-4.3783048E-1,5.8272344E-1,-9.850467E-1,-3.690881E-1,2.72508E-1,7.456322E-1,-1.0523804E-1,-7.7922666E-1,-4.7259554E-1,-1.6588153E-1,1.3757673E-1,3.1757092E-1,6.3532406E-1,9.685292E-1,-8.912286E-2,-3.5370287E-1,-3.9986557E-1,-5.717565E-1,-4.0754344E-2,-2.22758E-1,3.279871E-1,2.326819E-2,-2.9668448E-2,3.2773754E-1,7.0552737E-1,5.848949E-1,8.1381303E-1,1.0344509E-1,8.104911E-2,-6.1464757E-1,-3.3285245E-1,-4.8591557E-1,-6.274817E-1,-3.4231147E-1,4.091867E-1,-7.8892045E-2,-2.7583158E-1,-9.042361E-2,-1.5499398E-2,3.822867E-1,-3.7970614E-2,2.2073111E-1,3.6040193E-1,1.4277515E-1,5.3547215E-1,7.545353E-1,6.239708E-1,3.3529326E-1,8.3055146E-2,2.8249417E-2,-2.7499521E-2,3.3694893E-2,-7.255571E-2,-2.0742238E-2,-3.7433118E-2,-1.9647116E-2,-6.929929E-2,-4.5320008E-2,-5.737531E-2,-6.934099E-2,-5.240211E-2,1.0229738E-3,5.526209E-2,1.8223682E-2,-1.6274983E-2,1.0609675E-2,-4.5076378E-2,-2.3826445E-2,-1.391692E-2,1.930378E-2,4.364523E-2,4.046352E-3,-2.131435E-2,1.1361788E-2,4.203462E-2,1.1189951E-2,2.1020327E-2,4.069033E-2,-3.6473587E-2,2.1024575E-2,5.7853103E-2,7.28407E-3,7.665943E-2,1.1039178E-2,4.158011E-2,6.823736E-2,5.455125E-2,3.9840057E-3],"categories":[],"categories_nodes":[],"categories_segments":[],"categories_sizes":[],"default_left":[0,0,0,0,0,0,0,0,0,0,0,0,0,0,0,0,0,0,0,0,0,0,0,0,0,0,0,0,0,0,0,0,0,0,0,0,0,0,0,0,0,0,0,0,0,0,0,0,0,0,0,0,0,0,0,0,0,0,0,0,0,0,0,0,0,0,0,0,0,0,0,0,0,0,0,0,0,0,0,0,0,0,0,0,0,0,0,0,0],"id":17,"left_children":[1,3,5,7,9,11,13,-1,15,17,19,21,23,25,27,-1,29,31,33,35,37,39,41,-1,43,45,47,49,-1,51,53,55,57,59,61,63,65,67,69,-1,71,73,75,77,79,81,83,85,87,-1,-1,-1,-1,-1,-1,-1,-1,-1,-1,-1,-1,-1,-1,-1,-1,-1,-1,-1,-1,-1,-1,-1,-1,-1,-1,-1,-1,-1,-1,-1,-1,-1,-1,-1,-1,-1,-1,-1,-1],"loss_changes":[3.3733847E2,2.9222504E1,2.7624664E1,3.8811493E-1,1.465197E1,1.1187449E0,8.247635E0,0E0,8.9256954E-1,3.1137543E0,1.6838889E0,1.0725274E0,9.874468E-1,4.5131683E-1,3.5581207E-1,0E0,8.3696073E-1,1.3991432E0,2.2626839E0,1.3289199E0,1.1221333E0,5.4547966E-1,3.9638892E-1,0E0,7.986345E-1,4.0579224E-1,1.2330322E0,1.1909294E-1,0E0,4.102757E-1,5.0599694E-2,8.0524826E-1,4.7405624E-1,1.5014648E-1,2.5718923E0,9.675503E-2,1.1108682E0,6.554537E-1,6.934025E-1,0E0,2.9625964E-1,6.97224E-1,1.2115958E-1,7.4512386E-1,8.5654354E-1,4.595132E-1,4.8231888E-1,1.2565689E0,1.3557148E0,0E0,0E0,0E0,0E0,0E0,0E0,0E0,0E0,0E0,0E0,0E0,0E0,0E0,0E0,0E0,0E0,0E0,0E0,0E0,0E0,0E0,0E0,0E0,0E0,0E0,0E0,0E0,0E0,0E0,0E0,0E0,0E0,0E0,0E0,0E0,0E0,0E0,0E0,0E0,0E0],"parents":[2147483647,0,0,1,1,2,2,3,3,4,4,5,5,6,6,8,8,9,9,10,10,11,11,12,12,13,13,14,14,16,16,17,17,18,18,19,19,20,20,21,21,22,22,24,24,25,25,26,26,27,27,29,29,30,30,31,31,32,32,33,33,34,34,35,35,36,36,37,37,38,38,40,40,41,41,42,42,43,43,44,44,45,45,46,46,47,47,48,48],"right_children":[2,4,6,8,10,12,14,-1,16,18,20,22,24,26,28,-1,30,32,34,36,38,40,42,-1,44,46,48,50,-1,52,54,56,58,60,62,64,66,68,70,-1,72,74,76,78,80,82,84,86,88,-1,-1,-1,-1,-1,-1,-1,-1,-1,-1,-1,-1,-1,-1,-1,-1,-1,-1,-1,-1,-1,-1,-1,-1,-1,-1,-1,-1,-1,-1,-1,-1,-1,-1,-1,-1,-1,-1,-1,-1],"split_conditions":[6.156035E-1,3.8720417E-1,6.6166174E-1,3.1667763E-1,5.498512E-1,8E0,7.1477926E-1,-1.0523804E-1,5.9E1,1E0,6E1,2.11E2,4.18E0,1.8E2,4.62E0,-8.912286E-2,9.5E1,4.8942038E-1,7.7E1,4.01E0,5.7E1,6.2372124E-1,6.523476E-1,-2.9668448E-2,1.38E2,6E0,8.5E1,4.6E0,1.0344509E-1,7.7E1,4.93E0,4.8241648E-1,4.47E0,2.82E2,4.93E0,2E0,5.808493E-1,4.45E0,4.95E0,-1.5499398E-2,6E0,4.87E0,3.56E0,6.3016605E-1,1.52E2,5E0,3.73E2,6.723715E-1,3.36E2,8.3055146E-2,2.8249417E-2,-2.7499521E-2,3.3694893E-2,-7.255571E-2,-2.0742238E-2,-3.7433118E-2,-1.9647116E-2,-6.929929E-2,-4.5320008E-2,-5.737531E-2,-6.934099E-2,-5.240211E-2,1.0229738E-3,5.526209E-2,1.8223682E-2,-1.6274983E-2,1.0609675E-2,-4.5076378E-2,-2.3826445E-2,-1.391692E-2,1.930378E-2,4.364523E-2,4.046352E-3,-2.131435E-2,1.1361788E-2,4.203462E-2,1.1189951E-2,2.1020327E-2,4.069033E-2,-3.6473587E-2,2.1024575E-2,5.7853103E-2,7.28407E-3,7.665943E-2,1.1039178E-2,4.158011E-2,6.823736E-2,5.455125E-2,3.9840057E-3],"split_indices":[1,1,1,1,1,2,1,0,2,3,3,3,4,3,4,0,2,1,2,4,2,1,1,0,2,2,2,4,0,2,4,1,4,3,4,2,1,4,4,0,2,4,4,1,2,2,2,1,3,0,0,0,0,0,0,0,0,0,0,0,0,0,0,0,0,0,0,0,0,0,0,0,0,0,0,0,0,0,0,0,0,0,0,0,0,0,0,0,0],"split_type":[0,0,0,0,0,0,0,0,0,0,0,0,0,0,0,0,0,0,0,0,0,0,0,0,0,0,0,0,0,0,0,0,0,0,0,0,0,0,0,0,0,0,0,0,0,0,0,0,0,0,0,0,0,0,0,0,0,0,0,0,0,0,0,0,0,0,0,0,0,0,0,0,0,0,0,0,0,0,0,0,0,0,0,0,0,0,0,0,0],"sum_hessian":[1.335155E3,7.855094E2,5.496456E2,8.6177E1,6.993324E2,1.901773E2,3.5946835E2,6.1834747E1,2.4342253E1,4.624489E2,2.3688345E2,4.8627045E1,1.4155026E2,2.4304144E2,1.164269E2,1.8403774E1,5.9384785E0,2.696821E2,1.9276682E2,7.456293E1,1.6232053E2,1.7540127E1,3.1086918E1,1.8458176E0,1.3970445E2,9.617047E1,1.4687097E2,3.8773014E1,7.7653885E1,2.4860115E0,3.452467E0,1.5434842E2,1.1533368E2,1.537024E2,3.9064423E1,5.0660057E0,6.949692E1,1.1508185E2,4.723868E1,1.585256E0,1.5954871E1,2.4344662E1,6.7422566E0,1.1792956E2,2.1774893E1,2.4182962E1,7.198751E1,1.256934E2,2.1177574E1,3.7042847E1,1.7301667E0,1.0083838E0,1.4776278E0,2.0990672E0,1.3533996E0,1.1701501E2,3.7333416E1,1.2981722E1,1.0235196E2,9.003251E1,6.3669884E1,2.5456842E1,1.360758E1,2.2248747E0,2.8411307E0,4.7902378E1,2.159454E1,1.840052E1,9.668133E1,4.0741573E1,6.497109E0,1.35335045E1,2.421366E0,1.1105399E1,1.3239263E1,1.3689758E0,5.373281E0,2.918448E1,8.874507E1,2.0381513E0,1.973674E1,2.1894625E1,2.288338E0,7.0478E1,1.5095146E0,2.9316763E1,9.637663E1,1.1879078E1,9.298496E0],"tree_param":{"num_deleted":"0","num_feature":"5","num_nodes":"89","size_leaf_vector":"1"}},{"base_weights":[-1.4764342E-2,-4.0499166E-1,5.274907E-1,-9.529446E-1,-3.39523E-1,2.939985E-1,6.9953406E-1,-1.034531E-1,-6.582378E-1,-4.3336385E-1,-1.5609013E-1,6.540279E-1,2.7086148E-1,5.899449E-1,8.852631E-1,-7.114696E-1,-3.3358678E-1,-3.6525214E-1,-5.25052E-1,-1.37256365E-2,-1.9747576E-1,2.226713E-1,7.6938236E-1,1.5011501E-1,3.2215294E-1,6.080665E-1,2.6191282E-1,6.4408904E-1,9.185889E-2,-4.4297704E-1,-8.531338E-2,1.2567853E-2,-5.11508E-1,-3.280036E-1,-5.73768E-1,-6.044946E-1,-4.0347123E-1,4.0007845E-1,-1.5657495E-1,-2.430253E-1,-2.3580298E-2,-3.5583638E-3,4.592034E-2,4.9954692E-1,9.710629E-2,-7.4189655E-2,2.3976302E-1,4.2473698E-1,2.346793E-1,5.23623E-1,6.460235E-1,3.40056E-1,-1.4221092E-2,7.1012515E-1,-1.2523936E-2,-1.801501E-2,-7.433361E-2,-6.662219E-2,-5.2569E-3,-5.6913723E-3,-3.570689E-2,-7.437674E-2,-3.7553586E-2,-5.188589E-2,-7.108113E-2,-5.3807583E-2,-1.4649796E-2,5.2232146E-2,1.42008765E-2,4.3806466E-3,-2.4927853E-2,-2.8743152E-2,-1.394245E-2,-1.0874706E-2,2.5612338E-2,5.7250608E-2,9.060222E-3,3.209648E-2,-1.4492656E-2,7.958548E-3,3.6534213E-2,3.759122E-2,7.714348E-2,2.6641995E-2,-2.4443064E-2,3.941193E-2,6.1789718E-2,7.182381E-2,5.3465832E-2,2.2722041E-2,6.600861E-2,9.100873E-2,4.896557E-2],"categories":[],"categories_nodes":[],"categories_segments":[],"categories_sizes":[],"default_left":[0,0,0,0,0,0,0,0,0,0,0,0,0,0,0,0,0,0,0,0,0,0,0,0,0,0,0,0,0,0,0,0,0,0,0,0,0,0,0,0,0,0,0,0,0,0,0,0,0,0,0,0,0,0,0,0,0,0,0,0,0,0,0,0,0,0,0,0,0,0,0,0,0,0,0,0,0,0,0,0,0,0,0,0,0,0,0,0,0,0,0,0,0],"id":18,"left_children":[1,3,5,7,9,11,13,-1,15,17,19,21,23,25,27,29,31,33,35,37,39,41,43,45,47,49,51,53,-1,55,-1,-1,57,59,61,63,65,67,69,71,73,-1,-1,75,-1,77,79,81,83,85,87,89,-1,91,-1,-1,-1,-1,-1,-1,-1,-1,-1,-1,-1,-1,-1,-1,-1,-1,-1,-1,-1,-1,-1,-1,-1,-1,-1,-1,-1,-1,-1,-1,-1,-1,-1,-1,-1,-1,-1,-1,-1],"loss_changes":[2.8046185E2,2.7325516E1,2.2076096E1,1.2835388E0,1.181015E1,1.7973843E0,5.9632263E0,0E0,1.163187E-1,2.6555176E0,1.3824439E0,5.057206E-1,1.34161E0,1.049797E0,3.4265137E-1,2.57226E-1,4.5369118E-1,1.8691406E0,1.6110268E0,3.2561505E0,1.4364333E0,2.7767673E-1,7.6975346E-2,1.4009494E0,1.3059864E0,2.7709198E-1,4.400866E-1,9.7592115E-1,0E0,4.8559296E-1,0E0,0E0,2.2287124E-1,1.7688522E0,1.0286198E0,6.7041016E-1,2.6503744E0,3.7206984E-1,7.703054E-1,6.231928E-1,9.544964E-1,0E0,0E0,1.4138246E-1,0E0,6.1687684E-1,9.642012E-1,9.0952015E-1,1.3848948E0,5.47781E-1,6.467819E-1,2.3601806E-1,0E0,2.6983166E-1,0E0,0E0,0E0,0E0,0E0,0E0,0E0,0E0,0E0,0E0,0E0,0E0,0E0,0E0,0E0,0E0,0E0,0E0,0E0,0E0,0E0,0E0,0E0,0E0,0E0,0E0,0E0,0E0,0E0,0E0,0E0,0E0,0E0,0E0,0E0,0E0,0E0,0E0,0E0],"parents":[2147483647,0,0,1,1,2,2,3,3,4,4,5,5,6,6,8,8,9,9,10,10,11,11,12,12,13,13,14,14,15,15,16,16,17,17,18,18,19,19,20,20,21,21,22,22,23,23,24,24,25,25,26,26,27,27,29,29,32,32,33,33,34,34,35,35,36,36,37,37,38,38,39,39,40,40,43,43,45,45,46,46,47,47,48,48,49,49,50,50,51,51,53,53],"right_children":[2,4,6,8,10,12,14,-1,16,18,20,22,24,26,28,30,32,34,36,38,40,42,44,46,48,50,52,54,-1,56,-1,-1,58,60,62,64,66,68,70,72,74,-1,-1,76,-1,78,80,82,84,86,88,90,-1,92,-1,-1,-1,-1,-1,-1,-1,-1,-1,-1,-1,-1,-1,-1,-1,-1,-1,-1,-1,-1,-1,-1,-1,-1,-1,-1,-1,-1,-1,-1,-1,-1,-1,-1,-1,-1,-1,-1,-1],"split_conditions":[6.156035E-1,3.8720417E-1,6.708522E-1,3.3176947E-1,5.498512E-1,4.2E1,7.1477926E-1,-1.034531E-1,7.7E1,1E0,1E0,6.3177013E-1,6.3656473E-1,7.1054727E-1,4.09E0,6E0,9.3E1,2.1E1,2.9E1,6E0,6.0248184E-1,4.7E1,3.1E1,1.78E2,2.38E2,8E0,3.64E2,5E0,9.185889E-2,2.79E2,-8.531338E-2,1.2567853E-2,3.3E2,4.7948322E-1,4.81E0,2.82E2,4.92E0,3E0,4.69E0,5.6E1,8.1E1,-3.5583638E-3,4.592034E-2,1.1E1,9.710629E-2,4.57E0,1.7E1,6.6627276E-1,6.6627276E-1,2.34E2,5E1,3.48E2,-1.4221092E-2,2.43E2,-1.2523936E-2,-1.801501E-2,-7.433361E-2,-6.662219E-2,-5.2569E-3,-5.6913723E-3,-3.570689E-2,-7.437674E-2,-3.7553586E-2,-5.188589E-2,-7.108113E-2,-5.3807583E-2,-1.4649796E-2,5.2232146E-2,1.42008765E-2,4.3806466E-3,-2.4927853E-2,-2.8743152E-2,-1.394245E-2,-1.0874706E-2,2.5612338E-2,5.7250608E-2,9.060222E-3,3.209648E-2,-1.4492656E-2,7.958548E-3,3.6534213E-2,3.759122E-2,7.714348E-2,2.6641995E-2,-2.4443064E-2,3.941193E-2,6.1789718E-2,7.182381E-2,5.3465832E-2,2.2722041E-2,6.600861E-2,9.100873E-2,4.896557E-2],"split_indices":[1,1,1,1,1,3,1,0,2,3,3,1,1,1,4,2,2,2,2,2,1,2,3,3,3,2,3,2,0,3,0,0,3,1,4,3,4,2,4,2,2,0,0,3,0,4,2,1,1,3,2,3,0,3,0,0,0,0,0,0,0,0,0,0,0,0,0,0,0,0,0,0,0,0,0,0,0,0,0,0,0,0,0,0,0,0,0,0,0,0,0,0,0],"split_type":[0,0,0,0,0,0,0,0,0,0,0,0,0,0,0,0,0,0,0,0,0,0,0,0,0,0,0,0,0,0,0,0,0,0,0,0,0,0,0,0,0,0,0,0,0,0,0,0,0,0,0,0,0,0,0,0,0,0,0,0,0,0,0,0,0,0,0,0,0,0,0,0,0,0,0,0,0,0,0,0,0,0,0,0,0,0,0,0,0,0,0,0,0],"sum_hessian":[1.3234076E3,7.697321E2,5.536754E2,8.070449E1,6.8902765E2,2.3603911E2,3.176363E2,6.1240376E1,1.9464115E1,4.5493085E2,2.340968E2,1.2606406E1,2.234327E2,2.023917E2,1.15244606E2,1.5698588E1,3.7655268E0,2.6388455E2,1.9104631E2,5.3025036E1,1.8107176E2,3.2782052E0,9.328201E0,6.778503E1,1.5564767E2,1.9098723E2,1.1404465E1,1.6459158E1,9.8785446E1,6.8475504E0,8.851038E0,1.1334352E0,2.6320915E0,2.2607274E2,3.78118E1,1.13144325E2,7.790198E1,1.3145273E1,3.9879765E1,1.4317223E2,3.7899544E1,1.9732714E0,1.3049338E0,5.477109E0,3.8510923E0,1.9404997E1,4.8380028E1,6.986197E1,8.5785706E1,6.3814198E1,1.2717303E2,9.689412E0,1.7150528E0,1.5228923E1,1.2302363E0,4.5051417E0,2.3424084E0,1.6307045E0,1.001387E0,2.2178009E1,2.0389473E2,1.8873941E1,1.8937859E1,6.59242E1,4.7220123E1,5.040537E1,2.7496613E1,8.225191E0,4.920082E0,1.2780912E1,2.709885E1,9.897454E1,4.4197685E1,2.9521706E1,8.377836E0,4.30848E0,1.1686289E0,2.4091916E0,1.6995806E1,2.1979136E1,2.6400892E1,6.3064926E1,6.7970443E0,8.0871925E1,4.913774E0,2.9066414E1,3.4747784E1,7.384133E1,5.3331696E1,8.427913E0,1.2614998E0,6.345609E0,8.883313E0],"tree_param":{"num_deleted":"0","num_feature":"5","num_nodes":"93","size_leaf_vector":"1"}},{"base_weights":[-1.651092E-2,-5.687882E-1,7.6690584E-1,-9.5970553E-1,2.618205E-1,4.4530746E-1,1.2312861E-1,-1.052523E-1,-4.7628167E-1,-5.575189E-1,1.0032736E0,-1.0535572E0,8.979537E-1,-1.0751674E-1,1.0376472E0,-1.0951444E-1,3.128347E-1,4.5726997E-1,1.2146448E0,-1.0709027E-1,-2.6100306E-2,1.7861633E-1,1.1758977E0,4.598242E-1,1.2693454E-1,-1.0301226E-1,1.2195927E-1,-6.390881E-1,1.1986502E-1,8.436711E-1,1.2622349E-1,-1.049694E-1,1.3467058E0,-9.745093E-2,1.2737522E0,-8.924753E-2,1.2463986E-1,-1.228466E-1,6.0848957E-3,-9.4688304E-2,1.2590091E-1,4.4851042E-2,1.3687778E-1,8.472411E-2,1.3207726E-1],"categories":[],"categories_nodes":[],"categories_segments":[],"categories_sizes":[],"default_left":[0,0,0,0,0,0,0,0,0,0,0,0,0,0,0,0,0,0,0,0,0,0,0,0,0,0,0,0,0,0,0,0,0,0,0,0,0,0,0,0,0,0,0,0,0],"id":19,"left_children":[1,3,5,7,9,11,-1,-1,13,15,17,19,21,-1,23,-1,25,27,29,-1,-1,31,33,35,-1,-1,-1,37,-1,39,-1,-1,41,-1,43,-1,-1,-1,-1,-1,-1,-1,-1,-1,-1],"loss_changes":[5.5753564E2,2.4565437E2,7.9025085E1,2.2567871E1,1.4797269E2,2.1559079E2,0E0,0E0,7.785589E1,5.458243E1,1.4186874E1,7.3560333E-1,4.848044E1,0E0,2.6964378E0,0E0,5.6102417E1,3.1046543E1,5.5023193E-1,0E0,0E0,1.00487206E2,3.816693E1,1.0239226E1,0E0,0E0,0E0,6.5436506E0,0E0,1.117044E1,0E0,0E0,9.6443176E-2,0E0,2.2556458E0,0E0,0E0,0E0,0E0,0E0,0E0,0E0,0E0,0E0,0E0],"parents":[2147483647,0,0,1,1,2,2,3,3,4,4,5,5,8,8,9,9,10,10,11,11,12,12,14,14,16,16,17,17,18,18,21,21,22,22,23,23,27,27,29,29,32,32,34,34],"right_children":[2,4,6,8,10,12,-1,-1,14,16,18,20,22,-1,24,-1,26,28,30,-1,-1,32,34,36,-1,-1,-1,38,-1,40,-1,-1,42,-1,44,-1,-1,-1,-1,-1,-1,-1,-1,-1,-1],"split_conditions":[5.797813E-1,6.554657E-1,6.0577697E-1,6.2372124E-1,4.8906282E-1,6.3552827E-1,1.2312861E-1,-1.052523E-1,5.5073494E-1,7.1477926E-1,5.2344847E-1,6.0248184E-1,7.249747E-1,-1.0751674E-1,6.3656473E-1,-1.0951444E-1,4.712301E-1,6.976312E-1,6.6320217E-1,-1.0709027E-1,-2.6100306E-2,5.498512E-1,3.1667763E-1,5.638985E-1,1.2693454E-1,-1.0301226E-1,1.2195927E-1,6.753994E-1,1.1986502E-1,5.3161705E-1,1.2622349E-1,-1.049694E-1,5.520974E-1,-9.745093E-2,4.6420446E-1,-8.924753E-2,1.2463986E-1,-1.228466E-1,6.0848957E-3,-9.4688304E-2,1.2590091E-1,4.4851042E-2,1.3687778E-1,8.472411E-2,1.3207726E-1],"split_indices":[0,1,1,1,0,0,0,0,0,1,0,1,0,0,1,0,0,1,1,0,0,1,1,0,0,0,0,1,0,0,0,0,1,0,1,0,0,0,0,0,0,0,0,0,0],"split_type":[0,0,0,0,0,0,0,0,0,0,0,0,0,0,0,0,0,0,0,0,0,0,0,0,0,0,0,0,0,0,0,0,0,0,0,0,0,0,0,0,0,0,0,0,0],"sum_hessian":[1.2866051E3,7.5478564E2,5.318195E2,5.131306E2,2.4165501E2,3.1537265E2,2.1644687E2,4.29491E2,8.3639626E1,1.1491585E2,1.26739174E2,7.2841675E1,2.4253096E2,6.013931E1,2.3500319E1,7.08765E1,4.4039345E1,3.625372E1,9.048545E1,7.093795E1,1.9037281E0,6.805158E1,1.7447937E2,7.5804105E0,1.5919909E1,1.7695423E1,2.6343922E1,1.4681136E1,2.1572584E1,1.2417383E1,7.806807E1,3.322014E1,3.4831448E1,7.204209E0,1.6727516E2,2.738196E0,4.842214E0,7.560093E0,7.121043E0,2.0970492E0,1.03203335E1,1.3467649E0,3.348468E1,1.8498434E1,1.4877673E2],"tree_param":{"num_deleted":"0","num_feature":"5","num_nodes":"45","size_leaf_vector":"1"}},{"base_weights":[-1.3518972E-2,-5.533414E-1,7.3675466E-1,-9.739213E-1,2.2750849E-1,4.1298664E-1,1.2038936E-1,-1.0466268E-1,-4.9936596E-1,-5.721537E-1,9.528124E-1,-1.06193505E-1,8.465611E-1,-1.0577803E-1,8.735585E-1,-1.0818274E-1,3.4817505E-1,3.28024E-1,1.0996755E0,1.17084876E-1,1.1121628E0,3.356497E-1,1.2685868E-1,-9.9752617E-1,1.1872897E-1,-1.0806709E-1,1.1480305E-1,7.458706E-1,1.23290055E-1,-1.0401391E-1,1.2813926E-1,-8.913162E-2,1.2164245E0,-9.010469E-2,1.0749129E-1,-1.04569174E-1,-3.574751E-2,-5.2237254E-2,1.1691935E-1,6.863124E-2,1.2809108E-1],"categories":[],"categories_nodes":[],"categories_segments":[],"categories_sizes":[],"default_left":[0,0,0,0,0,0,0,0,0,0,0,0,0,0,0,0,0,0,0,0,0,0,0,0,0,0,0,0,0,0,0,0,0,0,0,0,0,0,0,0,0],"id":20,"left_children":[1,3,5,7,9,11,-1,-1,13,15,17,-1,19,-1,21,-1,23,25,27,29,31,33,-1,35,-1,-1,-1,37,-1,-1,-1,-1,39,-1,-1,-1,-1,-1,-1,-1,-1],"loss_changes":[4.789673E2,2.260819E2,7.4345764E1,1.4906067E1,1.4065234E2,1.887788E2,0E0,0E0,4.7936554E1,5.4562305E1,1.1296921E1,0E0,4.396895E1,0E0,3.4580078E0,0E0,4.853021E1,3.0818073E1,3.9090805E0,8.469413E1,3.5913544E1,9.287248E0,0E0,1.3938904E-1,0E0,0E0,0E0,1.7014507E1,0E0,0E0,0E0,0E0,4.5533295E0,0E0,0E0,0E0,0E0,0E0,0E0,0E0,0E0],"parents":[2147483647,0,0,1,1,2,2,3,3,4,4,5,5,8,8,9,9,10,10,12,12,14,14,16,16,17,17,18,18,19,19,20,20,21,21,23,23,27,27,32,32],"right_children":[2,4,6,8,10,12,-1,-1,14,16,18,-1,20,-1,22,-1,24,26,28,30,32,34,-1,36,-1,-1,-1,38,-1,-1,-1,-1,40,-1,-1,-1,-1,-1,-1,-1,-1],"split_conditions":[5.797813E-1,6.4764595E-1,6.0248184E-1,6.2372124E-1,4.8906282E-1,6.3552827E-1,1.2038936E-1,-1.0466268E-1,5.5073494E-1,7.1477926E-1,5.14781E-1,-1.06193505E-1,7.249747E-1,-1.0577803E-1,5.638985E-1,-1.0818274E-1,4.712301E-1,6.976312E-1,6.708522E-1,5.498512E-1,3.3176947E-1,6.3656473E-1,1.2685868E-1,7.326808E-1,1.1872897E-1,-1.0806709E-1,1.1480305E-1,5.3161705E-1,1.23290055E-1,-1.0401391E-1,1.2813926E-1,-8.913162E-2,4.6420446E-1,-9.010469E-2,1.0749129E-1,-1.04569174E-1,-3.574751E-2,-5.2237254E-2,1.1691935E-1,6.863124E-2,1.2809108E-1],"split_indices":[0,1,1,1,0,0,0,0,0,1,0,0,0,0,0,0,0,1,1,1,1,1,0,1,0,0,0,0,0,0,0,0,1,0,0,0,0,0,0,0,0],"split_type":[0,0,0,0,0,0,0,0,0,0,0,0,0,0,0,0,0,0,0,0,0,0,0,0,0,0,0,0,0,0,0,0,0,0,0,0,0,0,0,0,0],"sum_hessian":[1.1805863E3,6.867393E2,4.9384695E2,4.461744E2,2.405649E2,2.927971E2,2.0104985E2,3.8585327E2,6.0321163E1,1.1451783E2,1.26047066E2,6.618874E1,2.2660835E2,4.304348E1,1.7277681E1,7.358907E1,4.0928757E1,2.4605085E1,1.0144198E2,6.086988E1,1.6573846E2,8.098991E0,9.17869E0,1.5646861E1,2.5281897E1,8.935995E0,1.5669089E1,2.9554054E1,7.1887924E1,3.0581291E1,3.0288588E1,7.825014E0,1.5791345E2,2.9481888E0,5.150802E0,1.3962391E1,1.6844698E0,7.337496E0,2.2216558E1,1.8388956E1,1.395245E2],"tree_param":{"num_deleted":"0","num_feature":"5","num_nodes":"41","size_leaf_vector":"1"}},{"base_weights":[-1.8946145E-2,-5.440047E-1,7.2325754E-1,-9.1804206E-1,-2.2937244E-1,4.020783E-1,1.103605E0,-1.0349359E-1,-6.614864E-1,-9.2243487E-1,-1.753605E-3,-3.6104536E-1,5.678319E-1,1.1987479E-1,1.0212696E0,-9.6596844E-2,-5.761587E-1,-9.584895E-1,-4.5970833E-1,-1.4860842E-1,2.608783E-1,-7.448094E-1,6.8499304E-2,4.7344956E-1,7.298579E-1,1.5516395E-2,1.02765076E-1,-4.0231696E-1,-7.147041E-1,-9.823955E-2,-5.030081E-1,-6.1163366E-1,7.544586E-3,8.044956E-3,-4.2658716E-1,3.9924434E-1,1.1972665E-1,-8.166755E-2,-3.8516858E-1,4.8093417E-1,-3.4886184E-1,5.2559894E-1,3.229093E-1,8.5099176E-2,5.8131033E-1,1.50168305E-2,-4.5904484E-2,-3.1797644E-2,-7.723564E-2,-1.040122E-2,-6.259525E-2,-1.048607E-2,-6.952923E-2,1.9327082E-2,-2.9341737E-2,7.657566E-4,-6.1111957E-2,4.4916254E-2,1.9185241E-2,2.8629435E-2,-4.6050856E-3,8.235821E-3,-6.4392254E-2,6.692021E-2,2.7164284E-2,-8.799498E-2,3.0521512E-2,-2.1237016E-2,5.452286E-2,4.942573E-2,8.89408E-3,2.3514738E-2,6.595734E-2],"categories":[],"categories_nodes":[],"categories_segments":[],"categories_sizes":[],"default_left":[0,0,0,0,0,0,0,0,0,0,0,0,0,0,0,0,0,0,0,0,0,0,0,0,0,0,0,0,0,0,0,0,0,0,0,0,0,0,0,0,0,0,0,0,0,0,0,0,0,0,0,0,0,0,0,0,0,0,0,0,0,0,0,0,0,0,0,0,0,0,0,0,0],"id":21,"left_children":[1,3,5,7,9,11,13,-1,15,17,19,21,23,-1,25,-1,27,29,31,33,35,37,39,41,43,-1,-1,45,47,-1,49,51,-1,53,55,57,59,-1,61,63,65,67,69,-1,71,-1,-1,-1,-1,-1,-1,-1,-1,-1,-1,-1,-1,-1,-1,-1,-1,-1,-1,-1,-1,-1,-1,-1,-1,-1,-1,-1,-1],"loss_changes":[4.2450607E2,7.486766E1,5.4691956E1,8.046402E0,5.4870033E1,3.1356739E1,3.8998413E-1,0E0,1.8830223E0,9.940109E-1,1.0176127E1,7.3961744E0,2.754509E0,0E0,4.883957E-1,0E0,1.5386581E0,3.6447144E-1,7.077619E-1,7.372055E0,1.8002834E0,2.9585934E-1,3.9445498E0,8.582802E-1,8.1480026E-1,0E0,0E0,1.1945834E0,6.9005394E-1,0E0,2.2831404E-1,2.0046282E-1,0E0,6.154609E0,4.893363E0,4.0408373E-1,1.3460546E0,0E0,7.578316E-1,2.696135E-1,4.2581005E0,1.5015602E0,1.4106574E0,0E0,8.159628E-1,0E0,0E0,0E0,0E0,0E0,0E0,0E0,0E0,0E0,0E0,0E0,0E0,0E0,0E0,0E0,0E0,0E0,0E0,0E0,0E0,0E0,0E0,0E0,0E0,0E0,0E0,0E0,0E0],"parents":[2147483647,0,0,1,1,2,2,3,3,4,4,5,5,6,6,8,8,9,9,10,10,11,11,12,12,14,14,16,16,17,17,18,18,19,19,20,20,21,21,22,22,23,23,24,24,27,27,28,28,30,30,31,31,33,33,34,34,35,35,36,36,38,38,39,39,40,40,41,41,42,42,44,44],"right_children":[2,4,6,8,10,12,14,-1,16,18,20,22,24,-1,26,-1,28,30,32,34,36,38,40,42,44,-1,-1,46,48,-1,50,52,-1,54,56,58,60,-1,62,64,66,68,70,-1,72,-1,-1,-1,-1,-1,-1,-1,-1,-1,-1,-1,-1,-1,-1,-1,-1,-1,-1,-1,-1,-1,-1,-1,-1,-1,-1,-1,-1],"split_conditions":[5.797813E-1,4.725168E-1,7.249747E-1,4.712301E-1,2.9E1,2E0,6.2E1,-1.0349359E-1,1.1E1,8.3E1,5.5073494E-1,6.3552827E-1,6.3552827E-1,1.1987479E-1,6.7E1,-9.6596844E-2,1.8E1,2E0,4.92E0,3.1E1,4.86E0,4.5E1,6.357877E-1,5.5E1,6.357877E-1,1.5516395E-2,1.02765076E-1,7.7E1,4.6E0,-9.823955E-2,4.68E0,5.14781E-1,7.544586E-3,5.3161705E-1,4.7E0,3.63E2,5.638985E-1,-8.166755E-2,6.3E1,4E0,1.4E1,3.2E1,4.87E0,8.5099176E-2,1.56E2,1.50168305E-2,-4.5904484E-2,-3.1797644E-2,-7.723564E-2,-1.040122E-2,-6.259525E-2,-1.048607E-2,-6.952923E-2,1.9327082E-2,-2.9341737E-2,7.657566E-4,-6.1111957E-2,4.4916254E-2,1.9185241E-2,2.8629435E-2,-4.6050856E-3,8.235821E-3,-6.4392254E-2,6.692021E-2,2.7164284E-2,-8.799498E-2,3.0521512E-2,-2.1237016E-2,5.452286E-2,4.942573E-2,8.89408E-3,2.3514738E-2,6.595734E-2],"split_indices":[0,0,0,0,3,3,3,0,3,2,0,0,0,0,3,0,2,3,4,2,4,2,0,2,0,0,0,3,4,0,4,0,0,0,4,3,0,0,2,2,2,3,4,0,3,0,0,0,0,0,0,0,0,0,0,0,0,0,0,0,0,0,0,0,0,0,0,0,0,0,0,0,0],"split_type":[0,0,0,0,0,0,0,0,0,0,0,0,0,0,0,0,0,0,0,0,0,0,0,0,0,0,0,0,0,0,0,0,0,0,0,0,0,0,0,0,0,0,0,0,0,0,0,0,0,0,0,0,0,0,0,0,0,0,0,0,0,0,0,0,0,0,0,0,0,0,0,0,0],"sum_hessian":[1.0873044E3,6.369633E2,4.503411E2,2.90133E2,3.4683035E2,2.4527725E2,2.0506386E2,1.9723384E2,9.289914E1,8.4991745E1,2.618386E2,4.3558277E1,2.0171898E2,8.884256E1,1.1622129E2,1.8076067E1,7.4823074E1,7.7854126E1,7.137621E0,1.682135E2,9.36251E1,2.261744E1,2.0940836E1,1.2994585E2,7.1773125E1,1.0351672E0,1.1518613E2,3.4915825E1,3.990725E1,7.287257E1,4.9815536E0,5.4480567E0,1.6895641E0,1.0820579E2,6.000771E1,4.6355724E1,4.7269375E1,1.7791418E1,4.826021E0,1.0455966E1,1.0484871E1,9.4662094E1,3.5283756E1,3.69298E1,3.4843327E1,3.0978649E0,3.1817959E1,5.8901696E0,3.401708E1,1.6082498E0,3.373304E0,1.0912297E0,4.3568273E0,6.7246666E1,4.0959118E1,1.8181414E1,4.1826298E1,3.6423103E1,9.932621E0,2.3215868E1,2.4053507E1,1.9622545E0,2.863767E0,4.3476086E0,6.1083574E0,5.5958796E0,4.888991E0,2.198325E0,9.246377E1,1.9725325E1,1.5558432E1,7.1634545E0,2.767987E1],"tree_param":{"num_deleted":"0","num_feature":"5","num_nodes":"73","size_leaf_vector":"1"}},{"base_weights":[-2.1247288E-2,-3.8221312E-1,4.6467832E-1,-9.209797E-1,-3.1852236E-1,2.5578123E-1,6.470581E-1,-1.0247046E-1,-6.529776E-1,-4.089708E-1,-1.4750004E-1,2.0659778E-1,4.1922367E-1,5.3109103E-1,8.311255E-1,-8.214113E-2,-3.7505758E-1,-5.3487647E-1,-3.4090182E-1,-1.7472929E-1,2.1692805E-2,9.294867E-2,2.4305499E-1,4.7607207E-1,2.922E-2,7.9587966E-2,5.1267874E-1,6.214693E-1,8.8044964E-2,-5.0204116E-1,3.480207E-2,-4.557265E-1,-7.084926E-1,-2.6483896E-1,-4.3001437E-1,-6.867223E-2,-2.179987E-1,-4.2688575E-2,7.318677E-2,1.3729696E-1,-5.0808866E-2,4.752843E-2,2.6714414E-1,3.6850402E-1,6.0128313E-2,3.3277195E-2,-1.4080407E-1,5.1947206E-1,8.959396E-2,6.9201523E-1,3.5454142E-1,-2.6673207E-2,-7.55586E-2,-3.7955664E-2,-6.310322E-2,-7.8210525E-2,-4.37746E-2,-4.0462394E-3,-2.9524624E-2,-5.245037E-2,-2.3523008E-2,1.5559256E-2,-1.675913E-2,-3.2352142E-2,-1.2464034E-2,1.568494E-2,-1.8576447E-2,4.77837E-3,3.8916245E-2,-1.0793762E-2,1.5462749E-2,3.336839E-2,1.5641259E-2,1.7039811E-2,4.81089E-2,-6.466337E-2,1.995022E-2,4.415433E-2,5.5525668E-2,2.1581056E-2,-5.8795954E-3,7.5406514E-2,8.69676E-3,-1.0755038E-2,6.8100356E-2],"categories":[],"categories_nodes":[],"categories_segments":[],"categories_sizes":[],"default_left":[0,0,0,0,0,0,0,0,0,0,0,0,0,0,0,0,0,0,0,0,0,0,0,0,0,0,0,0,0,0,0,0,0,0,0,0,0,0,0,0,0,0,0,0,0,0,0,0,0,0,0,0,0,0,0,0,0,0,0,0,0,0,0,0,0,0,0,0,0,0,0,0,0,0,0,0,0,0,0,0,0,0,0,0,0],"id":22,"left_children":[1,3,5,7,9,11,13,-1,15,17,19,21,23,25,27,-1,29,31,33,35,37,39,41,43,45,-1,47,49,-1,51,-1,53,55,57,59,61,63,-1,65,67,-1,69,71,73,-1,-1,75,77,79,81,83,-1,-1,-1,-1,-1,-1,-1,-1,-1,-1,-1,-1,-1,-1,-1,-1,-1,-1,-1,-1,-1,-1,-1,-1,-1,-1,-1,-1,-1,-1,-1,-1,-1,-1],"loss_changes":[1.8195155E2,2.0129448E1,1.6680115E1,1.0652733E0,8.196487E0,1.5834217E0,4.583557E0,0E0,6.3591385E-1,2.8049736E0,8.616524E-1,6.4724445E-1,1.0299921E0,3.095703E-1,3.7545013E-1,0E0,1.04241E0,1.3338242E0,1.4383545E0,7.2159433E-1,6.480563E-1,1.1595215E0,5.609045E-1,3.3102703E-1,4.1099268E-1,0E0,3.5707855E-1,1.3864326E-1,0E0,3.0246544E-1,0E0,9.036617E-1,3.7410736E-1,8.48753E-1,1.7880459E0,1.0902144E0,1.0781779E0,0E0,5.6656754E-1,8.575575E-1,0E0,2.5935817E-1,7.450876E-1,4.678595E-1,0E0,0E0,1.0284266E0,1.3967133E-1,7.6885626E-2,5.005131E-1,1.0256362E0,0E0,0E0,0E0,0E0,0E0,0E0,0E0,0E0,0E0,0E0,0E0,0E0,0E0,0E0,0E0,0E0,0E0,0E0,0E0,0E0,0E0,0E0,0E0,0E0,0E0,0E0,0E0,0E0,0E0,0E0,0E0,0E0,0E0,0E0],"parents":[2147483647,0,0,1,1,2,2,3,3,4,4,5,5,6,6,8,8,9,9,10,10,11,11,12,12,13,13,14,14,16,16,17,17,18,18,19,19,20,20,21,21,22,22,23,23,24,24,26,26,27,27,29,29,31,31,32,32,33,33,34,34,35,35,36,36,38,38,39,39,41,41,42,42,43,43,46,46,47,47,48,48,49,49,50,50],"right_children":[2,4,6,8,10,12,14,-1,16,18,20,22,24,26,28,-1,30,32,34,36,38,40,42,44,46,-1,48,50,-1,52,-1,54,56,58,60,62,64,-1,66,68,-1,70,72,74,-1,-1,76,78,80,82,84,-1,-1,-1,-1,-1,-1,-1,-1,-1,-1,-1,-1,-1,-1,-1,-1,-1,-1,-1,-1,-1,-1,-1,-1,-1,-1,-1,-1,-1,-1,-1,-1,-1,-1],"split_conditions":[6.156035E-1,3.8720417E-1,6.723715E-1,3.1667763E-1,5.498512E-1,6.6166174E-1,7.1477926E-1,-1.0247046E-1,4.95E0,4.79E0,6.074209E-1,4.67E0,3.65E2,3.1E1,4.43E0,-8.214113E-2,8.9E1,2E1,1E0,4.68E0,4.43E0,4.65E0,3E0,4.87E0,6.6627276E-1,7.9587966E-2,2.66E2,7E0,8.8044964E-2,2.78E2,3.480207E-2,7.7E1,3.28E2,4.85E0,4.7E1,2E0,4.9E0,-4.2688575E-2,3.4E2,6.523476E-1,