{"learner":{"attributes":{"best_iteration":"167","best_score":"0.00417563831084421"},"feature_names":["distance_score","price_score","number_of_reviews","availability_365","review_scores_rating"],"feature_types":["float","float","int","int","float"],"gradient_booster":{"model":{"gbtree_model_param":{"num_parallel_tree":"1","num_trees":"218"},"iteration_indptr":[0,1,2,3,4,5,6,7,8,9,10,11,12,13,14,15,16,17,18,19,20,21,22,23,24,25,26,27,28,29,30,31,32,33,34,35,36,37,38,39,40,41,42,43,44,45,46,47,48,49,50,51,52,53,54,55,56,57,58,59,60,61,62,63,64,65,66,67,68,69,70,71,72,73,74,75,76,77,78,79,80,81,82,83,84,85,86,87,88,89,90,91,92,93,94,95,96,97,98,99,100,101,102,103,104,105,106,107,108,109,110,111,112,113,114,115,116,117,118,119,120,121,122,123,124,125,126,127,128,129,130,131,132,133,134,135,136,137,138,139,140,141,142,143,144,145,146,147,148,149,150,151,152,153,154,155,156,157,158,159,160,161,162,163,164,165,166,167,168,169,170,171,172,173,174,175,176,177,178,179,180,181,182,183,184,185,186,187,188,189,190,191,192,193,194,195,196,197,198,199,200,201,202,203,204,205,206,207,208,209,210,211,212,213,214,215,216,217,218],"tree_info":[0,0,0,0,0,0,0,0,0,0,0,0,0,0,0,0,0,0,0,0,0,0,0,0,0,0,0,0,0,0,0,0,0,0,0,0,0,0,0,0,0,0,0,0,0,0,0,0,0,0,0,0,0,0,0,0,0,0,0,0,0,0,0,0,0,0,0,0,0,0,0,0,0,0,0,0,0,0,0,0,0,0,0,0,0,0,0,0,0,0,0,0,0,0,0,0,0,0,0,0,0,0,0,0,0,0,0,0,0,0,0,0,0,0,0,0,0,0,0,0,0,0,0,0,0,0,0,0,0,0,0,0,0,0,0,0,0,0,0,0,0,0,0,0,0,0,0,0,0,0,0,0,0,0,0,0,0,0,0,0,0,0,0,0,0,0,0,0,0,0,0,0,0,0,0,0,0,0,0,0,0,0,0,0,0,0,0,0,0,0,0,0,0,0,0,0,0,0,0,0,0,0,0,0,0,0,0,0,0,0,0,0,0,0,0,0,0,0],"trees":[{"base_weights":[4.7923825E-3,-4.6434394E-1,3.855485E0,-9.381777E-1,2.2924552E0,-9.115344E-1,4.3817115E0,-1.1664045E0,1.9678043E-1,-4.1375154E-1,4.641856E0,-1.2062694E-1,7.1237576E-1,3.1628034E0,4.743676E0,-1.25378E-1,-4.0524825E-1,-1.1545407E0,4.415354E0,-1.24389865E-1,1.2683995E0,3.1157038E0,4.822051E0,-9.208773E-2,2.916952E-1,-1.18618034E-1,4.810795E-1,2.5697145E0,4.8860222E-1,-1.2470331E-1,4.7219905E-1,-1.2251829E0,-2.642903E-1,2.3511276E0,4.723322E-1,-1.1850083E-1,4.5410256E0,-9.327997E-1,4.6233937E-1,2.7895827E0,4.8868972E-1,-1.03495836E-1,4.4131395E-1,-1.2456508E-1,-4.1898888E-2,-1.1829577E-1,3.7117222E-1,3.1759225E-2,4.180339E-1,1.5139344E-1,4.6946952E-1,-1.03495836E-1,-2.7299926E-2,-8.0404885E-2,4.05457E-1],"categories":[],"categories_nodes":[],"categories_segments":[],"categories_sizes":[],"default_left":[0,0,0,0,0,0,0,0,0,0,0,0,0,0,0,0,0,0,0,0,0,0,0,0,0,0,0,0,0,0,0,0,0,0,0,0,0,0,0,0,0,0,0,0,0,0,0,0,0,0,0,0,0,0,0],"id":0,"left_children":[1,3,5,7,9,11,13,15,17,19,21,-1,23,25,27,-1,29,31,33,-1,35,37,39,-1,-1,-1,-1,41,-1,-1,-1,43,45,47,-1,-1,49,51,-1,53,-1,-1,-1,-1,-1,-1,-1,-1,-1,-1,-1,-1,-1,-1,-1],"loss_changes":[4.853708E3,3.1306838E3,7.359546E2,5.298008E2,2.2371655E3,1.5139437E1,1.0101123E2,1.1270654E2,1.9612297E3,2.3100482E2,3.675122E1,0E0,2.1452559E1,4.587213E2,4.9565918E1,0E0,7.688293E2,1.6070496E1,4.1950195E1,0E0,4.4524426E2,1.4291905E2,8.319824E0,0E0,0E0,0E0,0E0,1.0055978E2,0E0,0E0,0E0,3.4588623E0,7.905024E1,4.6381844E1,0E0,0E0,3.9077148E0,1.8888092E-1,0E0,3.726323E1,0E0,0E0,0E0,0E0,0E0,0E0,0E0,0E0,0E0,0E0,0E0,0E0,0E0,0E0,0E0],"parents":[2147483647,0,0,1,1,2,2,3,3,4,4,5,5,6,6,7,7,8,8,9,9,10,10,12,12,13,13,14,14,16,16,17,17,18,18,20,20,21,21,22,22,27,27,31,31,32,32,33,33,36,36,37,37,39,39],"right_children":[2,4,6,8,10,12,14,16,18,20,22,-1,24,26,28,-1,30,32,34,-1,36,38,40,-1,-1,-1,-1,42,-1,-1,-1,44,46,48,-1,-1,50,52,-1,54,-1,-1,-1,-1,-1,-1,-1,-1,-1,-1,-1,-1,-1,-1,-1],"split_conditions":[6.357877E-1,6.693292E-1,3.806865E-1,6.074209E-1,4.9594304E-1,3.5034445E-1,7.249747E-1,6.3552827E-1,5.638985E-1,7.1618164E-1,6.753994E-1,-1.2062694E-1,8.388072E-1,5.520974E-1,4.5937604E-1,-1.25378E-1,5.520974E-1,5.3161705E-1,6.1397207E-1,-1.24389865E-1,4.712882E-1,5.2344847E-1,5.14781E-1,-9.208773E-2,2.916952E-1,-1.18618034E-1,4.810795E-1,8.388072E-1,4.8860222E-1,-1.2470331E-1,4.7219905E-1,6.6627276E-1,6.570198E-1,5.8310395E-1,4.723322E-1,-1.1850083E-1,7.1757984E-1,6.723715E-1,4.6233937E-1,6.9031626E-1,4.8868972E-1,-1.03495836E-1,4.4131395E-1,-1.2456508E-1,-4.1898888E-2,-1.1829577E-1,3.7117222E-1,3.1759225E-2,4.180339E-1,1.5139344E-1,4.6946952E-1,-1.03495836E-1,-2.7299926E-2,-8.0404885E-2,4.05457E-1],"split_indices":[0,1,1,1,0,1,0,0,0,1,1,0,0,1,1,0,1,0,1,0,0,0,0,0,0,0,0,0,0,0,0,1,1,0,0,0,1,1,0,1,0,0,0,0,0,0,0,0,0,0,0,0,0,0,0],"split_type":[0,0,0,0,0,0,0,0,0,0,0,0,0,0,0,0,0,0,0,0,0,0,0,0,0,0,0,0,0,0,0,0,0,0,0,0,0,0,0,0,0,0,0,0,0,0,0,0,0,0,0,0,0,0,0],"sum_hessian":[2.6848113E3,2.3940227E3,2.907884E2,2.0434568E3,3.5056607E2,2.883584E1,2.6195255E2,1.7013146E3,3.4214212E2,1.632951E2,1.8727097E2,2.4623863E1,4.211977E0,6.2207657E1,1.997449E2,1.5255455E3,1.7576903E2,2.5968457E2,8.245754E1,1.095114E2,5.3783703E1,2.170788E1,1.6556308E2,2.753985E0,1.457992E0,1.7171906E1,4.503575E1,1.3445926E1,1.8629897E2,1.5163116E2,2.4137867E1,2.4024467E2,1.9439892E1,1.1825934E1,7.063161E1,3.1103828E1,2.2679874E1,5.993967E0,1.5713913E1,6.4799643E0,1.5908313E2,4.697974E0,8.7479515E0,2.3376471E2,6.4799643E0,1.636191E1,3.077983E0,6.155966E0,5.6699686E0,1.6199911E0,2.1059883E1,4.697974E0,1.2959929E0,1.7819902E0,4.697974E0],"tree_param":{"num_deleted":"0","num_feature":"5","num_nodes":"55","size_leaf_vector":"1"}},{"base_weights":[-1.8476002E-2,-4.4229788E-1,2.7913365E0,-1.1049042E0,1.5904093E-1,2.1616693E0,2.9537332E0,-1.2220009E-1,-9.3598384E-1,-9.957515E-1,8.156093E-1,9.005883E-1,2.502295E0,3.3464628E-1,2.688226E0,7.226861E-1,-9.7260284E-1,-1.1434836E0,-6.091507E-1,6.476768E-1,1.4081951E0,5.799026E-1,1.7870115E-1,2.023428E0,2.814771E-1,2.3221493E0,2.9034138E-1,-7.351957E-2,1.0468441E0,-1.1066294E0,-6.702035E-1,-1.1549795E0,3.711761E-2,-8.29516E-1,1.2230427E0,8.4126437E-1,1.6561936E-1,1.8599836E0,1.0228341E0,1.3756384E0,-2.3521951E-1,2.2190938E0,6.447284E-1,2.541681E0,1.9461962E0,1.7352983E-2,1.522295E-1,-1.21812105E-1,-9.587251E-2,3.1615697E-2,-9.806945E-2,-1.1799405E-1,-6.531539E-2,-1.0016675E-1,-3.3561114E-2,-3.9985932E-2,1.6726355E-1,5.7028797E-2,1.9260673E-1,5.9580423E-2,-1.7170953E-2,2.1712886E-1,1.5791993E-1,1.8375199E-1,8.871545E-2,7.717803E-2,1.703087E-1,-6.889327E-2,1.8481238E-2,2.3040724E-1,5.0326414E-2,-2.360124E-3,9.9586196E-2,1.5390472E-1,2.6525E-1,5.2736063E-2,2.0243497E-1],"categories":[],"categories_nodes":[],"categories_segments":[],"categories_sizes":[],"default_left":[0,0,0,0,0,0,0,0,0,0,0,0,0,0,0,0,0,0,0,0,0,0,0,0,0,0,0,0,0,0,0,0,0,0,0,0,0,0,0,0,0,0,0,0,0,0,0,0,0,0,0,0,0,0,0,0,0,0,0,0,0,0,0,0,0,0,0,0,0,0,0,0,0,0,0,0,0],"id":1,"left_children":[1,3,5,7,9,11,13,-1,15,17,19,21,23,-1,25,27,29,31,33,35,37,39,-1,41,-1,43,-1,-1,45,47,49,51,-1,53,55,57,59,61,63,65,67,69,71,73,75,-1,-1,-1,-1,-1,-1,-1,-1,-1,-1,-1,-1,-1,-1,-1,-1,-1,-1,-1,-1,-1,-1,-1,-1,-1,-1,-1,-1,-1,-1,-1,-1],"loss_changes":[3.2081743E3,9.3289624E2,2.9720947E1,2.0887573E1,9.319138E2,3.0446045E1,1.9989014E1,0E0,2.8659637E1,2.4752106E1,7.705359E1,4.009696E0,3.1887207E0,0E0,6.7230225E0,5.7392893E0,1.7527466E1,6.022339E0,5.1618473E1,5.7001953E1,2.8068604E1,9.738768E0,0E0,5.8533173E0,0E0,6.883545E-1,0E0,0E0,3.4792757E0,3.9572144E0,4.3481323E1,3.2260132E0,0E0,9.227112E0,1.0781832E1,1.2725067E2,2.5742E1,3.3909302E0,8.884605E0,1.6684628E-1,1.6565794E0,2.228447E0,1.1417938E0,3.4396362E-1,2.1967926E0,0E0,0E0,0E0,0E0,0E0,0E0,0E0,0E0,0E0,0E0,0E0,0E0,0E0,0E0,0E0,0E0,0E0,0E0,0E0,0E0,0E0,0E0,0E0,0E0,0E0,0E0,0E0,0E0,0E0,0E0,0E0,0E0],"parents":[2147483647,0,0,1,1,2,2,3,3,4,4,5,5,6,6,8,8,9,9,10,10,11,11,12,12,14,14,15,15,16,16,17,17,18,18,19,19,20,20,21,21,23,23,25,25,28,28,29,29,30,30,31,31,33,33,34,34,35,35,36,36,37,37,38,38,39,39,40,40,41,41,42,42,43,43,44,44],"right_children":[2,4,6,8,10,12,14,-1,16,18,20,22,24,-1,26,28,30,32,34,36,38,40,-1,42,-1,44,-1,-1,46,48,50,52,-1,54,56,58,60,62,64,66,68,70,72,74,76,-1,-1,-1,-1,-1,-1,-1,-1,-1,-1,-1,-1,-1,-1,-1,-1,-1,-1,-1,-1,-1,-1,-1,-1,-1,-1,-1,-1,-1,-1,-1,-1],"split_conditions":[6.357877E-1,4.9594304E-1,7.249747E-1,4.712882E-1,2.7E1,1E0,1E0,-1.2220009E-1,3.14E0,5.8310395E-1,5.8310395E-1,4.7E1,2.1E1,3.3464628E-1,8.388072E-1,8.8E1,2.41E2,3.19E2,5.3E1,5.797813E-1,4.83E0,4E0,1.7870115E-1,3.65E2,2.814771E-1,1.5E1,2.9034138E-1,-7.351957E-2,4.725168E-1,1.1E1,4E0,1E0,3.711761E-2,1.2E1,6.3552827E-1,5.638985E-1,4.77E0,2.34E2,7.3E1,2E0,4.75E0,1.8E1,4.84E0,1.25E2,4.45E0,1.7352983E-2,1.522295E-1,-1.21812105E-1,-9.587251E-2,3.1615697E-2,-9.806945E-2,-1.1799405E-1,-6.531539E-2,-1.0016675E-1,-3.3561114E-2,-3.9985932E-2,1.6726355E-1,5.7028797E-2,1.9260673E-1,5.9580423E-2,-1.7170953E-2,2.1712886E-1,1.5791993E-1,1.8375199E-1,8.871545E-2,7.717803E-2,1.703087E-1,-6.889327E-2,1.8481238E-2,2.3040724E-1,5.0326414E-2,-2.360124E-3,9.9586196E-2,1.5390472E-1,2.6525E-1,5.2736063E-2,2.0243497E-1],"split_indices":[0,0,0,0,3,3,3,0,4,0,0,2,2,0,0,3,3,2,2,0,4,2,0,3,0,2,0,0,0,3,2,3,0,2,0,0,4,3,3,2,4,2,4,3,4,0,0,0,0,0,0,0,0,0,0,0,0,0,0,0,0,0,0,0,0,0,0,0,0,0,0,0,0,0,0,0,0],"split_type":[0,0,0,0,0,0,0,0,0,0,0,0,0,0,0,0,0,0,0,0,0,0,0,0,0,0,0,0,0,0,0,0,0,0,0,0,0,0,0,0,0,0,0,0,0,0,0,0,0,0,0,0,0,0,0,0,0,0,0,0,0,0,0,0,0,0,0,0,0,0,0,0,0,0,0,0,0],"sum_hessian":[2.691961E3,2.3398667E3,3.5209436E2,1.1128245E3,1.2270421E3,7.5124E1,2.7697037E2,6.535471E2,4.592774E2,4.4458167E2,7.8246045E2,1.6751118E1,5.8372883E1,1.07038506E2,1.6993184E2,9.515914E0,4.4976147E2,3.202474E2,1.2433426E2,6.1131366E2,1.7114676E2,1.3515686E1,3.2354314E0,2.6001404E1,3.237148E1,6.727502E1,1.0265683E2,1.5003155E0,8.015598E0,3.0979688E2,1.3996463E2,3.1807083E2,2.1765883E0,1.11474075E2,1.2860182E1,4.3562686E2,1.7568683E2,7.702169E1,9.412507E1,6.4912114E0,7.024475E0,2.2236088E1,3.765315E0,3.883645E1,2.843857E1,3.3067312E0,4.708867E0,1.7251639E2,1.3728047E2,3.3505833E1,1.0645879E2,3.0171225E2,1.635859E1,8.189971E1,2.9574362E1,2.813797E0,1.0046385E1,3.497799E2,8.584695E1,7.68791E1,9.8807724E1,3.3332764E1,4.3688927E1,1.1647113E1,8.247795E1,3.4626265E0,3.028585E0,3.0690906E0,3.9553843E0,2.0860134E1,1.375955E0,1.6181659E0,2.1471493E0,5.3470407E0,3.3489407E1,1.8891848E0,2.6549385E1],"tree_param":{"num_deleted":"0","num_feature":"5","num_nodes":"77","size_leaf_vector":"1"}},{"base_weights":[-1.4854879E-2,-4.0699726E-1,2.2610767E0,-1.0688798E0,1.4830916E-1,1.7856246E0,2.3795476E0,-1.194127E-1,-8.935202E-1,-9.419816E-1,7.0243543E-1,8.0339074E-1,2.0457473E0,2.6317307E-1,2.147263E0,5.152283E-1,-9.338827E-1,-1.0513165E0,-3.1063047E-1,5.54423E-1,1.1783459E0,4.3980855E-1,1.6322516E-1,6.355347E-2,2.084321E0,1.8945805E0,2.3048608E-1,-8.0294445E-2,8.344839E-1,-1.191801E-1,-7.7514964E-1,-1.0840335E0,-3.3428946E-1,-8.0341834E-1,1.318047E0,7.1063125E-1,1.5017256E-1,1.3649942E0,6.862474E-1,1.1582612E-1,-3.2455724E-1,2.2152126E-1,1.5387248E0,9.501302E-1,2.0043118E-1,1.6495651E-1,8.780906E-3,-8.109419E-3,-9.397143E-2,-1.1709589E-1,-8.5994735E-2,3.5422944E-2,-6.854146E-2,-8.8216096E-2,3.7904765E-2,-5.0162E-3,1.6000551E-1,4.6458628E-2,1.6191964E-1,6.567041E-2,-7.376224E-3,1.5035047E-1,8.658026E-2,9.539688E-2,-2.6358133E-2,-5.1102705E-2,-5.50452E-3,6.1187476E-2,1.9703437E-1,1.5574738E-1,2.6134017E-3],"categories":[],"categories_nodes":[],"categories_segments":[],"categories_sizes":[],"default_left":[0,0,0,0,0,0,0,0,0,0,0,0,0,0,0,0,0,0,0,0,0,0,0,0,0,0,0,0,0,0,0,0,0,0,0,0,0,0,0,0,0,0,0,0,0,0,0,0,0,0,0,0,0,0,0,0,0,0,0,0,0,0,0,0,0,0,0,0,0,0,0],"id":2,"left_children":[1,3,5,7,9,11,13,-1,15,17,19,21,23,-1,25,27,29,31,33,35,37,39,-1,-1,41,43,-1,-1,45,-1,47,49,51,53,55,57,59,61,63,-1,65,-1,67,69,-1,-1,-1,-1,-1,-1,-1,-1,-1,-1,-1,-1,-1,-1,-1,-1,-1,-1,-1,-1,-1,-1,-1,-1,-1,-1,-1],"loss_changes":[2.3623418E3,8.3002563E2,1.7664307E1,2.1559692E1,7.429617E2,1.9207397E1,1.2415894E1,0E0,2.5113312E1,2.828241E1,5.676996E1,4.9276543E0,2.1499023E0,0E0,2.242981E0,6.019087E0,1.6332123E1,7.915161E0,5.1299404E1,3.9278183E1,1.6744293E1,8.278584E0,0E0,0E0,1.0001221E0,5.285263E0,0E0,0E0,6.3810043E0,0E0,3.0051376E1,5.5575867E0,4.3148103E0,4.866846E0,5.8368187E0,9.975426E1,1.9910309E1,8.27829E0,1.4223787E1,0E0,3.615319E-1,0E0,4.882881E0,5.0787115E0,0E0,0E0,0E0,0E0,0E0,0E0,0E0,0E0,0E0,0E0,0E0,0E0,0E0,0E0,0E0,0E0,0E0,0E0,0E0,0E0,0E0,0E0,0E0,0E0,0E0,0E0,0E0],"parents":[2147483647,0,0,1,1,2,2,3,3,4,4,5,5,6,6,8,8,9,9,10,10,11,11,12,12,14,14,15,15,16,16,17,17,18,18,19,19,20,20,21,21,24,24,25,25,28,28,30,30,31,31,32,32,33,33,34,34,35,35,36,36,37,37,38,38,40,40,42,42,43,43],"right_children":[2,4,6,8,10,12,14,-1,16,18,20,22,24,-1,26,28,30,32,34,36,38,40,-1,-1,42,44,-1,-1,46,-1,48,50,52,54,56,58,60,62,64,-1,66,-1,68,70,-1,-1,-1,-1,-1,-1,-1,-1,-1,-1,-1,-1,-1,-1,-1,-1,-1,-1,-1,-1,-1,-1,-1,-1,-1,-1,-1],"split_conditions":[6.357877E-1,4.9594304E-1,7.249747E-1,4.712882E-1,2.7E1,8E0,8.3E1,-1.194127E-1,3.71E0,4.5E1,5.8310395E-1,4.4E1,4.21E0,2.6317307E-1,8.388072E-1,8.8E1,1.1E1,1E0,6.3552827E-1,5.797813E-1,4.97E0,4E0,1.6322516E-1,6.355347E-2,3.47E2,1.25E2,2.3048608E-1,-8.0294445E-2,2.7E2,-1.191801E-1,4E0,5.8310395E-1,4E0,3.19E2,5.3E1,5.638985E-1,4.66E0,3.62E2,1.4E1,1.1582612E-1,4.73E0,2.2152126E-1,1.9E1,1.04E2,2.0043118E-1,1.6495651E-1,8.780906E-3,-8.109419E-3,-9.397143E-2,-1.1709589E-1,-8.5994735E-2,3.5422944E-2,-6.854146E-2,-8.8216096E-2,3.7904765E-2,-5.0162E-3,1.6000551E-1,4.6458628E-2,1.6191964E-1,6.567041E-2,-7.376224E-3,1.5035047E-1,8.658026E-2,9.539688E-2,-2.6358133E-2,-5.1102705E-2,-5.50452E-3,6.1187476E-2,1.9703437E-1,1.5574738E-1,2.6134017E-3],"split_indices":[0,0,0,0,3,3,3,0,4,2,0,2,4,0,0,3,3,3,0,0,4,2,0,0,3,3,0,0,3,0,2,0,3,2,2,0,4,3,2,0,4,0,2,3,0,0,0,0,0,0,0,0,0,0,0,0,0,0,0,0,0,0,0,0,0,0,0,0,0,0,0],"split_type":[0,0,0,0,0,0,0,0,0,0,0,0,0,0,0,0,0,0,0,0,0,0,0,0,0,0,0,0,0,0,0,0,0,0,0,0,0,0,0,0,0,0,0,0,0,0,0,0,0,0,0,0,0,0,0,0,0,0,0,0,0,0,0,0,0,0,0,0,0,0,0],"sum_hessian":[2.6448823E3,2.256849E3,3.880333E2,1.0291986E3,1.2276505E3,8.060776E1,3.0742554E2,5.9699646E2,4.322021E2,4.1345078E2,8.141997E2,1.7733576E1,6.287418E1,1.4244655E2,1.64979E2,1.1710574E1,4.2049152E2,3.518531E2,6.1597713E1,6.226995E2,1.9150017E2,1.3390439E1,4.343136E0,2.1393092E0,6.073487E1,6.837395E1,9.660505E1,1.9878598E0,9.722714E0,1.5771666E2,2.6277487E2,3.3600958E2,1.584348E1,4.76784E1,1.3919315E1,4.4859717E2,1.7410239E2,1.3755359E2,5.394658E1,6.636887E0,6.753552E0,4.6515404E1,1.4219466E1,8.122536E0,6.025141E1,4.0703E0,5.652414E0,5.0650024E1,2.1212485E2,2.3905292E2,9.695667E1,5.347926E0,1.0495554E1,4.4939743E1,2.738657E0,2.519186E0,1.1400129E1,3.541913E2,9.440584E1,5.2781097E1,1.2132129E2,1.06101715E2,3.1451876E1,4.2081116E1,1.186546E1,3.4620864E0,3.2914658E0,5.2860136E0,8.933453E0,4.487387E0,3.6351488E0],"tree_param":{"num_deleted":"0","num_feature":"5","num_nodes":"71","size_leaf_vector":"1"}},{"base_weights":[-3.532091E-2,-6.315565E-1,1.312113E0,-1.0944966E0,-5.10966E-1,6.264035E-1,1.9100863E0,-1.2296146E-1,-9.050464E-1,-6.3414377E-1,-2.3363103E-1,5.369839E-1,9.827723E-1,1.7507769E0,2.2538922E0,-9.968268E-1,-6.597352E-1,-5.1682854E-1,-7.368783E-1,6.058749E-3,-3.3634308E-1,6.4835835E-1,2.503181E-1,6.0329616E-1,1.1193894E0,1.4516058E0,1.8867074E0,1.768496E0,2.598599E-1,-1.1116072E-1,-8.9323646E-1,-8.2126445E-1,-8.536524E-2,-4.7654483E-1,-7.0751154E-1,-6.9836384E-1,-8.6509615E-1,-2.2674007E-2,7.6181626E-1,-4.1213426E-1,3.3448555E-2,7.88108E-1,4.4911745E-1,3.5466397E-1,-9.110561E-2,7.979589E-1,-2.179664E-1,1.3888084E0,9.930896E-1,1.3718764E0,1.9295268E0,1.909101E0,5.927535E-1,9.7745645E-1,1.9457668E0,3.6160283E-2,-9.279289E-2,-4.0070485E-2,-9.067985E-2,-5.8781404E-2,4.2533852E-2,-4.8114743E-2,5.734647E-2,-7.524175E-2,-2.495656E-2,-7.030968E-2,3.868197E-2,-8.893988E-2,-2.4086855E-2,3.7353486E-2,-7.4882875E-3,1.1201324E-1,-1.6287062E-3,-2.500755E-2,-5.093343E-2,-4.2680535E-2,3.8156405E-2,9.3413875E-2,4.5160398E-2,5.663046E-2,1.3526501E-2,2.3493947E-2,6.339268E-2,-2.1806626E-2,2.0855743E-2,3.2833546E-2,1.0363405E-1,5.8952183E-2,-6.445389E-2,1.5903418E-1,8.423723E-2,1.7132902E-1,9.166838E-2,1.4471066E-1,1.10057525E-1,2.0975702E-1,7.545296E-2,1.8291603E-1,2.1861067E-1,-2.0683063E-2,8.9366324E-2,1.4323033E-1,-2.5216108E-2,2.0285983E-1,1.1587937E-1],"categories":[],"categories_nodes":[],"categories_segments":[],"categories_sizes":[],"default_left":[0,0,0,0,0,0,0,0,0,0,0,0,0,0,0,0,0,0,0,0,0,0,0,0,0,0,0,0,0,0,0,0,0,0,0,0,0,0,0,0,0,0,0,0,0,0,0,0,0,0,0,0,0,0,0,0,0,0,0,0,0,0,0,0,0,0,0,0,0,0,0,0,0,0,0,0,0,0,0,0,0,0,0,0,0,0,0,0,0,0,0,0,0,0,0,0,0,0,0,0,0,0,0,0,0],"id":3,"left_children":[1,3,5,7,9,11,13,-1,15,17,19,21,23,25,27,29,31,33,35,37,39,41,43,45,47,49,51,53,-1,-1,55,57,59,61,63,65,67,69,71,73,75,77,79,81,83,85,87,89,91,93,95,97,99,101,103,-1,-1,-1,-1,-1,-1,-1,-1,-1,-1,-1,-1,-1,-1,-1,-1,-1,-1,-1,-1,-1,-1,-1,-1,-1,-1,-1,-1,-1,-1,-1,-1,-1,-1,-1,-1,-1,-1,-1,-1,-1,-1,-1,-1,-1,-1,-1,-1,-1,-1],"loss_changes":[2.0915742E3,1.0019446E2,3.2627222E2,8.412048E0,4.8828583E1,1.1374756E1,1.939331E1,0E0,2.9152527E0,1.1577148E1,1.0896265E1,9.441277E0,3.146408E0,9.285278E0,1.7398499E1,3.5692596E-1,4.2128963E0,3.2467117E0,1.9963379E0,2.9211137E0,8.69619E0,5.6603622E0,3.0888052E0,3.6403737E0,4.2542267E-1,1.0378876E0,4.6625977E0,6.191498E0,0E0,0E0,3.1548805E0,9.285908E-1,3.1365433E0,2.1522522E0,1.4432259E0,2.3785858E0,1.5676193E0,2.712931E0,1.3918483E0,3.9235916E0,8.753624E0,5.7515717E0,3.2840157E0,2.0549183E0,8.397987E-1,1.6460371E0,2.0816188E0,2.4803352E-1,6.0948944E-1,1.6957092E-1,6.61644E-1,3.4399414E-1,1.3522576E0,7.3945713E0,6.5696716E-1,0E0,0E0,0E0,0E0,0E0,0E0,0E0,0E0,0E0,0E0,0E0,0E0,0E0,0E0,0E0,0E0,0E0,0E0,0E0,0E0,0E0,0E0,0E0,0E0,0E0,0E0,0E0,0E0,0E0,0E0,0E0,0E0,0E0,0E0,0E0,0E0,0E0,0E0,0E0,0E0,0E0,0E0,0E0,0E0,0E0,0E0,0E0,0E0,0E0,0E0],"parents":[2147483647,0,0,1,1,2,2,3,3,4,4,5,5,6,6,8,8,9,9,10,10,11,11,12,12,13,13,14,14,15,15,16,16,17,17,18,18,19,19,20,20,21,21,22,22,23,23,24,24,25,25,26,26,27,27,30,30,31,31,32,32,33,33,34,34,35,35,36,36,37,37,38,38,39,39,40,40,41,41,42,42,43,43,44,44,45,45,46,46,47,47,48,48,49,49,50,50,51,51,52,52,53,53,54,54],"right_children":[2,4,6,8,10,12,14,-1,16,18,20,22,24,26,28,30,32,34,36,38,40,42,44,46,48,50,52,54,-1,-1,56,58,60,62,64,66,68,70,72,74,76,78,80,82,84,86,88,90,92,94,96,98,100,102,104,-1,-1,-1,-1,-1,-1,-1,-1,-1,-1,-1,-1,-1,-1,-1,-1,-1,-1,-1,-1,-1,-1,-1,-1,-1,-1,-1,-1,-1,-1,-1,-1,-1,-1,-1,-1,-1,-1,-1,-1,-1,-1,-1,-1,-1,-1,-1,-1,-1,-1],"split_conditions":[6.156035E-1,4.5937604E-1,6.723715E-1,3.5034445E-1,5.520974E-1,6.6166174E-1,7.1757984E-1,-1.2296146E-1,4.8E1,4.9005887E-1,4.4E1,4.94E0,1E1,7E0,1.86E2,4.84E0,4.95E0,7.3E1,2.53E2,6.074209E-1,6.074209E-1,2.94E2,3.47E2,3.65E2,4.68E0,3.65E2,3.19E2,4.33E0,2.598599E-1,-1.1116072E-1,4.86E0,5.9E1,4.2540255E-1,6.5E1,1.33E2,2.51E2,2.13E2,5.5539453E-1,4.85E0,5.724406E-1,1.4E1,7.1E1,6.4764595E-1,2.51E2,6.444954E-1,2.29E2,6.6627276E-1,4.2E1,1.2E1,2.94E2,7.03412E-1,4.93E0,4.71E0,1.54E2,7.367091E-1,3.6160283E-2,-9.279289E-2,-4.0070485E-2,-9.067985E-2,-5.8781404E-2,4.2533852E-2,-4.8114743E-2,5.734647E-2,-7.524175E-2,-2.495656E-2,-7.030968E-2,3.868197E-2,-8.893988E-2,-2.4086855E-2,3.7353486E-2,-7.4882875E-3,1.1201324E-1,-1.6287062E-3,-2.500755E-2,-5.093343E-2,-4.2680535E-2,3.8156405E-2,9.3413875E-2,4.5160398E-2,5.663046E-2,1.3526501E-2,2.3493947E-2,6.339268E-2,-2.1806626E-2,2.0855743E-2,3.2833546E-2,1.0363405E-1,5.8952183E-2,-6.445389E-2,1.5903418E-1,8.423723E-2,1.7132902E-1,9.166838E-2,1.4471066E-1,1.10057525E-1,2.0975702E-1,7.545296E-2,1.8291603E-1,2.1861067E-1,-2.0683063E-2,8.9366324E-2,1.4323033E-1,-2.5216108E-2,2.0285983E-1,1.1587937E-1],"split_indices":[1,1,1,1,1,1,1,0,2,1,3,4,2,2,3,4,4,3,3,1,1,3,3,3,4,3,2,4,0,0,4,2,1,3,2,3,2,1,4,1,2,2,1,3,1,3,1,2,2,3,1,4,4,3,1,0,0,0,0,0,0,0,0,0,0,0,0,0,0,0,0,0,0,0,0,0,0,0,0,0,0,0,0,0,0,0,0,0,0,0,0,0,0,0,0,0,0,0,0,0,0,0,0,0,0],"split_type":[0,0,0,0,0,0,0,0,0,0,0,0,0,0,0,0,0,0,0,0,0,0,0,0,0,0,0,0,0,0,0,0,0,0,0,0,0,0,0,0,0,0,0,0,0,0,0,0,0,0,0,0,0,0,0,0,0,0,0,0,0,0,0,0,0,0,0,0,0,0,0,0,0,0,0,0,0,0,0,0,0,0,0,0,0,0,0,0,0,0,0,0,0,0,0,0,0,0,0,0,0,0,0,0,0],"sum_hessian":[2.6014104E3,1.803776E3,7.976343E2,3.7109335E2,1.4326826E3,3.7251285E2,4.2512146E2,2.1340213E2,1.5769122E2,9.9117E2,4.4151266E2,2.997954E2,7.271744E1,2.946717E2,1.3044977E2,1.12526985E2,4.5164234E1,4.655626E2,5.2560736E2,1.3272511E2,3.0878757E2,2.1500188E2,8.479352E1,2.0683006E1,5.2034435E1,9.570735E1,1.9896434E2,5.6715984E1,7.373379E1,4.8764305E1,6.3762684E1,3.4915226E1,1.0249008E1,3.8725104E2,7.831156E1,4.0915182E2,1.1645555E2,1.287984E2,3.9267216E0,2.5616946E2,5.2618084E1,1.2462975E2,9.037213E1,6.491533E1,1.987819E1,1.6742847E1,3.9401593E0,1.3417178E1,3.8617256E1,8.5340836E1,1.0366521E1,1.9511227E2,3.8520694E0,1.1575639E1,4.5140343E1,1.4619046E0,6.2300777E1,6.8617334E0,2.8053492E1,5.090148E0,5.1588597E0,3.8610037E2,1.1506692E0,7.073253E1,7.5790296E0,4.0772565E2,1.4261909E0,1.1168268E2,4.7728705E0,1.4279303E1,1.145191E2,2.3876448E0,1.5390768E0,9.7381325E1,1.5878815E2,2.2562061E1,3.0056023E1,8.5674194E1,3.895556E1,6.5216896E1,2.5155235E1,4.672489E1,1.8190434E1,1.4153822E1,5.724368E0,6.43767E0,1.0305177E1,1.2299349E0,2.7102244E0,8.40639E0,5.010788E0,1.6491188E0,3.6968136E1,6.3420677E1,2.1920158E1,8.382518E0,1.9840037E0,1.5731604E2,3.7796223E1,1.1387652E0,2.7133043E0,8.329604E0,3.2460344E0,3.9414158E1,5.7261877E0],"tree_param":{"num_deleted":"0","num_feature":"5","num_nodes":"105","size_leaf_vector":"1"}},{"base_weights":[-1.1111252E-2,-3.8202327E-1,1.9289562E0,-1.0691031E0,9.886223E-1,-1.0446718E0,2.1814566E0,-1.1667817E0,-3.4369534E-1,-7.389413E-1,2.0749683E0,-1.2668191E-1,3.684725E-3,1.608029E0,2.335644E0,-1.1785097E0,-3.9448237E-1,-1.2024484E-1,2.9777238E-1,-1.1988174E-1,9.150435E-1,1.3056649E0,2.5912251E0,-1.0447166E-1,1.8349089E-1,-1.21248856E-1,2.4525209E-1,1.2202992E0,2.4077728E-1,-1.18534364E-1,-8.591962E-1,-1.0947162E-1,3.0188915E-1,-1.1743305E-1,2.7950017E0,-8.69062E-1,2.734152E0,1.872409E0,2.6294463E0,-1.028897E0,2.3697093E-1,-1.1724484E-1,2.1424925E-1,8.049313E-2,2.8977796E-1,-1.2369601E-1,2.8975442E-2,1.706612E-1,2.8968635E-1,-9.738349E-2,2.644338E-1,1.7155044E-1,2.656209E-1,-3.32011E-2,-1.1218526E-1],"categories":[],"categories_nodes":[],"categories_segments":[],"categories_sizes":[],"default_left":[0,0,0,0,0,0,0,0,0,0,0,0,0,0,0,0,0,0,0,0,0,0,0,0,0,0,0,0,0,0,0,0,0,0,0,0,0,0,0,0,0,0,0,0,0,0,0,0,0,0,0,0,0,0,0],"id":4,"left_children":[1,3,5,7,9,11,13,15,17,19,21,-1,23,25,27,29,31,-1,-1,-1,33,35,37,-1,-1,-1,-1,39,-1,-1,41,-1,-1,-1,43,45,47,49,51,53,-1,-1,-1,-1,-1,-1,-1,-1,-1,-1,-1,-1,-1,-1,-1],"loss_changes":[1.8496346E3,2.033163E3,3.120371E2,1.0147632E2,1.354693E3,7.6819153E0,2.9893677E1,1.1008911E1,4.9430283E2,2.1338525E2,1.7252698E2,0E0,1.48972225E1,2.0271638E2,2.1013184E1,1.7033691E0,5.2188892E1,0E0,0E0,0E0,2.4400665E2,5.61202E2,2.3308105E0,0E0,0E0,0E0,0E0,5.4432167E1,0E0,0E0,3.0503714E1,0E0,0E0,0E0,4.326172E0,3.1085434E1,1.3248596E1,3.9495148E1,1.5148926E0,1.1331797E-1,0E0,0E0,0E0,0E0,0E0,0E0,0E0,0E0,0E0,0E0,0E0,0E0,0E0,0E0,0E0],"parents":[2147483647,0,0,1,1,2,2,3,3,4,4,5,5,6,6,7,7,8,8,9,9,10,10,12,12,13,13,14,14,15,15,16,16,20,20,21,21,22,22,27,27,30,30,34,34,35,35,36,36,37,37,38,38,39,39],"right_children":[2,4,6,8,10,12,14,16,18,20,22,-1,24,26,28,30,32,-1,-1,-1,34,36,38,-1,-1,-1,-1,40,-1,-1,42,-1,-1,-1,44,46,48,50,52,54,-1,-1,-1,-1,-1,-1,-1,-1,-1,-1,-1,-1,-1,-1,-1],"split_conditions":[6.357877E-1,6.156035E-1,3.8720417E-1,6.3552827E-1,4.9594304E-1,3.5034445E-1,7.249747E-1,6.0906243E-1,5.520974E-1,7.1618164E-1,6.708522E-1,-1.2668191E-1,8.388072E-1,5.520974E-1,4.6420446E-1,6.0577697E-1,5.797813E-1,-1.2024484E-1,2.9777238E-1,-1.1988174E-1,4.637523E-1,5.638985E-1,6.723715E-1,-1.0447166E-1,1.8349089E-1,-1.21248856E-1,2.4525209E-1,8.388072E-1,2.4077728E-1,-1.18534364E-1,5.8310395E-1,-1.0947162E-1,3.0188915E-1,-1.1743305E-1,7.1757984E-1,6.570198E-1,5.748124E-1,5.2344847E-1,5.14781E-1,4.59E0,2.3697093E-1,-1.1724484E-1,2.1424925E-1,8.049313E-2,2.8977796E-1,-1.2369601E-1,2.8975442E-2,1.706612E-1,2.8968635E-1,-9.738349E-2,2.644338E-1,1.7155044E-1,2.656209E-1,-3.32011E-2,-1.1218526E-1],"split_indices":[0,1,1,0,0,1,0,1,1,1,1,0,0,1,1,1,0,0,0,0,0,0,1,0,0,0,0,0,0,0,0,0,0,0,1,1,0,0,0,4,0,0,0,0,0,0,0,0,0,0,0,0,0,0,0],"split_type":[0,0,0,0,0,0,0,0,0,0,0,0,0,0,0,0,0,0,0,0,0,0,0,0,0,0,0,0,0,0,0,0,0,0,0,0,0,0,0,0,0,0,0,0,0,0,0,0,0,0,0,0,0,0,0],"sum_hessian":[2.5683613E3,2.1568137E3,4.115476E2,1.4367947E3,7.2001917E2,3.1965183E1,3.7958243E2,1.265749E3,1.7104567E2,2.780961E2,4.4192303E2,2.620413E1,5.761054E0,8.285844E1,2.9672397E2,1.2462968E3,1.9452215E1,1.3641385E2,3.4631832E1,2.178109E2,6.028522E1,1.788852E2,2.6303784E2,3.9367235E0,1.8243308E0,1.899184E1,6.38666E1,1.911179E1,2.7761218E2,1.2175273E3,2.8769413E1,1.6704641E1,2.7475736E0,2.8730104E1,3.1555117E1,7.1073944E1,1.0781126E2,1.58039875E1,2.4723384E2,6.4990745E0,1.2612716E1,2.6602604E1,2.1668086E0,1.9833622E0,2.9571754E1,5.3895805E1,1.7178135E1,1.63087E1,9.1502556E1,3.3159413E0,1.2488047E1,8.885784E0,2.3834805E2,1.3029087E0,5.1961656E0],"tree_param":{"num_deleted":"0","num_feature":"5","num_nodes":"55","size_leaf_vector":"1"}},{"base_weights":[-1.9688722E-2,-3.697716E-1,1.7036173E0,-1.0285623E0,1.18486494E-1,1.310494E0,1.8027542E0,-1.1495562E-1,-8.62997E-1,-8.6433315E-1,5.3687334E-1,7.264071E-1,1.4397025E-1,2.0480739E-1,1.631347E0,3.578937E-1,-9.009406E-1,-1.0447224E0,-4.4655305E-1,8.3646154E-1,3.9365923E-1,4.2043176E-1,1.3439392E-1,1.4275106E0,1.7474195E0,-6.950442E-2,5.7007986E-1,-1.1344085E-1,-7.6191986E-1,-1.0909561E0,-3.566728E-1,-7.421104E-1,4.731732E-1,7.6098543E-1,1.3931001E0,9.862533E-2,5.5920935E-1,8.836297E-1,-2.584791E-1,9.640817E-1,1.507388E0,1.5060877E0,1.8530278E-1,1.2040186E-1,-1.4051556E-2,1.0140447E-3,-8.600028E-2,-1.1097788E-1,2.7859194E-2,2.1840897E-3,-7.246843E-2,-7.991965E-2,1.6357724E-2,-3.9645262E-2,6.429342E-2,1.3814032E-1,7.0070855E-2,1.1061893E-1,1.6615365E-1,9.2110805E-2,-1.3663801E-2,8.7005414E-2,3.966539E-2,1.05549745E-1,4.8780683E-2,-6.619983E-2,3.356588E-2,1.2903363E-1,-9.535113E-3,1.7397839E-1,1.2399214E-1,1.5874559E-1,9.778736E-2],"categories":[],"categories_nodes":[],"categories_segments":[],"categories_sizes":[],"default_left":[0,0,0,0,0,0,0,0,0,0,0,0,0,0,0,0,0,0,0,0,0,0,0,0,0,0,0,0,0,0,0,0,0,0,0,0,0,0,0,0,0,0,0,0,0,0,0,0,0,0,0,0,0,0,0,0,0,0,0,0,0,0,0,0,0,0,0,0,0,0,0,0,0],"id":5,"left_children":[1,3,5,7,9,11,13,-1,15,17,19,21,-1,-1,23,25,27,29,31,33,35,37,-1,39,41,-1,43,-1,45,47,49,51,53,55,57,59,61,63,65,67,69,71,-1,-1,-1,-1,-1,-1,-1,-1,-1,-1,-1,-1,-1,-1,-1,-1,-1,-1,-1,-1,-1,-1,-1,-1,-1,-1,-1,-1,-1,-1,-1],"loss_changes":[1.5008591E3,6.6520435E2,1.40078125E1,1.6641113E1,4.8914325E2,5.614792E0,1.065271E1,0E0,1.7725433E1,2.6305084E1,3.5461884E1,2.8370743E0,0E0,0E0,2.256958E0,3.0860014E0,1.09704895E1,7.479706E0,2.9946714E1,1.0237564E1,2.7603577E1,4.4722095E0,0E0,1.446228E0,3.5668945E-1,0E0,4.930391E0,0E0,1.7546082E1,6.271759E0,2.3923326E0,4.410927E0,4.2539988E0,7.970093E0,5.422287E-1,3.9745953E1,1.7973091E1,4.624605E-2,1.7198539E0,5.062358E0,1.8853607E0,2.9294586E-1,0E0,0E0,0E0,0E0,0E0,0E0,0E0,0E0,0E0,0E0,0E0,0E0,0E0,0E0,0E0,0E0,0E0,0E0,0E0,0E0,0E0,0E0,0E0,0E0,0E0,0E0,0E0,0E0,0E0,0E0,0E0],"parents":[2147483647,0,0,1,1,2,2,3,3,4,4,5,5,6,6,8,8,9,9,10,10,11,11,14,14,15,15,16,16,17,17,18,18,19,19,20,20,21,21,23,23,24,24,26,26,28,28,29,29,30,30,31,31,32,32,33,33,34,34,35,35,36,36,37,37,38,38,39,39,40,40,41,41],"right_children":[2,4,6,8,10,12,14,-1,16,18,20,22,-1,-1,24,26,28,30,32,34,36,38,-1,40,42,-1,44,-1,46,48,50,52,54,56,58,60,62,64,66,68,70,72,-1,-1,-1,-1,-1,-1,-1,-1,-1,-1,-1,-1,-1,-1,-1,-1,-1,-1,-1,-1,-1,-1,-1,-1,-1,-1,-1,-1,-1,-1,-1],"split_conditions":[6.357877E-1,4.9594304E-1,7.249747E-1,4.712882E-1,2.7E1,1E0,2.3E1,-1.1495562E-1,3.71E0,5.8310395E-1,4.73E0,4.7E1,1.4397025E-1,2.0480739E-1,8.388072E-1,8.8E1,1.1E1,1E0,2.6E1,6.3552827E-1,5.3161705E-1,6E0,1.3439392E-1,1.25E2,1.4E1,-6.950442E-2,2.7E2,-1.1344085E-1,2E0,2.24E2,4.86E0,1E0,6.3552827E-1,7.9E1,1.6E1,3E0,5.797813E-1,4.81E0,2E1,1.04E2,4.81E0,3.63E2,1.8530278E-1,1.2040186E-1,-1.4051556E-2,1.0140447E-3,-8.600028E-2,-1.1097788E-1,2.7859194E-2,2.1840897E-3,-7.246843E-2,-7.991965E-2,1.6357724E-2,-3.9645262E-2,6.429342E-2,1.3814032E-1,7.0070855E-2,1.1061893E-1,1.6615365E-1,9.2110805E-2,-1.3663801E-2,8.7005414E-2,3.966539E-2,1.05549745E-1,4.8780683E-2,-6.619983E-2,3.356588E-2,1.2903363E-1,-9.535113E-3,1.7397839E-1,1.2399214E-1,1.5874559E-1,9.778736E-2],"split_indices":[0,0,0,0,3,3,3,0,4,0,4,2,0,0,0,3,3,3,2,0,0,2,0,3,2,0,3,0,2,2,4,3,0,3,2,2,0,4,2,3,4,3,0,0,0,0,0,0,0,0,0,0,0,0,0,0,0,0,0,0,0,0,0,0,0,0,0,0,0,0,0,0,0],"split_type":[0,0,0,0,0,0,0,0,0,0,0,0,0,0,0,0,0,0,0,0,0,0,0,0,0,0,0,0,0,0,0,0,0,0,0,0,0,0,0,0,0,0,0,0,0,0,0,0,0,0,0,0,0,0,0,0,0,0,0,0,0,0,0,0,0,0,0,0,0,0,0,0,0],"sum_hessian":[2.4857053E3,2.0666575E3,4.1904794E2,8.7923193E2,1.1874255E3,8.725614E1,3.317918E2,5.0455997E2,3.7467197E2,3.5423563E2,8.331899E2,1.7005377E1,7.025077E1,1.3196858E2,1.9982321E2,1.1039141E1,3.6363284E2,2.4636107E2,1.0787456E2,2.679103E2,5.6527954E2,1.2495112E1,4.5102644E0,7.732695E1,1.22496254E2,1.469812E0,9.569329E0,1.3304332E2,2.3058952E2,2.3030042E2,1.6060656E1,8.178559E1,2.6088972E1,2.380056E2,2.9904716E1,2.0375496E2,3.615246E2,7.248301E0,5.246811E0,1.329017E1,6.403678E1,4.1933205E1,8.056305E1,4.6904707E0,4.878858E0,2.6093222E1,2.0449629E2,2.2736526E2,2.935159E0,8.381065E0,7.67959E0,7.704685E1,4.738735E0,4.0429587E0,2.2046013E1,1.9135029E1,2.1887057E2,1.6930199E1,1.2974517E1,4.4670673E1,1.5908429E2,1.2264528E2,2.388793E2,3.8918533E0,3.3564477E0,3.0566301E0,2.1901808E0,9.994417E0,3.295752E0,3.1319386E1,3.2717396E1,3.459822E1,7.3349805E0],"tree_param":{"num_deleted":"0","num_feature":"5","num_nodes":"73","size_leaf_vector":"1"}},{"base_weights":[-2.8309043E-2,-5.7525855E-1,9.778788E-1,-1.0410286E0,1.3714818E0,-6.4358383E-1,1.7410841E0,-1.1479543E0,-3.1298196E-1,-1.0901864E0,1.6638386E0,-1.0918359E0,9.72492E-1,1.2442043E0,2.108162E0,-1.15779184E-1,-7.208315E-1,-1.1798163E-1,2.4295829E-1,-1.2763509E-1,-8.619932E-3,6.63741E-1,1.8559982E0,-1.1588929E-1,6.1642192E-2,-1.0492402E0,2.4543202E-1,-8.9765954E-1,2.1178854E0,2.167248E0,1.8298246E-1,-1.14511885E-1,2.0003055E-1,-9.92386E-2,1.4600168E-1,-1.2120702E-1,2.1086116E-1,9.629701E-1,1.938992E-1,-1.1271735E-1,2.0796405E-1,-1.1177691E-1,-5.89312E-1,-1.2140061E-1,1.16534956E-1,1.2018584E0,2.194156E0,1.6611623E0,2.2111332E-1,-1.0333216E-1,1.8928699E-1,2.4222214E-2,-8.911914E-2,-8.8820785E-2,2.4569838E-1,-1.3494228E-1,2.0617428E-1,2.351886E-1,1.9064698E-1,-1.0293522E-1,2.2024381E-1],"categories":[],"categories_nodes":[],"categories_segments":[],"categories_sizes":[],"default_left":[0,0,0,0,0,0,0,0,0,0,0,0,0,0,0,0,0,0,0,0,0,0,0,0,0,0,0,0,0,0,0,0,0,0,0,0,0,0,0,0,0,0,0,0,0,0,0,0,0,0,0,0,0,0,0,0,0,0,0,0,0],"id":6,"left_children":[1,3,5,7,9,11,13,15,17,19,21,23,25,27,29,-1,31,-1,-1,-1,33,35,37,-1,39,41,-1,43,45,47,-1,-1,-1,-1,-1,-1,-1,49,-1,-1,-1,-1,51,-1,53,55,57,59,-1,-1,-1,-1,-1,-1,-1,-1,-1,-1,-1,-1,-1],"loss_changes":[1.316869E3,1.4070093E3,1.0439358E3,9.706213E1,2.1751251E2,1.9696011E2,1.01933716E2,3.7486572E0,3.8712677E2,6.516838E0,5.032794E1,1.648294E1,1.8007831E2,4.622453E2,1.4327393E0,0E0,3.3702904E1,0E0,0E0,0E0,9.782044E0,1.239722E2,1.4771301E1,0E0,3.258756E1,1.5320206E-1,0E0,2.323381E1,9.591248E0,2.2200928E0,0E0,0E0,0E0,0E0,0E0,0E0,0E0,4.108033E1,0E0,0E0,0E0,0E0,1.5853595E0,0E0,4.456924E1,3.7146286E1,2.7929077E0,3.895707E1,0E0,0E0,0E0,0E0,0E0,0E0,0E0,0E0,0E0,0E0,0E0,0E0,0E0],"parents":[2147483647,0,0,1,1,2,2,3,3,4,4,5,5,6,6,7,7,8,8,9,9,10,10,11,11,12,12,13,13,14,14,16,16,20,20,21,21,22,22,24,24,25,25,27,27,28,28,29,29,37,37,42,42,44,44,45,45,46,46,47,47],"right_children":[2,4,6,8,10,12,14,16,18,20,22,24,26,28,30,-1,32,-1,-1,-1,34,36,38,-1,40,42,-1,44,46,48,-1,-1,-1,-1,-1,-1,-1,50,-1,-1,-1,-1,52,-1,54,56,58,60,-1,-1,-1,-1,-1,-1,-1,-1,-1,-1,-1,-1,-1],"split_conditions":[6.0906243E-1,6.357877E-1,5.14781E-1,6.3552827E-1,3.8720417E-1,7.1618164E-1,6.708522E-1,6.0577697E-1,5.520974E-1,3.5034445E-1,7.249747E-1,4.9594304E-1,4.712882E-1,5.638985E-1,6.357877E-1,-1.15779184E-1,5.8310395E-1,-1.1798163E-1,2.4295829E-1,-1.2763509E-1,8.388072E-1,5.520974E-1,4.6420446E-1,-1.1588929E-1,6.9031626E-1,4.488382E-1,2.4543202E-1,6.570198E-1,5.748124E-1,6.753994E-1,1.8298246E-1,-1.14511885E-1,2.0003055E-1,-9.92386E-2,1.4600168E-1,-1.2120702E-1,2.1086116E-1,8.388072E-1,1.938992E-1,-1.1271735E-1,2.0796405E-1,-1.1177691E-1,4E0,-1.2140061E-1,5.3161705E-1,6.269493E-1,6.357877E-1,5.2344847E-1,2.2111332E-1,-1.0333216E-1,1.8928699E-1,2.4222214E-2,-8.911914E-2,-8.8820785E-2,2.4569838E-1,-1.3494228E-1,2.0617428E-1,2.351886E-1,1.9064698E-1,-1.0293522E-1,2.2024381E-1],"split_indices":[1,0,0,0,1,1,1,1,1,1,0,0,0,0,0,0,0,0,0,0,0,1,1,0,1,0,0,1,0,1,0,0,0,0,0,0,0,0,0,0,0,0,2,0,0,1,0,0,0,0,0,0,0,0,0,0,0,0,0,0,0],"split_type":[0,0,0,0,0,0,0,0,0,0,0,0,0,0,0,0,0,0,0,0,0,0,0,0,0,0,0,0,0,0,0,0,0,0,0,0,0,0,0,0,0,0,0,0,0,0,0,0,0,0,0,0,0,0,0,0,0,0,0,0,0],"sum_hessian":[2.3908325E3,1.5491595E3,8.4167303E2,1.2504473E3,2.9871228E2,2.694249E2,5.722481E2,1.0898134E3,1.6063393E2,3.1420467E1,2.672918E2,2.1117542E2,5.824948E1,2.4500153E2,3.2724658E2,1.0636058E3,2.6207556E1,1.22489E2,3.814492E1,2.6652765E1,4.7677007E0,4.379807E1,2.2349374E2,1.9956888E2,1.160654E1,2.4760044E1,3.3489437E1,7.09753E1,1.7402623E2,2.6434473E2,6.290185E1,2.3173462E1,3.0340948E0,3.049365E0,1.7183356E0,1.91272E1,2.4670872E1,2.0075962E1,2.0341779E2,7.5816064E0,4.0249333E0,2.0304394E1,4.4556494E0,5.3950195E1,1.7025108E1,1.4664151E1,1.5936208E2,2.4193792E1,2.4015094E2,6.344496E0,1.3731466E1,1.2393762E0,3.216273E0,1.2345671E1,4.6794367E0,3.5530188E0,1.1111132E1,9.82947E1,6.1067375E1,3.90107E0,2.0292723E1],"tree_param":{"num_deleted":"0","num_feature":"5","num_nodes":"61","size_leaf_vector":"1"}},{"base_weights":[-1.5956132E-2,-3.3033103E-1,1.4080975E0,-9.731809E-1,9.661431E-2,1.1261859E0,1.4803163E0,-1.1162956E-1,-7.902147E-1,-8.101452E-1,4.4212034E-1,6.4790386E-1,1.2444147E0,1.6850503E-1,1.3219135E0,-1.101258E-1,-6.286915E-1,-9.9479324E-1,-4.042284E-1,3.3452326E-1,7.770521E-1,4.1341516E-1,1.1322557E-1,1.1358032E0,1.5081604E0,1.3562449E0,1.0179806E0,-9.591769E-2,-8.64805E-1,-1.0389581E0,-4.0147236E-1,-6.809865E-1,3.839513E-1,5.587684E-1,2.2139569E-1,8.923541E-1,4.8912778E-1,7.535296E-1,-3.21262E-1,1.2165204E0,8.057436E-1,1.5811017E-1,5.555701E-2,1.1906971E0,1.4553456E-1,1.2727247E-1,7.531713E-1,3.717826E-2,-3.290102E-2,-5.9668805E-2,-9.499044E-2,-1.0549345E-1,6.8072125E-4,-1.8325629E-2,-7.1023494E-2,-7.5692475E-2,1.9176744E-2,-3.020507E-3,6.755707E-2,9.2898674E-2,4.697637E-2,3.8808208E-2,-3.8158235E-3,9.992399E-2,5.575183E-2,7.083816E-2,-3.8541952E-4,4.4822633E-2,8.9458525E-2,-7.360553E-2,7.82306E-3,4.1014206E-2,1.2615488E-1,-6.421816E-2,9.742847E-2,7.783257E-2,1.2506738E-1,1.3235166E-2,1.0127913E-1],"categories":[],"categories_nodes":[],"categories_segments":[],"categories_sizes":[],"default_left":[0,0,0,0,0,0,0,0,0,0,0,0,0,0,0,0,0,0,0,0,0,0,0,0,0,0,0,0,0,0,0,0,0,0,0,0,0,0,0,0,0,0,0,0,0,0,0,0,0,0,0,0,0,0,0,0,0,0,0,0,0,0,0,0,0,0,0,0,0,0,0,0,0,0,0,0,0,0,0],"id":7,"left_children":[1,3,5,7,9,11,13,-1,15,17,19,21,23,-1,25,-1,27,29,31,33,35,37,-1,39,41,43,45,47,49,51,53,55,57,59,61,63,65,67,69,71,73,-1,-1,75,-1,-1,77,-1,-1,-1,-1,-1,-1,-1,-1,-1,-1,-1,-1,-1,-1,-1,-1,-1,-1,-1,-1,-1,-1,-1,-1,-1,-1,-1,-1,-1,-1,-1,-1],"loss_changes":[1.0244414E3,5.145577E2,6.7578125E0,1.8708618E1,3.535252E2,4.2021027E0,8.352844E0,0E0,1.5976883E1,2.2936005E1,2.9179459E1,1.7626219E0,2.9022217E-1,0E0,5.8703613E-1,0E0,2.7681664E1,5.1730957E0,2.1865614E1,1.5605621E1,6.1323853E0,3.9424832E0,0E0,4.473114E-1,3.2692337E-1,9.9746704E-1,6.0297775E-1,7.6338725E0,2.9198227E0,3.3140717E0,9.75471E-1,5.0271263E0,3.2062619E0,6.3928833E0,1.7916794E1,4.45607E0,6.357559E0,4.783058E-2,9.503067E-1,9.746399E-1,3.917798E0,0E0,0E0,7.039261E-1,0E0,0E0,2.090139E0,0E0,0E0,0E0,0E0,0E0,0E0,0E0,0E0,0E0,0E0,0E0,0E0,0E0,0E0,0E0,0E0,0E0,0E0,0E0,0E0,0E0,0E0,0E0,0E0,0E0,0E0,0E0,0E0,0E0,0E0,0E0,0E0],"parents":[2147483647,0,0,1,1,2,2,3,3,4,4,5,5,6,6,8,8,9,9,10,10,11,11,12,12,14,14,16,16,17,17,18,18,19,19,20,20,21,21,23,23,24,24,25,25,26,26,27,27,28,28,29,29,30,30,31,31,32,32,33,33,34,34,35,35,36,36,37,37,38,38,39,39,40,40,43,43,46,46],"right_children":[2,4,6,8,10,12,14,-1,16,18,20,22,24,-1,26,-1,28,30,32,34,36,38,-1,40,42,44,46,48,50,52,54,56,58,60,62,64,66,68,70,72,74,-1,-1,76,-1,-1,78,-1,-1,-1,-1,-1,-1,-1,-1,-1,-1,-1,-1,-1,-1,-1,-1,-1,-1,-1,-1,-1,-1,-1,-1,-1,-1,-1,-1,-1,-1,-1,-1],"split_conditions":[6.357877E-1,4.9594304E-1,7.249747E-1,4.712882E-1,2.9E1,8E0,5.2E1,-1.1162956E-1,1.1E1,5.8310395E-1,5.8310395E-1,4.7E1,6E1,1.6850503E-1,3.64E2,-1.101258E-1,6E0,1E0,2.6E1,4.73E0,4.96E0,6E0,1.1322557E-1,3.47E2,4.95E0,8.388072E-1,4.73E0,4.51E0,1.8E1,2.24E2,4.91E0,1E0,5.3E1,1.2E2,3.1E1,3.56E2,9E0,2E0,4.75E0,4.34E0,3.58E2,1.5811017E-1,5.555701E-2,1.2E2,1.4553456E-1,1.2727247E-1,3.65E2,3.717826E-2,-3.290102E-2,-5.9668805E-2,-9.499044E-2,-1.0549345E-1,6.8072125E-4,-1.8325629E-2,-7.1023494E-2,-7.5692475E-2,1.9176744E-2,-3.020507E-3,6.755707E-2,9.2898674E-2,4.697637E-2,3.8808208E-2,-3.8158235E-3,9.992399E-2,5.575183E-2,7.083816E-2,-3.8541952E-4,4.4822633E-2,8.9458525E-2,-7.360553E-2,7.82306E-3,4.1014206E-2,1.2615488E-1,-6.421816E-2,9.742847E-2,7.783257E-2,1.2506738E-1,1.3235166E-2,1.0127913E-1],"split_indices":[0,0,0,0,3,3,3,0,3,0,0,2,2,0,3,0,2,3,2,4,4,2,0,3,4,0,4,4,2,2,4,3,2,3,2,3,2,2,4,4,3,0,0,3,0,0,3,0,0,0,0,0,0,0,0,0,0,0,0,0,0,0,0,0,0,0,0,0,0,0,0,0,0,0,0,0,0,0,0],"split_type":[0,0,0,0,0,0,0,0,0,0,0,0,0,0,0,0,0,0,0,0,0,0,0,0,0,0,0,0,0,0,0,0,0,0,0,0,0,0,0,0,0,0,0,0,0,0,0,0,0,0,0,0,0,0,0,0,0,0,0,0,0,0,0,0,0,0,0,0,0,0,0,0,0,0,0,0,0,0,0],"sum_hessian":[2.2862605E3,1.8734457E3,4.128149E2,7.471642E2,1.1262815E3,8.757052E1,3.252444E2,4.1637662E2,3.307876E2,3.103754E2,8.159061E2,1.8640877E1,6.892964E1,1.3766982E2,1.8757457E2,1.110746E2,2.1971301E2,2.123352E2,9.804019E1,6.190384E2,1.9686774E2,1.3809057E1,4.8318195E0,5.2582436E1,1.6347202E1,1.654262E2,2.2148375E1,6.790232E1,1.5181068E2,1.9692566E2,1.54095545E1,7.266197E1,2.5378222E1,2.0625461E2,4.1278375E2,1.3907472E2,5.7793022E1,9.421684E0,4.3873734E0,4.009204E1,1.2490397E1,1.4571638E1,1.7755635E0,6.68194E1,9.86068E1,9.348757E0,1.2799618E1,2.2387262E1,4.5515057E1,3.850553E1,1.1330515E2,1.9395378E2,2.971864E0,9.962287E0,5.4472675E0,6.696783E1,5.6941466E0,1.0856415E1,1.4521806E1,3.8146282E1,1.6810832E2,2.5105817E2,1.6172559E2,1.0391791E2,3.5156815E1,3.969966E1,1.809336E1,4.297581E0,5.1241026E0,1.7391442E0,2.6482294E0,2.654964E0,3.7437077E1,1.0093036E0,1.1481093E1,1.0259187E1,5.6560207E1,4.219491E0,8.580127E0],"tree_param":{"num_deleted":"0","num_feature":"5","num_nodes":"79","size_leaf_vector":"1"}},{"base_weights":[-2.4066119E-2,-5.7133734E-1,9.214814E-1,-1.0228189E0,1.1459141E0,-5.4646194E-1,1.533323E0,-1.1306342E0,-3.328592E-1,-1.0649273E0,1.4314582E0,-1.0422952E0,1.0007037E0,1.0862881E0,1.8488106E0,-1.1368426E-1,-8.008995E-1,-1.1619558E-1,2.0690954E-1,-1.272698E-1,-6.9493756E-2,5.604833E-1,1.5919901E0,-1.1285263E-1,1.1938821E-1,-9.9896276E-1,2.1711484E-1,-8.5917956E-1,1.8223593E0,1.5251949E0,1.8852465E0,-1.11381605E-1,1.4864704E-1,-1.0477088E-1,1.3609035E-1,-1.1898985E-1,1.804129E-1,7.536726E-1,1.6649751E-1,-1.1188816E-1,1.8795745E-1,-1.0749159E-1,-5.5916774E-1,-1.191579E-1,1.927381E-1,1.0832137E0,1.8864626E0,-8.765065E-1,1.880877E-1,1.9411184E-1,1.5968835E-1,-1.0225215E-1,1.6069245E-1,-8.675711E-2,2.7437855E-2,-6.745737E-2,2.077883E-1,-1.2865187E-1,1.8320122E-1,2.0011659E-1,1.6492635E-1,-9.9696316E-2,-1.6037252E-2],"categories":[],"categories_nodes":[],"categories_segments":[],"categories_sizes":[],"default_left":[0,0,0,0,0,0,0,0,0,0,0,0,0,0,0,0,0,0,0,0,0,0,0,0,0,0,0,0,0,0,0,0,0,0,0,0,0,0,0,0,0,0,0,0,0,0,0,0,0,0,0,0,0,0,0,0,0,0,0,0,0,0,0],"id":8,"left_children":[1,3,5,7,9,11,13,15,17,19,21,23,25,27,29,-1,31,-1,-1,-1,33,35,37,-1,39,41,-1,43,45,47,49,-1,-1,-1,-1,-1,-1,51,-1,-1,-1,-1,53,-1,55,57,59,61,-1,-1,-1,-1,-1,-1,-1,-1,-1,-1,-1,-1,-1,-1,-1],"loss_changes":[1.1443177E3,1.0871035E3,7.2896924E2,8.2164185E1,1.8589645E2,1.8456795E2,7.872925E1,1.0532227E0,3.0385632E2,6.9392624E0,3.5331482E1,1.8332413E1,1.3925638E2,3.4421375E2,1.0650635E0,0E0,1.6765923E1,0E0,0E0,0E0,1.1116072E1,9.327611E1,1.2096436E1,0E0,3.1434141E1,1.4419174E-1,0E0,2.3433113E1,6.1970825E0,3.5010895E1,1.6713867E0,0E0,0E0,0E0,0E0,0E0,0E0,3.0898182E1,0E0,0E0,0E0,0E0,1.618446E0,0E0,2.8861902E1,3.1152853E1,1.0170898E0,3.3353186E-1,0E0,0E0,0E0,0E0,0E0,0E0,0E0,0E0,0E0,0E0,0E0,0E0,0E0,0E0,0E0],"parents":[2147483647,0,0,1,1,2,2,3,3,4,4,5,5,6,6,7,7,8,8,9,9,10,10,11,11,12,12,13,13,14,14,16,16,20,20,21,21,22,22,24,24,25,25,27,27,28,28,29,29,30,30,37,37,42,42,44,44,45,45,46,46,47,47],"right_children":[2,4,6,8,10,12,14,16,18,20,22,24,26,28,30,-1,32,-1,-1,-1,34,36,38,-1,40,42,-1,44,46,48,50,-1,-1,-1,-1,-1,-1,52,-1,-1,-1,-1,54,-1,56,58,60,62,-1,-1,-1,-1,-1,-1,-1,-1,-1,-1,-1,-1,-1,-1,-1],"split_conditions":[6.0906243E-1,6.357877E-1,5.14781E-1,6.3552827E-1,3.8720417E-1,7.1618164E-1,6.693292E-1,6.074209E-1,5.520974E-1,3.5034445E-1,7.249747E-1,4.9594304E-1,4.712882E-1,5.638985E-1,6.753994E-1,-1.1368426E-1,5.8310395E-1,-1.1619558E-1,2.0690954E-1,-1.272698E-1,8.388072E-1,5.520974E-1,4.6420446E-1,-1.1285263E-1,6.9031626E-1,4.488382E-1,2.1711484E-1,6.570198E-1,5.748124E-1,5.2344847E-1,6.357877E-1,-1.11381605E-1,1.4864704E-1,-1.0477088E-1,1.3609035E-1,-1.1898985E-1,1.804129E-1,8.388072E-1,1.6649751E-1,-1.1188816E-1,1.8795745E-1,-1.0749159E-1,7.286136E-1,-1.191579E-1,5.3161705E-1,6.269493E-1,6.357877E-1,4.99E0,1.880877E-1,1.9411184E-1,1.5968835E-1,-1.0225215E-1,1.6069245E-1,-8.675711E-2,2.7437855E-2,-6.745737E-2,2.077883E-1,-1.2865187E-1,1.8320122E-1,2.0011659E-1,1.6492635E-1,-9.9696316E-2,-1.6037252E-2],"split_indices":[1,0,0,0,1,1,1,1,1,1,0,0,0,0,1,0,0,0,0,0,0,1,1,0,1,0,0,1,0,0,0,0,0,0,0,0,0,0,0,0,0,0,1,0,0,1,0,4,0,0,0,0,0,0,0,0,0,0,0,0,0,0,0],"split_type":[0,0,0,0,0,0,0,0,0,0,0,0,0,0,0,0,0,0,0,0,0,0,0,0,0,0,0,0,0,0,0,0,0,0,0,0,0,0,0,0,0,0,0,0,0,0,0,0,0,0,0,0,0,0,0,0,0,0,0,0,0,0,0],"sum_hessian":[2.2093489E3,1.3996465E3,8.0970233E2,1.1085917E3,2.910548E2,2.3823378E2,5.7146857E2,9.582186E2,1.5037302E2,3.2979527E1,2.580753E2,1.8066185E2,5.7571922E1,2.3827884E2,3.3318973E2,9.3810767E2,2.011093E1,1.1217066E2,3.8202354E1,2.7054148E1,5.92538E0,4.086286E1,2.1721242E2,1.6820465E2,1.24572E1,2.1310364E1,3.6261555E1,6.536064E1,1.729182E2,3.8054832E1,2.951349E2,1.8142113E1,1.968817E0,3.6777759E0,2.2476044E0,1.6991383E1,2.3871477E1,1.8303381E1,1.9890903E2,7.526639E0,4.930561E0,1.6940577E1,4.3697877E0,4.956549E1,1.5795153E1,1.5228071E1,1.5769012E2,4.71991E0,3.3334923E1,2.4243106E2,5.270384E1,5.8750496E0,1.2428331E1,3.1598554E0,1.2099323E0,1.1257842E1,4.5373106E0,3.4840243E0,1.1744047E1,1.01278046E2,5.6412086E1,3.7046301E0,1.01528E0],"tree_param":{"num_deleted":"0","num_feature":"5","num_nodes":"63","size_leaf_vector":"1"}},{"base_weights":[-2.9768119E-2,-5.4620373E-1,8.628122E-1,-9.83421E-1,1.0892723E0,-5.350245E-1,1.42259E0,-1.0993959E0,-2.642315E-1,-1.2046094E0,1.3196552E0,-1.0263942E0,8.7515235E-1,1.0040282E0,1.7053016E0,-1.1219539E-1,-5.7977533E-1,-1.14217E-1,1.862308E-1,-1.2327949E-1,-3.0744037E-2,4.9072137E-1,1.4857252E0,-1.11367874E-1,7.458244E-2,-1.06974356E-1,1.8907114E0,-7.8847647E-1,1.6969746E0,1.4032229E0,1.7338526E-1,-1.0934074E-1,1.13371E0,-1.1744874E-1,1.6622026E-1,7.4048966E-1,1.5606414E-1,-1.0873335E-1,1.6990271E-1,5.360485E-1,1.9972754E-1,-1.16648674E-1,1.7116882E-1,1.2317929E0,1.7357896E-1,-7.8927684E-1,1.7202727E-1,5.3667713E-2,1.7822756E-1,-1.1189214E-1,1.5531296E-1,-9.415012E-2,1.8263213E-1,-6.310058E-2,1.8641786E-1,-1.1153815E-1,1.6822061E-1,-8.9115046E-2,-2.350417E-2],"categories":[],"categories_nodes":[],"categories_segments":[],"categories_sizes":[],"default_left":[0,0,0,0,0,0,0,0,0,0,0,0,0,0,0,0,0,0,0,0,0,0,0,0,0,0,0,0,0,0,0,0,0,0,0,0,0,0,0,0,0,0,0,0,0,0,0,0,0,0,0,0,0,0,0,0,0,0,0],"id":9,"left_children":[1,3,5,7,9,11,13,15,17,19,21,23,25,27,29,-1,31,-1,-1,-1,-1,33,35,-1,37,-1,39,41,43,45,-1,-1,47,-1,-1,49,-1,-1,-1,51,-1,-1,53,55,-1,57,-1,-1,-1,-1,-1,-1,-1,-1,-1,-1,-1,-1,-1],"loss_changes":[9.5477E2,9.3927344E2,5.9480035E2,8.61051E1,1.4810477E2,1.5182446E2,6.246692E1,9.801392E0,2.7312778E2,2.7405548E-1,3.401895E1,1.5649887E1,1.14258224E2,2.7594434E2,3.4661865E-1,0E0,3.5711388E1,0E0,0E0,0E0,0E0,8.704949E1,1.055722E1,0E0,2.6075373E1,0E0,4.370514E0,2.2806705E1,7.465515E-1,2.4348854E1,0E0,0E0,2.7313747E0,0E0,0E0,3.3569855E1,0E0,0E0,0E0,9.565733E0,0E0,0E0,2.627818E1,1.8524942E1,0E0,6.517506E-2,0E0,0E0,0E0,0E0,0E0,0E0,0E0,0E0,0E0,0E0,0E0,0E0,0E0],"parents":[2147483647,0,0,1,1,2,2,3,3,4,4,5,5,6,6,7,7,8,8,9,9,10,10,11,11,12,12,13,13,14,14,16,16,21,21,22,22,24,24,26,26,27,27,28,28,29,29,32,32,35,35,39,39,42,42,43,43,45,45],"right_children":[2,4,6,8,10,12,14,16,18,20,22,24,26,28,30,-1,32,-1,-1,-1,-1,34,36,-1,38,-1,40,42,44,46,-1,-1,48,-1,-1,50,-1,-1,-1,52,-1,-1,54,56,-1,58,-1,-1,-1,-1,-1,-1,-1,-1,-1,-1,-1,-1,-1],"split_conditions":[6.156035E-1,6.357877E-1,5.14781E-1,6.3552827E-1,3.6298913E-1,7.1618164E-1,6.708522E-1,6.0577697E-1,5.520974E-1,3.5034445E-1,7.249747E-1,4.9594304E-1,4.637523E-1,5.638985E-1,6.753994E-1,-1.1219539E-1,5.797813E-1,-1.14217E-1,1.862308E-1,-1.2327949E-1,-3.0744037E-2,5.520974E-1,4.5937604E-1,-1.11367874E-1,6.9031626E-1,-1.06974356E-1,7.1757984E-1,6.570198E-1,5.748124E-1,5.2344847E-1,1.7338526E-1,-1.0934074E-1,6.0906243E-1,-1.1744874E-1,1.6622026E-1,8.388072E-1,1.5606414E-1,-1.0873335E-1,1.6990271E-1,4.725168E-1,1.9972754E-1,-1.16648674E-1,5.3161705E-1,6.269493E-1,1.7357896E-1,6.723715E-1,1.7202727E-1,5.3667713E-2,1.7822756E-1,-1.1189214E-1,1.5531296E-1,-9.415012E-2,1.8263213E-1,-6.310058E-2,1.8641786E-1,-1.1153815E-1,1.6822061E-1,-8.9115046E-2,-2.350417E-2],"split_indices":[1,0,0,0,1,1,1,1,1,1,0,0,0,0,1,0,0,0,0,0,0,1,1,0,1,0,1,1,0,0,0,0,1,0,0,0,0,0,0,0,0,0,0,1,0,1,0,0,0,0,0,0,0,0,0,0,0,0,0],"split_type":[0,0,0,0,0,0,0,0,0,0,0,0,0,0,0,0,0,0,0,0,0,0,0,0,0,0,0,0,0,0,0,0,0,0,0,0,0,0,0,0,0,0,0,0,0,0,0,0,0,0,0,0,0,0,0,0,0,0,0],"sum_hessian":[2.0692407E3,1.3110638E3,7.5817676E2,1.0348206E3,2.7624335E2,2.1681248E2,5.4136426E2,8.906652E2,1.441553E2,2.4826056E1,2.514173E2,1.6098883E2,5.5823666E1,2.200806E2,3.212837E2,8.524972E2,3.8167976E1,1.02359314E2,4.179599E1,2.3707176E1,1.1188799E0,4.2622597E1,2.0879471E2,1.491526E2,1.1836225E1,1.9131533E1,3.669213E1,6.132027E1,1.5876033E2,3.207445E1,2.8920923E2,2.9643856E1,8.524121E0,1.7600996E1,2.5021603E1,2.006642E1,1.8872829E2,7.093268E0,4.742956E0,3.1156502E0,3.357648E1,4.3837044E1,1.7483225E1,1.47478895E1,1.4401244E2,3.8640287E0,2.8210424E1,5.3899345E0,3.134187E0,5.9880934E0,1.4078326E1,1.5784289E0,1.5372213E0,1.228818E1,5.195045E0,2.136725E0,1.2611164E1,2.7505581E0,1.1134707E0],"tree_param":{"num_deleted":"0","num_feature":"5","num_nodes":"59","size_leaf_vector":"1"}},{"base_weights":[-2.6366316E-2,-5.454458E-1,8.0521053E-1,-9.7316647E-1,-4.285661E-1,3.9465183E-1,1.1433425E0,-1.1363435E-1,-7.680501E-1,-5.498436E-1,-1.7773503E-1,3.6061996E-1,7.122873E-1,1.045935E0,1.3145742E0,-8.6032283E-1,-3.9059642E-1,-4.222653E-1,-6.4171624E-1,1.7211221E-1,-2.878479E-1,4.2709717E-1,1.9873583E-1,3.0756262E-1,8.009954E-1,1.1069553E0,8.353703E-1,8.3758247E-1,1.3690075E-1,-9.821884E-2,-7.5276625E-1,-6.458582E-1,1.1022011E-1,-3.9921165E-1,-9.227932E-2,-6.228802E-1,-8.0639744E-1,3.558304E-1,-2.3764152E-2,-4.585093E-1,-2.3660465E-1,4.856879E-1,2.9171288E-1,9.964831E-2,4.7326973E-1,4.921284E-1,-1.2713777E-2,9.6190834E-1,5.2887636E-1,9.508534E-1,1.1427367E-1,6.858418E-1,1.082403E0,1.1065098E0,2.777261E-1,1.6601048E-2,-7.7797905E-2,-7.584964E-2,1.6215168E-2,-2.2171404E-2,2.8748954E-2,-4.109926E-2,-1.0647603E-2,-6.3558124E-2,-2.0513343E-2,-8.459274E-2,-1.020427E-3,3.947215E-2,-4.0459927E-2,-5.1541872E-2,4.479741E-3,-7.226465E-2,-3.631925E-2,-1.05986735E-2,-3.2058578E-2,3.9855897E-2,5.8681842E-2,2.200318E-2,7.6772906E-2,-4.9597837E-2,1.5216817E-2,9.5120445E-2,2.5417319E-2,8.142847E-3,6.616548E-2,1.0240644E-1,3.778195E-2,2.9969418E-2,6.81997E-2,1.0221858E-1,5.446703E-2,7.978057E-2,4.461744E-2,1.1099922E-1,3.6958274E-2,3.344179E-2,1.1673768E-1,5.8893926E-2,4.273627E-4],"categories":[],"categories_nodes":[],"categories_segments":[],"categories_sizes":[],"default_left":[0,0,0,0,0,0,0,0,0,0,0,0,0,0,0,0,0,0,0,0,0,0,0,0,0,0,0,0,0,0,0,0,0,0,0,0,0,0,0,0,0,0,0,0,0,0,0,0,0,0,0,0,0,0,0,0,0,0,0,0,0,0,0,0,0,0,0,0,0,0,0,0,0,0,0,0,0,0,0,0,0,0,0,0,0,0,0,0,0,0,0,0,0,0,0,0,0,0,0],"id":10,"left_children":[1,3,5,7,9,11,13,-1,15,17,19,21,23,25,27,29,31,33,35,37,39,41,43,45,47,49,51,53,-1,-1,55,57,59,61,-1,63,65,67,69,71,73,75,77,79,81,83,-1,85,87,89,-1,91,93,95,97,-1,-1,-1,-1,-1,-1,-1,-1,-1,-1,-1,-1,-1,-1,-1,-1,-1,-1,-1,-1,-1,-1,-1,-1,-1,-1,-1,-1,-1,-1,-1,-1,-1,-1,-1,-1,-1,-1,-1,-1,-1,-1,-1,-1],"loss_changes":[8.363565E2,5.9217896E1,1.0292319E2,7.6697235E0,2.8456696E1,3.3950233E0,5.427063E0,0E0,3.7099E0,7.1397095E0,1.1891715E1,3.2207222E0,8.9058876E-1,2.478119E0,2.5916443E0,4.732895E-1,3.2225873E0,2.7196503E0,6.3191223E-1,2.6792743E0,1.9395599E0,1.5786552E0,2.4361353E0,6.4957273E-1,6.013355E-1,4.3151855E-2,1.6061859E0,2.3009539E0,0E0,0E0,1.3667126E0,1.6223764E0,6.0371995E-1,8.4461975E-1,0E0,1.6338196E0,1.0657101E0,1.2941694E0,1.2655182E0,1.072257E0,1.9643869E0,1.0866432E0,2.1517558E0,2.2134354E0,2.2654576E0,3.1799793E-1,0E0,1.471119E-1,2.0414805E-1,7.085724E-1,0E0,7.800808E-1,2.7223587E-2,1.4381218E-1,5.8948284E-1,0E0,0E0,0E0,0E0,0E0,0E0,0E0,0E0,0E0,0E0,0E0,0E0,0E0,0E0,0E0,0E0,0E0,0E0,0E0,0E0,0E0,0E0,0E0,0E0,0E0,0E0,0E0,0E0,0E0,0E0,0E0,0E0,0E0,0E0,0E0,0E0,0E0,0E0,0E0,0E0,0E0,0E0,0E0,0E0],"parents":[2147483647,0,0,1,1,2,2,3,3,4,4,5,5,6,6,8,8,9,9,10,10,11,11,12,12,13,13,14,14,15,15,16,16,17,17,18,18,19,19,20,20,21,21,22,22,23,23,24,24,25,25,26,26,27,27,30,30,31,31,32,32,33,33,35,35,36,36,37,37,38,38,39,39,40,40,41,41,42,42,43,43,44,44,45,45,47,47,48,48,49,49,51,51,52,52,53,53,54,54],"right_children":[2,4,6,8,10,12,14,-1,16,18,20,22,24,26,28,30,32,34,36,38,40,42,44,46,48,50,52,54,-1,-1,56,58,60,62,-1,64,66,68,70,72,74,76,78,80,82,84,-1,86,88,90,-1,92,94,96,98,-1,-1,-1,-1,-1,-1,-1,-1,-1,-1,-1,-1,-1,-1,-1,-1,-1,-1,-1,-1,-1,-1,-1,-1,-1,-1,-1,-1,-1,-1,-1,-1,-1,-1,-1,-1,-1,-1,-1,-1,-1,-1,-1,-1],"split_conditions":[6.0906243E-1,4.6420446E-1,6.723715E-1,3.5034445E-1,5.520974E-1,6.693292E-1,7.1618164E-1,-1.1363435E-1,7.7E1,4.8684514E-1,2E0,4.93E0,6E0,7.062783E-1,5.8E1,4.84E0,4.94E0,3.63E2,3.63E2,3.9E1,4.63E0,3.34E2,6.554657E-1,4E0,3.6E1,4E0,7.1477926E-1,5.4E1,1.3690075E-1,-9.821884E-2,4.86E0,2.91E2,1.72E2,2.75E2,-9.227932E-2,3.53E2,2.13E2,5.991775E-1,4.9E1,1.79E2,1.79E2,1.87E2,1.64E2,6E1,9.6E1,2.29E2,-1.2713777E-2,3.65E2,8E1,3E0,1.1427367E-1,7.1054727E-1,9.8E1,7.2174925E-1,7.299736E-1,1.6601048E-2,-7.7797905E-2,-7.584964E-2,1.6215168E-2,-2.2171404E-2,2.8748954E-2,-4.109926E-2,-1.0647603E-2,-6.3558124E-2,-2.0513343E-2,-8.459274E-2,-1.020427E-3,3.947215E-2,-4.0459927E-2,-5.1541872E-2,4.479741E-3,-7.226465E-2,-3.631925E-2,-1.05986735E-2,-3.2058578E-2,3.9855897E-2,5.8681842E-2,2.200318E-2,7.6772906E-2,-4.9597837E-2,1.5216817E-2,9.5120445E-2,2.5417319E-2,8.142847E-3,6.616548E-2,1.0240644E-1,3.778195E-2,2.9969418E-2,6.81997E-2,1.0221858E-1,5.446703E-2,7.978057E-2,4.461744E-2,1.1099922E-1,3.6958274E-2,3.344179E-2,1.1673768E-1,5.8893926E-2,4.273627E-4],"split_indices":[1,1,1,1,1,1,1,0,2,1,3,4,2,1,3,4,4,3,3,2,4,3,1,2,2,2,1,3,0,0,4,2,3,3,0,3,2,1,2,3,3,3,2,3,3,3,0,3,2,2,0,1,2,1,1,0,0,0,0,0,0,0,0,0,0,0,0,0,0,0,0,0,0,0,0,0,0,0,0,0,0,0,0,0,0,0,0,0,0,0,0,0,0,0,0,0,0,0,0],"split_type":[0,0,0,0,0,0,0,0,0,0,0,0,0,0,0,0,0,0,0,0,0,0,0,0,0,0,0,0,0,0,0,0,0,0,0,0,0,0,0,0,0,0,0,0,0,0,0,0,0,0,0,0,0,0,0,0,0,0,0,0,0,0,0,0,0,0,0,0,0,0,0,0,0,0,0,0,0,0,0,0,0,0,0,0,0,0,0,0,0,0,0,0,0,0,0,0,0,0,0],"sum_hessian":[1.9355426E3,1.1918936E3,7.436491E2,2.5422655E2,9.37667E2,3.368338E2,4.068153E2,1.390598E2,1.1516675E2,6.312592E2,3.0640778E2,3.061661E2,3.0667696E1,2.6383673E2,1.4297858E2,9.151549E1,2.3651262E1,2.66618E2,3.646412E2,7.321817E1,2.331896E2,2.1587814E2,9.028796E1,6.316448E0,2.4351248E1,2.0125679E2,6.2579945E1,1.6323648E1,1.2665492E2,3.9091534E1,5.2423954E1,1.5474457E1,8.1768055E0,2.5659708E2,1.0020939E1,3.3150626E2,3.3134945E1,3.736027E1,3.5857903E1,5.201391E1,1.8117569E2,1.4886559E2,6.701254E1,6.734434E1,2.294362E1,4.3411613E0,1.9752866E0,1.3709493E1,1.0641755E1,4.2671185E1,1.585856E2,4.1335777E1,2.124417E1,1.0367294E1,5.956353E0,1.2510254E0,5.1172928E1,1.3634992E1,1.8394655E0,2.759315E0,5.417491E0,2.4628165E2,1.0315446E1,3.212186E2,1.0287656E1,3.1508146E1,1.6268007E0,3.6000023E1,1.3602469E0,3.5907872E0,3.2267117E1,1.2047359E1,3.996655E1,7.178646E1,1.0938924E2,8.2622894E1,6.62427E1,5.9512993E1,7.499553E0,4.772774E0,6.2571564E1,6.161504E0,1.6782118E1,1.7008812E0,2.6402802E0,1.171009E1,1.9994031E0,5.4466963E0,5.195059E0,3.500685E1,7.664335E0,2.6586655E1,1.4749122E1,1.9916143E1,1.328026E0,1.2321268E0,9.135168E0,2.246229E0,3.7101245E0],"tree_param":{"num_deleted":"0","num_feature":"5","num_nodes":"99","size_leaf_vector":"1"}},{"base_weights":[-2.141138E-2,-5.0015E-1,7.2522295E-1,-9.7148865E-1,1.0696999E0,-5.850821E-1,1.2630517E0,-1.0934229E0,-2.3925956E-1,-1.1177177E0,1.2987542E0,-1.0320445E0,6.874381E-1,8.5057795E-1,1.5222776E0,-1.1030646E-1,-6.8945414E-1,-1.117443E-1,1.7254715E-1,-1.1751681E-1,-4.0759174E-3,5.553132E-1,1.4372351E0,-1.1076925E-1,-2.551996E-2,-1.0700474E-1,1.5902083E0,-9.365769E-1,1.5277784E0,1.3558959E0,1.5629985E0,-1.07739665E-1,1.5317783E-1,-1.1163559E-1,1.5547377E-1,7.1961015E-1,1.5046988E-1,-1.0655924E-1,1.4715278E-1,5.0163466E-1,1.6859756E-1,-1.14952736E-1,-1.525628E-1,6.4776236E-1,1.6203348E-1,-1.524263E-1,1.510856E-1,1.6445342E-1,1.4217392E-1,-1.0523423E-1,1.4817862E-1,-9.591632E-2,1.6374706E-1,-9.107491E-2,1.5389937E-1,-9.455294E-2,1.7693421E-1,-1.1395808E-1,7.729294E-2],"categories":[],"categories_nodes":[],"categories_segments":[],"categories_sizes":[],"default_left":[0,0,0,0,0,0,0,0,0,0,0,0,0,0,0,0,0,0,0,0,0,0,0,0,0,0,0,0,0,0,0,0,0,0,0,0,0,0,0,0,0,0,0,0,0,0,0,0,0,0,0,0,0,0,0,0,0,0,0],"id":11,"left_children":[1,3,5,7,9,11,13,15,17,19,21,23,25,27,29,-1,31,-1,-1,-1,-1,33,35,-1,37,-1,39,41,43,45,47,-1,-1,-1,-1,49,-1,-1,-1,51,-1,-1,53,55,-1,57,-1,-1,-1,-1,-1,-1,-1,-1,-1,-1,-1,-1,-1],"loss_changes":[6.783905E2,8.566854E2,5.2328784E2,7.9190735E1,1.3547992E2,1.2382989E2,5.4950317E1,2.2096558E0,2.233198E2,1.5541801E0,2.4178986E1,1.2199982E1,9.193027E1,2.4986697E2,6.072998E-2,0E0,1.9266457E1,0E0,0E0,0E0,0E0,6.8103485E1,8.787933E0,0E0,2.064189E1,0E0,3.112877E0,9.345978E0,1.1106659E1,1.6780975E1,5.637207E-1,0E0,0E0,0E0,0E0,2.7809206E1,0E0,0E0,0E0,9.027263E0,0E0,0E0,1.8503159E1,3.0031326E1,0E0,7.7368593E0,0E0,0E0,0E0,0E0,0E0,0E0,0E0,0E0,0E0,0E0,0E0,0E0,0E0],"parents":[2147483647,0,0,1,1,2,2,3,3,4,4,5,5,6,6,7,7,8,8,9,9,10,10,11,11,12,12,13,13,14,14,16,16,21,21,22,22,24,24,26,26,27,27,28,28,29,29,30,30,35,35,39,39,42,42,43,43,45,45],"right_children":[2,4,6,8,10,12,14,16,18,20,22,24,26,28,30,-1,32,-1,-1,-1,-1,34,36,-1,38,-1,40,42,44,46,48,-1,-1,-1,-1,50,-1,-1,-1,52,-1,-1,54,56,-1,58,-1,-1,-1,-1,-1,-1,-1,-1,-1,-1,-1,-1,-1],"split_conditions":[6.0906243E-1,6.357877E-1,5.14781E-1,6.3552827E-1,3.6298913E-1,7.1618164E-1,5.638985E-1,6.0577697E-1,5.520974E-1,3.5034445E-1,7.249747E-1,4.9594304E-1,4.637523E-1,6.6627276E-1,5.797813E-1,-1.1030646E-1,5.8310395E-1,-1.117443E-1,1.7254715E-1,-1.1751681E-1,-4.0759174E-3,5.520974E-1,4.5937604E-1,-1.1076925E-1,6.9031626E-1,-1.0700474E-1,7.1757984E-1,6.570198E-1,6.753994E-1,6.269493E-1,6.357877E-1,-1.07739665E-1,1.5317783E-1,-1.1163559E-1,1.5547377E-1,8.388072E-1,1.5046988E-1,-1.0655924E-1,1.4715278E-1,4.725168E-1,1.6859756E-1,-1.14952736E-1,5.3161705E-1,5.2344847E-1,1.6203348E-1,5.748124E-1,1.510856E-1,1.6445342E-1,1.4217392E-1,-1.0523423E-1,1.4817862E-1,-9.591632E-2,1.6374706E-1,-9.107491E-2,1.5389937E-1,-9.455294E-2,1.7693421E-1,-1.1395808E-1,7.729294E-2],"split_indices":[1,0,0,0,1,1,0,1,1,1,0,0,0,1,0,0,0,0,0,0,0,1,1,0,1,0,1,1,1,1,0,0,0,0,0,0,0,0,0,0,0,0,0,0,0,0,0,0,0,0,0,0,0,0,0,0,0,0,0],"split_type":[0,0,0,0,0,0,0,0,0,0,0,0,0,0,0,0,0,0,0,0,0,0,0,0,0,0,0,0,0,0,0,0,0,0,0,0,0,0,0,0,0,0,0,0,0,0,0,0,0,0,0,0,0,0,0,0,0,0,0],"sum_hessian":[1.8958853E3,1.1553866E3,7.4049866E2,8.88885E2,2.665016E2,2.154683E2,5.2503033E2,7.615713E2,1.2731369E2,2.4893593E1,2.41608E2,1.5959932E2,5.5868996E1,2.0427467E2,3.2075568E2,7.421281E2,1.9443209E1,8.828421E1,3.9029484E1,2.3546322E1,1.3472698E0,3.8724407E1,2.0288359E2,1.4834924E2,1.1250079E1,1.8896526E1,3.697247E1,5.6029064E1,1.4824562E2,6.981118E1,2.5094449E2,1.6990704E1,2.4525034E0,1.4445464E1,2.4278942E1,1.843657E1,1.8444702E2,6.808255E0,4.441824E0,3.4940581E0,3.3478413E1,4.36947E1,1.2334365E1,1.48692255E1,1.3337639E2,6.5055017E0,6.3305683E1,1.5235973E2,9.858476E1,5.4305634E0,1.3006005E1,1.596432E0,1.897626E0,8.835655E0,3.4987092E0,6.2076864E0,8.661538E0,3.0356324E0,3.4698696E0],"tree_param":{"num_deleted":"0","num_feature":"5","num_nodes":"59","size_leaf_vector":"1"}},{"base_weights":[-2.9679637E-2,-5.0215656E-1,6.9178903E-1,-9.66483E-1,1.0123436E0,-6.2126523E-1,1.1772753E0,-1.0813668E0,-2.7683535E-1,-9.319941E-1,1.2271292E0,-1.0951753E-1,6.2812775E-1,7.9075E-1,1.4415246E0,-1.0922146E-1,-6.5995675E-1,-1.1012055E-1,1.5987508E-1,-1.1418044E-1,9.2771E-3,5.100676E-1,1.3585336E0,-9.634627E-1,1.5180625E0,-8.901905E-1,1.4081528E0,1.2198634E0,1.4742391E-1,-1.0659051E-1,1.435998E-1,-9.0608865E-2,1.1641049E-1,-1.09201446E-1,1.471857E-1,5.331833E-1,1.4315109E-1,-1.0426612E-1,-4.9533314E-1,3.238228E-1,1.5938416E-1,-1.1314192E-1,-9.169876E-2,5.962883E-1,1.5012685E0,-1.1366659E-1,1.4391112E-1,-1.0567714E-1,1.3580413E-1,-8.333335E-2,3.0631742E-2,-7.737909E-2,1.21345334E-1,-8.978941E-2,1.4901134E-1,-9.569569E-2,1.734948E-1,1.0257734E-1,1.5262656E-1],"categories":[],"categories_nodes":[],"categories_segments":[],"categories_sizes":[],"default_left":[0,0,0,0,0,0,0,0,0,0,0,0,0,0,0,0,0,0,0,0,0,0,0,0,0,0,0,0,0,0,0,0,0,0,0,0,0,0,0,0,0,0,0,0,0,0,0,0,0,0,0,0,0,0,0,0,0,0,0],"id":12,"left_children":[1,3,5,7,9,11,13,15,17,19,21,-1,23,25,27,-1,29,-1,-1,-1,31,33,35,37,39,41,43,45,-1,-1,-1,-1,-1,-1,-1,47,-1,-1,49,51,-1,-1,53,55,57,-1,-1,-1,-1,-1,-1,-1,-1,-1,-1,-1,-1,-1,-1],"loss_changes":[6.044962E2,7.545187E2,4.4809634E2,6.4718445E1,1.06351746E2,1.1323958E2,5.1226074E1,2.4934082E0,1.8502324E2,5.0721073E0,2.072403E1,0E0,7.640518E1,2.1960599E2,4.0093994E-1,0E0,1.8693546E1,0E0,0E0,0E0,7.0415845E0,5.8315987E1,1.0770691E1,2.0971298E-1,2.5901031E0,1.0900818E1,1.0766785E1,2.4783195E1,0E0,0E0,0E0,0E0,0E0,0E0,0E0,2.392691E1,0E0,0E0,1.5393867E0,4.1642246E0,0E0,0E0,1.9629354E1,3.266695E1,7.1502686E-2,0E0,0E0,0E0,0E0,0E0,0E0,0E0,0E0,0E0,0E0,0E0,0E0,0E0,0E0],"parents":[2147483647,0,0,1,1,2,2,3,3,4,4,5,5,6,6,7,7,8,8,9,9,10,10,12,12,13,13,14,14,16,16,20,20,21,21,22,22,23,23,24,24,25,25,26,26,27,27,35,35,38,38,39,39,42,42,43,43,44,44],"right_children":[2,4,6,8,10,12,14,16,18,20,22,-1,24,26,28,-1,30,-1,-1,-1,32,34,36,38,40,42,44,46,-1,-1,-1,-1,-1,-1,-1,48,-1,-1,50,52,-1,-1,54,56,58,-1,-1,-1,-1,-1,-1,-1,-1,-1,-1,-1,-1,-1,-1],"split_conditions":[6.0906243E-1,6.357877E-1,4.9594304E-1,6.3552827E-1,3.8720417E-1,7.1618164E-1,5.638985E-1,6.0577697E-1,5.520974E-1,3.5034445E-1,7.249747E-1,-1.0951753E-1,4.712882E-1,6.6627276E-1,5.748124E-1,-1.0922146E-1,5.8310395E-1,-1.1012055E-1,1.5987508E-1,-1.1418044E-1,8.388072E-1,5.520974E-1,4.6420446E-1,4.488382E-1,7.1757984E-1,6.570198E-1,6.753994E-1,6.269493E-1,1.4742391E-1,-1.0659051E-1,1.435998E-1,-9.0608865E-2,1.1641049E-1,-1.09201446E-1,1.471857E-1,8.388072E-1,1.4315109E-1,-1.0426612E-1,7.286136E-1,4.725168E-1,1.5938416E-1,-1.1314192E-1,5.3161705E-1,5.2344847E-1,5.14781E-1,-1.1366659E-1,1.4391112E-1,-1.0567714E-1,1.3580413E-1,-8.333335E-2,3.0631742E-2,-7.737909E-2,1.21345334E-1,-8.978941E-2,1.4901134E-1,-9.569569E-2,1.734948E-1,1.0257734E-1,1.5262656E-1],"split_indices":[1,0,0,0,1,1,0,1,1,1,0,0,0,1,0,0,0,0,0,0,0,1,1,0,1,1,1,1,0,0,0,0,0,0,0,0,0,0,1,0,0,0,0,0,0,0,0,0,0,0,0,0,0,0,0,0,0,0,0],"split_type":[0,0,0,0,0,0,0,0,0,0,0,0,0,0,0,0,0,0,0,0,0,0,0,0,0,0,0,0,0,0,0,0,0,0,0,0,0,0,0,0,0,0,0,0,0,0,0,0,0,0,0,0,0,0,0,0,0,0,0],"sum_hessian":[1.7713351E3,1.0705531E3,7.0078204E2,8.1962756E2,2.509255E2,1.8908904E2,5.1169302E2,7.021012E2,1.1752633E2,2.4629436E1,2.2629608E2,1.3717886E2,5.1910175E1,2.0939586E2,3.0229715E2,6.829297E2,1.9171501E1,8.192915E1,3.5597176E1,1.996596E1,4.663476E0,3.5803146E1,1.9049294E2,1.8586609E1,3.3323566E1,5.613121E1,1.5326465E2,4.3801674E1,2.5849548E2,1.6472519E1,2.6989813E0,2.7216055E0,1.9418702E0,1.3380102E1,2.2423042E1,1.6149826E1,1.7434311E2,1.4847419E1,3.73919E0,2.3029826E0,3.1020584E1,4.2787827E1,1.3343382E1,1.6531591E1,1.3673306E2,3.3721876E0,4.0429485E1,5.420462E0,1.0729364E1,2.6024117E0,1.1367782E0,1.0892687E0,1.2137138E0,9.1250305E0,4.2183514E0,7.0602636E0,9.471327E0,8.928563E0,1.2780449E2],"tree_param":{"num_deleted":"0","num_feature":"5","num_nodes":"59","size_leaf_vector":"1"}},{"base_weights":[-2.3480438E-2,-9.0834457E-1,3.382686E-1,-1.0711197E-1,5.4368544E-1,-2.3920573E-1,1.1046187E0,-9.924429E-1,1.3928678E0,-8.8396376E-1,9.655798E-1,7.1831065E-1,1.3545494E0,-1.04149416E-1,-4.5486745E-1,3.4945086E-1,1.4969234E-1,-1.0977562E-1,-2.535211E-1,-8.8531184E-1,1.1761156E0,-8.6892325E-1,1.3277241E0,8.967573E-1,1.387025E-1,-9.502107E-3,-5.912889E-2,-8.714888E-2,1.3397233E-1,-1.0898509E-1,1.5177178E-1,-1.1171843E-1,-6.1738743E-3,3.5709816E-1,1.3109671E0,-1.1133637E-1,-4.605223E-2,4.1507676E-1,1.4201579E0,-9.927835E-2,1.2477338E0,-9.1044664E-2,1.1401061E-1,-1.0743264E-1,1.3881676E-1,6.486452E-2,1.3730386E-1,-8.629173E-2,1.4059857E-1,-1.0372758E-1,1.5544865E-1,8.536949E-2,1.4511292E-1,4.5726273E-2,1.4151148E-1],"categories":[],"categories_nodes":[],"categories_segments":[],"categories_sizes":[],"default_left":[0,0,0,0,0,0,0,0,0,0,0,0,0,0,0,0,0,0,0,0,0,0,0,0,0,0,0,0,0,0,0,0,0,0,0,0,0,0,0,0,0,0,0,0,0,0,0,0,0,0,0,0,0,0,0],"id":13,"left_children":[1,3,5,-1,7,9,11,13,15,17,19,21,23,-1,25,27,-1,-1,29,31,33,35,37,39,-1,-1,-1,-1,-1,-1,-1,-1,41,43,45,-1,47,49,51,-1,53,-1,-1,-1,-1,-1,-1,-1,-1,-1,-1,-1,-1,-1,-1],"loss_changes":[5.289705E2,1.1392163E2,5.1938666E2,0E0,6.530166E1,5.211303E2,4.7713257E1,1.6460419E-3,2.9482422E0,5.859662E1,9.221188E1,1.948176E2,3.2913208E0,0E0,1.0497314E-1,6.250298E0,0E0,0E0,1.674414E2,4.980339E0,2.2780457E1,1.1242855E1,1.1648148E1,1.6515451E1,0E0,0E0,0E0,0E0,0E0,0E0,0E0,0E0,7.3729873E0,4.744067E1,6.524414E0,0E0,1.7703642E1,2.6027847E1,1.0648804E0,0E0,1.9819221E0,0E0,0E0,0E0,0E0,0E0,0E0,0E0,0E0,0E0,0E0,0E0,0E0,0E0,0E0],"parents":[2147483647,0,0,1,1,2,2,4,4,5,5,6,6,7,7,8,8,9,9,10,10,11,11,12,12,14,14,15,15,18,18,19,19,20,20,21,21,22,22,23,23,32,32,33,33,34,34,36,36,37,37,38,38,40,40],"right_children":[2,4,6,-1,8,10,12,14,16,18,20,22,24,-1,26,28,-1,-1,30,32,34,36,38,40,-1,-1,-1,-1,-1,-1,-1,-1,42,44,46,-1,48,50,52,-1,54,-1,-1,-1,-1,-1,-1,-1,-1,-1,-1,-1,-1,-1,-1],"split_conditions":[4.9594304E-1,7.1618164E-1,6.074209E-1,-1.0711197E-1,4.712882E-1,6.357877E-1,5.638985E-1,7.367091E-1,7.1757984E-1,6.3552827E-1,3.8720417E-1,6.6627276E-1,6.1397207E-1,-1.04149416E-1,4.51E0,4.725168E-1,1.4969234E-1,-1.0977562E-1,5.520974E-1,3.5034445E-1,7.249747E-1,6.570198E-1,6.753994E-1,5.797813E-1,1.387025E-1,-9.502107E-3,-5.912889E-2,-8.714888E-2,1.3397233E-1,-1.0898509E-1,1.5177178E-1,-1.1171843E-1,8.388072E-1,5.520974E-1,4.6420446E-1,-1.1133637E-1,5.3161705E-1,5.2344847E-1,5.14781E-1,-9.927835E-2,5.8310395E-1,-9.1044664E-2,1.1401061E-1,-1.0743264E-1,1.3881676E-1,6.486452E-2,1.3730386E-1,-8.629173E-2,1.4059857E-1,-1.0372758E-1,1.5544865E-1,8.536949E-2,1.4511292E-1,4.5726273E-2,1.4151148E-1],"split_indices":[0,1,1,0,0,0,0,1,1,0,1,1,1,0,4,0,0,0,1,1,0,1,1,0,0,0,0,0,0,0,0,0,0,1,1,0,0,0,0,0,0,0,0,0,0,0,0,0,0,0,0,0,0,0,0],"split_type":[0,0,0,0,0,0,0,0,0,0,0,0,0,0,0,0,0,0,0,0,0,0,0,0,0,0,0,0,0,0,0,0,0,0,0,0,0,0,0,0,0,0,0,0,0,0,0,0,0,0,0,0,0,0,0],"sum_hessian":[1.6505631E3,4.7853098E2,1.1720321E3,4.3053012E2,4.8000854E1,6.6877344E2,5.032587E2,1.702848E1,3.0972372E1,4.3580988E2,2.3296353E2,1.9921461E2,3.040441E2,1.4745621E1,2.2828598E0,3.2038708E0,2.7768501E1,3.2489273E2,1.10917145E2,2.3465488E1,2.0949805E2,5.5149754E1,1.4406487E2,2.2035406E1,2.820087E2,1.0939125E0,1.1889474E0,1.4885448E0,1.7153258E0,7.560382E1,3.5313324E1,1.8353884E1,5.111604E0,3.0133125E1,1.7936493E2,4.2246937E1,1.2902816E1,1.3754082E1,1.3031078E2,3.1653862E0,1.887002E1,2.9724486E0,2.1391554E0,1.2599457E1,1.7533669E1,1.635046E1,1.6301447E2,8.517111E0,4.385705E0,6.086078E0,7.6680036E0,8.236145E0,1.2207463E2,3.9495928E0,1.4920426E1],"tree_param":{"num_deleted":"0","num_feature":"5","num_nodes":"55","size_leaf_vector":"1"}},{"base_weights":[-3.207313E-2,-4.8073238E-1,6.273675E-1,-1.0544679E-1,-3.9861628E-1,2.7432245E-1,8.60455E-1,-5.079944E-1,-1.5460245E-1,3.264688E-1,1.4688706E-1,7.670583E-1,1.0164164E0,-4.34552E-1,-6.2167513E-1,1.0696904E-1,-2.7226004E-1,5.536167E-1,2.9835138E-1,8.988163E-2,4.3431026E-1,5.700628E-1,7.9890746E-1,8.387485E-1,1.0624969E-1,-3.605279E-1,-5.131205E-1,-7.783457E-1,-4.697429E-1,-4.2075057E-2,2.3217763E-1,-4.763885E-1,-2.3817404E-1,7.9304945E-1,2.6204827E-1,2.56533E-1,4.1135126E-1,-3.9138302E-1,1.4386633E-1,2.2878832E-1,7.958896E-2,6.379871E-1,5.6110676E-2,8.3479804E-1,5.789108E-2,5.518723E-1,9.923476E-1,-6.552433E-2,-3.3897225E-2,-5.27793E-2,-3.1425945E-2,-4.6542283E-2,-8.163243E-2,-5.4701626E-2,-8.638276E-3,2.7368607E-3,-4.1571304E-2,5.8574475E-2,1.2329095E-2,-5.6865342E-2,-1.1508127E-2,3.3396766E-2,-2.486944E-2,9.66328E-2,2.3072196E-2,-3.2398984E-2,5.6419652E-2,1.2911789E-2,3.0580908E-2,5.0633777E-2,1.9907525E-2,-6.5440945E-2,1.7851934E-2,2.1760596E-2,-1.2071838E-2,6.2219977E-2,1.0284658E-3,6.692063E-2,1.9457916E-2,-3.172675E-2,2.3556598E-2,8.604518E-2,5.1156204E-2,7.7825315E-2,-2.8293232E-2,4.5303673E-2,1.0979917E-1],"categories":[],"categories_nodes":[],"categories_segments":[],"categories_sizes":[],"default_left":[0,0,0,0,0,0,0,0,0,0,0,0,0,0,0,0,0,0,0,0,0,0,0,0,0,0,0,0,0,0,0,0,0,0,0,0,0,0,0,0,0,0,0,0,0,0,0,0,0,0,0,0,0,0,0,0,0,0,0,0,0,0,0,0,0,0,0,0,0,0,0,0,0,0,0,0,0,0,0,0,0,0,0,0,0,0,0],"id":14,"left_children":[1,3,5,-1,7,9,11,13,15,17,19,21,23,25,27,29,31,33,35,37,39,41,43,45,-1,47,49,51,53,55,57,59,61,63,65,67,69,71,73,75,-1,77,79,81,-1,83,85,-1,-1,-1,-1,-1,-1,-1,-1,-1,-1,-1,-1,-1,-1,-1,-1,-1,-1,-1,-1,-1,-1,-1,-1,-1,-1,-1,-1,-1,-1,-1,-1,-1,-1,-1,-1,-1,-1,-1,-1],"loss_changes":[4.5244766E2,4.245363E1,5.071791E1,0E0,2.1211723E1,1.5981102E0,4.6461487E0,4.324829E0,7.6717267E0,9.5225716E-1,1.1692594E0,1.0318604E0,2.2587585E-1,1.778923E0,4.7207794E0,1.4609654E0,1.080287E0,1.0559635E0,6.40419E-1,1.6879349E0,7.0553136E-1,1.2377968E0,1.1082764E0,8.9977264E-1,0E0,9.037895E-1,3.052063E-1,8.522301E-1,3.241106E0,9.5452297E-1,1.5606906E0,7.1960974E-1,9.8001194E-1,6.975217E-1,1.8926276E0,7.0058775E-1,7.2553253E-1,1.1065848E0,1.1422269E0,7.6890105E-1,0E0,3.1452084E-1,4.3355682E-1,9.780884E-1,0E0,2.8106794E0,6.5008545E-1,0E0,0E0,0E0,0E0,0E0,0E0,0E0,0E0,0E0,0E0,0E0,0E0,0E0,0E0,0E0,0E0,0E0,0E0,0E0,0E0,0E0,0E0,0E0,0E0,0E0,0E0,0E0,0E0,0E0,0E0,0E0,0E0,0E0,0E0,0E0,0E0,0E0,0E0,0E0,0E0],"parents":[2147483647,0,0,1,1,2,2,4,4,5,5,6,6,7,7,8,8,9,9,10,10,11,11,12,12,13,13,14,14,15,15,16,16,17,17,18,18,19,19,20,20,21,21,22,22,23,23,25,25,26,26,27,27,28,28,29,29,30,30,31,31,32,32,33,33,34,34,35,35,36,36,37,37,38,38,39,39,41,41,42,42,43,43,45,45,46,46],"right_children":[2,4,6,-1,8,10,12,14,16,18,20,22,24,26,28,30,32,34,36,38,40,42,44,46,-1,48,50,52,54,56,58,60,62,64,66,68,70,72,74,76,-1,78,80,82,-1,84,86,-1,-1,-1,-1,-1,-1,-1,-1,-1,-1,-1,-1,-1,-1,-1,-1,-1,-1,-1,-1,-1,-1,-1,-1,-1,-1,-1,-1,-1,-1,-1,-1,-1,-1,-1,-1,-1,-1,-1,-1],"split_conditions":[6.0906243E-1,3.8720417E-1,6.6627276E-1,-1.0544679E-1,5.520974E-1,4.93E0,7.1477926E-1,5.6E1,4.4E1,7.5E1,6.570198E-1,6.723715E-1,4.46E0,4.884285E-1,4.88E0,4.82E0,4.45E0,6.3974625E-1,4.84E0,8.1E1,3.7E1,3.65E2,7.077054E-1,1.8E2,1.0624969E-1,4.7137332E-1,6.4E1,3E0,7.7E1,6E0,5.574598E-1,1.7E1,4.49E0,4.84E0,4.4E1,1.94E2,6.4764595E-1,6.444954E-1,3.59E2,1.23E2,7.958896E-2,1.33E2,6.708522E-1,1.52E2,5.789108E-2,1.54E2,7.1757984E-1,-6.552433E-2,-3.3897225E-2,-5.27793E-2,-3.1425945E-2,-4.6542283E-2,-8.163243E-2,-5.4701626E-2,-8.638276E-3,2.7368607E-3,-4.1571304E-2,5.8574475E-2,1.2329095E-2,-5.6865342E-2,-1.1508127E-2,3.3396766E-2,-2.486944E-2,9.66328E-2,2.3072196E-2,-3.2398984E-2,5.6419652E-2,1.2911789E-2,3.0580908E-2,5.0633777E-2,1.9907525E-2,-6.5440945E-2,1.7851934E-2,2.1760596E-2,-1.2071838E-2,6.2219977E-2,1.0284658E-3,6.692063E-2,1.9457916E-2,-3.172675E-2,2.3556598E-2,8.604518E-2,5.1156204E-2,7.7825315E-2,-2.8293232E-2,4.5303673E-2,1.0979917E-1],"split_indices":[1,1,1,0,1,4,1,3,3,3,1,1,4,1,4,4,4,1,4,3,2,3,1,3,0,1,2,2,2,3,1,2,4,4,3,3,1,1,3,3,0,2,1,2,0,3,1,0,0,0,0,0,0,0,0,0,0,0,0,0,0,0,0,0,0,0,0,0,0,0,0,0,0,0,0,0,0,0,0,0,0,0,0,0,0,0,0],"split_type":[0,0,0,0,0,0,0,0,0,0,0,0,0,0,0,0,0,0,0,0,0,0,0,0,0,0,0,0,0,0,0,0,0,0,0,0,0,0,0,0,0,0,0,0,0,0,0,0,0,0,0,0,0,0,0,0,0,0,0,0,0,0,0,0,0,0,0,0,0,0,0,0,0,0,0,0,0,0,0,0,0,0,0,0,0,0,0],"sum_hessian":[1.527222E3,9.090254E2,6.181966E2,1.1233221E2,7.966932E2,2.4670413E2,3.7149246E2,5.493622E2,2.4733101E2,1.739587E2,7.2745445E1,2.3605219E2,1.3544029E2,3.3667737E2,2.1268478E2,7.676378E1,1.7056723E2,1.7102882E1,1.5685582E2,6.1800995E1,1.09444475E1,3.548245E1,2.0056973E2,3.1848167E1,1.0359212E2,1.762295E2,1.6044786E2,1.0267978E2,1.10005005E2,3.5349216E1,4.1414562E1,2.2549652E1,1.4801758E2,8.446646E0,8.656237E0,1.1687394E2,3.9981873E1,5.602828E0,5.6198166E1,8.01912E0,2.9253268E0,3.1127308E1,4.355139E0,1.7003535E2,3.0534382E1,1.2707456E1,1.914071E1,1.0007409E1,1.662221E2,1.478826E2,1.2565256E1,1.2547771E1,9.013201E1,9.1195885E1,1.8809122E1,3.0590479E1,4.758739E0,8.720084E0,3.2694477E1,1.7505499E1,5.0441537E0,2.1174347E0,1.4590015E2,5.907756E0,2.53889E0,2.920136E0,5.7361E0,3.360374E1,8.32702E1,2.6664923E1,1.331695E1,3.7320812E0,1.8707467E0,4.408833E1,1.21098385E1,2.2037551E0,5.815366E0,2.860413E1,2.523178E0,1.1644382E0,3.1907003E0,1.5599289E2,1.4042456E1,1.0049888E1,2.6575685E0,4.0014963E0,1.51392145E1],"tree_param":{"num_deleted":"0","num_feature":"5","num_nodes":"87","size_leaf_vector":"1"}},{"base_weights":[-2.2106692E-2,-4.395976E-1,6.0818547E-1,-9.025018E-1,-3.3456078E-1,3.06859E-1,8.149543E-1,-1.0724968E-1,-6.9429845E-1,-4.5160526E-1,-1.2047765E-1,3.480263E-1,1.5942506E-1,7.448541E-1,9.72706E-1,-8.2339066E-1,-3.4248933E-1,-4.2929024E-1,-7.3112893E-1,8.3302826E-2,-2.0568004E-1,4.0942934E-1,2.539392E-1,2.26904E-1,-2.6641703E-1,6.192262E-1,8.000775E-1,6.254815E-1,1.0241506E-1,-9.4327545E-1,-7.121178E-1,-5.2613467E-1,7.696397E-2,-3.5252857E-1,-4.8849052E-1,-4.4936505E-1,-7.948777E-2,1.242622E-2,2.9704183E-1,-5.7264066E-1,-1.5751106E-1,5.001346E-1,2.6742595E-1,-3.2387173E-1,3.0820522E-1,1.1556513E-1,3.392561E-1,-5.5887544E-1,9.0079665E-2,6.495262E-1,3.9609164E-1,8.402808E-2,5.643016E-1,8.030486E-2,1.908659E-2,-2.8407842E-2,-9.689954E-2,-7.877016E-2,-3.426592E-2,9.703105E-3,-5.877095E-2,-5.2871667E-3,3.8306423E-2,-5.2640993E-2,-3.2907687E-2,-5.080645E-2,-3.0545836E-2,-2.7926061E-3,-6.2728494E-2,3.049531E-2,-5.6855176E-3,-7.294844E-4,5.9342332E-2,-7.838468E-3,-7.089507E-2,-2.0036818E-2,3.3509221E-3,1.11462595E-2,5.2493166E-2,6.1137427E-2,2.00579E-2,-6.1210692E-2,5.625871E-2,2.3660623E-2,4.671089E-2,-3.0339092E-2,2.452754E-2,6.5221176E-2,1.1079217E-2,-6.84455E-2,-6.711112E-3,2.714443E-2,-1.8796822E-2,3.2996938E-2,6.623433E-2,-2.898461E-2,5.46709E-2,7.095498E-2,2.2347659E-2,-3.0882496E-2,2.7258677E-2],"categories":[],"categories_nodes":[],"categories_segments":[],"categories_sizes":[],"default_left":[0,0,0,0,0,0,0,0,0,0,0,0,0,0,0,0,0,0,0,0,0,0,0,0,0,0,0,0,0,0,0,0,0,0,0,0,0,0,0,0,0,0,0,0,0,0,0,0,0,0,0,0,0,0,0,0,0,0,0,0,0,0,0,0,0,0,0,0,0,0,0,0,0,0,0,0,0,0,0,0,0,0,0,0,0,0,0,0,0,0,0,0,0,0,0,0,0,0,0,0,0],"id":15,"left_children":[1,3,5,7,9,11,13,-1,15,17,19,21,23,25,27,29,31,33,35,37,39,41,43,45,47,49,51,53,-1,55,57,59,61,63,65,67,-1,69,71,73,75,77,79,81,83,85,87,89,91,93,95,-1,97,-1,99,-1,-1,-1,-1,-1,-1,-1,-1,-1,-1,-1,-1,-1,-1,-1,-1,-1,-1,-1,-1,-1,-1,-1,-1,-1,-1,-1,-1,-1,-1,-1,-1,-1,-1,-1,-1,-1,-1,-1,-1,-1,-1,-1,-1,-1,-1],"loss_changes":[3.9262317E2,4.3337112E1,3.6792038E1,5.109482E0,1.8315475E1,1.4227142E0,3.1678467E0,0E0,3.22324E0,2.6403427E0,4.5400906E0,9.9105453E-1,1.6410699E0,1.2248383E0,1.2353821E0,7.197952E-2,1.768331E0,1.8319397E0,2.4619675E-1,1.1706128E0,3.161922E0,1.3224888E0,2.5293345E0,5.615094E-1,8.8275385E-1,2.8455162E-1,1.1260834E0,1.7205024E0,0E0,1.2750435E-1,6.5145874E-1,6.6052914E-1,3.2637343E-1,6.24485E-1,7.27581E-1,6.1972153E-1,0E0,1.2182701E0,1.741569E0,1.3571448E0,1.3494353E0,5.953388E-1,9.3998814E-1,2.1686404E0,7.0117474E-1,1.4675719E0,1.5997927E0,2.3349142E-1,2.758939E-1,6.403923E-2,1.4131281E0,0E0,1.2096233E0,0E0,4.7285405E-1,0E0,0E0,0E0,0E0,0E0,0E0,0E0,0E0,0E0,0E0,0E0,0E0,0E0,0E0,0E0,0E0,0E0,0E0,0E0,0E0,0E0,0E0,0E0,0E0,0E0,0E0,0E0,0E0,0E0,0E0,0E0,0E0,0E0,0E0,0E0,0E0,0E0,0E0,0E0,0E0,0E0,0E0,0E0,0E0,0E0,0E0],"parents":[2147483647,0,0,1,1,2,2,3,3,4,4,5,5,6,6,8,8,9,9,10,10,11,11,12,12,13,13,14,14,15,15,16,16,17,17,18,18,19,19,20,20,21,21,22,22,23,23,24,24,25,25,26,26,27,27,29,29,30,30,31,31,32,32,33,33,34,34,35,35,37,37,38,38,39,39,40,40,41,41,42,42,43,43,44,44,45,45,46,46,47,47,48,48,49,49,50,50,52,52,54,54],"right_children":[2,4,6,8,10,12,14,-1,16,18,20,22,24,26,28,30,32,34,36,38,40,42,44,46,48,50,52,54,-1,56,58,60,62,64,66,68,-1,70,72,74,76,78,80,82,84,86,88,90,92,94,96,-1,98,-1,100,-1,-1,-1,-1,-1,-1,-1,-1,-1,-1,-1,-1,-1,-1,-1,-1,-1,-1,-1,-1,-1,-1,-1,-1,-1,-1,-1,-1,-1,-1,-1,-1,-1,-1,-1,-1,-1,-1,-1,-1,-1,-1,-1,-1,-1,-1],"split_conditions":[6.156035E-1,4.5937604E-1,6.708522E-1,3.5034445E-1,5.520974E-1,4.98E0,7.1757984E-1,-1.0724968E-1,5.4E1,3.63E2,4.4E1,2.78E2,1.4E1,7E0,6.1E1,4.84E0,4.95E0,4.8684514E-1,3E0,4.97E0,4.41E0,5.3E1,6.204822E-1,6.429155E-1,4E1,5E0,1.12E2,7.367091E-1,1.0241506E-1,3.6298913E-1,3E1,5.9E1,3.3E2,4.7309023E-1,2.98E2,4.909051E-1,-7.948777E-2,1E1,6E0,5.67375E-1,6.074209E-1,5.2E1,6.2372124E-1,1.09E2,4.83E0,1.68E2,1.78E2,6.523476E-1,5.7E1,6.723715E-1,1.07E2,8.402808E-2,2.64E2,8.030486E-2,2E0,-2.8407842E-2,-9.689954E-2,-7.877016E-2,-3.426592E-2,9.703105E-3,-5.877095E-2,-5.2871667E-3,3.8306423E-2,-5.2640993E-2,-3.2907687E-2,-5.080645E-2,-3.0545836E-2,-2.7926061E-3,-6.2728494E-2,3.049531E-2,-5.6855176E-3,-7.294844E-4,5.9342332E-2,-7.838468E-3,-7.089507E-2,-2.0036818E-2,3.3509221E-3,1.11462595E-2,5.2493166E-2,6.1137427E-2,2.00579E-2,-6.1210692E-2,5.625871E-2,2.3660623E-2,4.671089E-2,-3.0339092E-2,2.452754E-2,6.5221176E-2,1.1079217E-2,-6.84455E-2,-6.711112E-3,2.714443E-2,-1.8796822E-2,3.2996938E-2,6.623433E-2,-2.898461E-2,5.46709E-2,7.095498E-2,2.2347659E-2,-3.0882496E-2,2.7258677E-2],"split_indices":[1,1,1,1,1,4,1,0,2,3,3,3,2,2,3,4,4,1,2,4,4,2,1,1,2,2,2,1,0,1,2,2,3,1,3,1,0,2,2,1,1,3,1,2,4,3,3,1,2,1,3,0,3,0,2,0,0,0,0,0,0,0,0,0,0,0,0,0,0,0,0,0,0,0,0,0,0,0,0,0,0,0,0,0,0,0,0,0,0,0,0,0,0,0,0,0,0,0,0,0,0],"split_type":[0,0,0,0,0,0,0,0,0,0,0,0,0,0,0,0,0,0,0,0,0,0,0,0,0,0,0,0,0,0,0,0,0,0,0,0,0,0,0,0,0,0,0,0,0,0,0,0,0,0,0,0,0,0,0,0,0,0,0,0,0,0,0,0,0,0,0,0,0,0,0,0,0,0,0,0,0,0,0,0,0,0,0,0,0,0,0,0,0,0,0,0,0,0,0,0,0,0,0,0,0],"sum_hessian":[1.4900464E3,8.9651685E2,5.935295E2,1.6440056E2,7.3211633E2,2.4254707E2,3.5098242E2,8.8219475E1,7.6181076E1,4.7261612E2,2.5950018E2,1.8854105E2,5.4006023E1,2.4696161E2,1.0402079E2,5.4750553E1,2.1430525E1,4.400238E2,3.25923E1,7.6516426E1,1.8298376E2,1.1205814E2,7.64829E1,4.7022068E1,6.9839535E0,7.913968E1,1.6782193E2,1.512089E1,8.88999E1,2.2756113E1,3.199444E1,1.4727977E1,6.7025485E0,1.9462254E2,2.4540128E2,7.498519E0,2.5093782E1,5.8256504E1,1.8259924E1,1.9968872E1,1.630149E2,6.684111E1,4.5217033E1,6.1397853E0,7.034312E1,2.4636421E1,2.2385647E1,3.5247087E0,3.4592447E0,6.799548E1,1.1144194E1,1.4118407E2,2.6637875E1,1.1445167E1,3.675723E0,1.3068521E0,2.144926E1,2.562088E1,6.373561E0,1.2726223E0,1.3455355E1,5.2872E0,1.4153483E0,2.0580832E1,1.7404172E2,2.2008852E2,2.531275E1,2.5693815E0,4.929137E0,1.0503962E1,4.775254E1,9.490291E0,8.769633E0,4.657168E0,1.5311705E1,1.3310307E2,2.9911818E1,4.338229E0,6.2502884E1,6.032432E0,3.91846E1,4.866815E0,1.2729701E0,5.0208916E1,2.0134201E1,5.5077486E0,1.9128674E1,8.663456E0,1.3722191E1,2.4955866E0,1.029122E0,2.1079948E0,1.3512499E0,3.6533878E0,6.4342094E1,1.8400224E0,9.304171E0,1.791938E1,8.718495E0,1.5074887E0,2.1682343E0],"tree_param":{"num_deleted":"0","num_feature":"5","num_nodes":"101","size_leaf_vector":"1"}},{"base_weights":[-1.840829E-2,-9.035537E-1,3.4504086E-1,-1.06398456E-1,3.7480915E-1,-1.6443565E-1,1.0030415E0,-9.627875E-1,1.243354E0,-8.537309E-1,1.0062416E0,6.044794E-1,1.2736893E0,-1.0481472E-1,-5.369159E-1,3.6971802E-1,1.3384362E-1,-1.0750672E0,-2.1291348E-1,-9.790544E-1,1.1717057E0,-9.42405E-1,1.2030075E0,7.569865E-1,1.2965045E0,-8.166896E-2,1.3765844E-2,-8.618324E-2,1.2180487E-1,-1.0782228E-1,-3.3407375E-2,-1.0661971E-1,1.4457788E-1,-1.0573845E-1,-6.2186527E-3,4.7884127E-1,1.2856252E0,-1.1026875E-1,-3.3490813E-1,4.4938537E-1,1.2848451E0,-8.862368E-2,1.3273981E-1,1.0964282E0,1.3249438E-1,-1.0314641E-1,1.3382213E-1,6.336547E-2,1.3506912E-1,-9.5552385E-2,1.18431024E-1,-8.968303E-2,1.4934061E-1,6.479469E-2,1.3282916E-1,-1.04138605E-1,1.2819408E-1],"categories":[],"categories_nodes":[],"categories_segments":[],"categories_sizes":[],"default_left":[0,0,0,0,0,0,0,0,0,0,0,0,0,0,0,0,0,0,0,0,0,0,0,0,0,0,0,0,0,0,0,0,0,0,0,0,0,0,0,0,0,0,0,0,0,0,0,0,0,0,0,0,0,0,0,0,0],"id":16,"left_children":[1,3,5,-1,7,9,11,13,15,17,19,21,23,-1,25,27,-1,29,31,33,35,37,39,41,43,-1,-1,-1,-1,-1,-1,-1,-1,-1,-1,45,47,-1,49,51,53,-1,-1,55,-1,-1,-1,-1,-1,-1,-1,-1,-1,-1,-1,-1,-1],"loss_changes":[4.6957297E2,8.753583E1,3.470646E2,0E0,5.7094856E1,4.72176E2,4.7956604E1,1.4632225E-1,1.9646606E0,5.1989838E1,7.2402695E1,1.7203688E2,2.1793518E0,0E0,1.1140313E0,5.5294995E0,0E0,2.7908325E-1,1.3707886E2,1.1718655E0,1.5224396E1,4.6996193E0,7.6581726E0,1.4056532E1,4.272461E-4,0E0,0E0,0E0,0E0,0E0,0E0,0E0,0E0,0E0,0E0,4.0227592E1,6.430023E0,0E0,1.273231E1,2.1884682E1,2.4574738E0,0E0,0E0,1.6239307E1,0E0,0E0,0E0,0E0,0E0,0E0,0E0,0E0,0E0,0E0,0E0,0E0,0E0],"parents":[2147483647,0,0,1,1,2,2,4,4,5,5,6,6,7,7,8,8,9,9,10,10,11,11,12,12,14,14,15,15,17,17,18,18,19,19,20,20,21,21,22,22,23,23,24,24,35,35,36,36,38,38,39,39,40,40,43,43],"right_children":[2,4,6,-1,8,10,12,14,16,18,20,22,24,-1,26,28,-1,30,32,34,36,38,40,42,44,-1,-1,-1,-1,-1,-1,-1,-1,-1,-1,46,48,-1,50,52,54,-1,-1,56,-1,-1,-1,-1,-1,-1,-1,-1,-1,-1,-1,-1,-1],"split_conditions":[4.9594304E-1,7.1618164E-1,6.074209E-1,-1.06398456E-1,4.712882E-1,6.357877E-1,5.638985E-1,7.326808E-1,7.1757984E-1,6.3552827E-1,3.6298913E-1,6.6627276E-1,6.0906243E-1,-1.0481472E-1,4.3487626E-1,4.725168E-1,1.3384362E-1,6.0577697E-1,5.520974E-1,3.5034445E-1,7.249747E-1,6.570198E-1,6.753994E-1,5.8310395E-1,5.748124E-1,-8.166896E-2,1.3765844E-2,-8.618324E-2,1.2180487E-1,-1.0782228E-1,-3.3407375E-2,-1.0661971E-1,1.4457788E-1,-1.0573845E-1,-6.2186527E-3,5.520974E-1,4.6420446E-1,-1.1026875E-1,5.3161705E-1,5.2344847E-1,5.14781E-1,-8.862368E-2,1.3273981E-1,6.269493E-1,1.3249438E-1,-1.0314641E-1,1.3382213E-1,6.336547E-2,1.3506912E-1,-9.5552385E-2,1.18431024E-1,-8.968303E-2,1.4934061E-1,6.479469E-2,1.3282916E-1,-1.04138605E-1,1.2819408E-1],"split_indices":[0,1,1,0,0,0,0,1,1,0,1,1,1,0,0,0,0,1,1,1,0,1,1,0,0,0,0,0,0,0,0,0,0,0,0,1,1,0,0,0,0,0,0,1,0,0,0,0,0,0,0,0,0,0,0,0,0],"split_type":[0,0,0,0,0,0,0,0,0,0,0,0,0,0,0,0,0,0,0,0,0,0,0,0,0,0,0,0,0,0,0,0,0,0,0,0,0,0,0,0,0,0,0,0,0,0,0,0,0,0,0,0,0,0,0,0,0],"sum_hessian":[1.4576676E3,4.238749E2,1.0337927E3,3.767603E2,4.711462E1,5.8307764E2,4.5071503E2,1.850603E1,2.8608591E1,3.6716278E2,2.1591487E2,1.8358983E2,2.6712518E2,1.4198888E1,4.307142E0,3.2878156E0,2.5320776E1,2.7239932E2,9.476347E1,1.6232672E1,1.996822E2,5.1057686E1,1.3253215E2,1.274155E1,2.5438365E2,2.89556E0,1.4115816E0,1.3345249E0,1.9532907E0,2.7079102E2,1.6082909E0,6.2809494E1,3.1953978E1,1.4813837E1,1.4188359E0,2.8930254E1,1.7075195E2,3.9753857E1,1.1303829E1,1.3618062E1,1.1891408E2,3.1405823E0,9.600968E0,3.6581043E1,2.1780261E2,1.0419105E1,1.851115E1,1.6468973E1,1.5428297E2,8.288811E0,3.0150185E0,6.0097528E0,7.6083093E0,8.610019E0,1.1030406E2,2.5525324E0,3.402851E1],"tree_param":{"num_deleted":"0","num_feature":"5","num_nodes":"57","size_leaf_vector":"1"}},{"base_weights":[-1.1811547E-2,-3.9341196E-1,5.503613E-1,-1.0470756E-1,-3.2264084E-1,2.9553854E-1,7.5481194E-1,-4.355521E-1,-9.2263386E-2,2.5243062E-1,4.4440082E-1,6.921565E-1,8.859621E-1,-4.0925843E-1,-7.3104745E-1,9.12491E-2,-1.697802E-1,2.9779604E-1,1.4295493E-1,5.274395E-3,4.5186806E-1,5.4375297E-1,7.623728E-1,5.1548094E-1,9.443342E-1,-4.7687605E-1,-3.4364563E-1,-7.727181E-2,2.2383427E-2,1.9388448E-2,3.220819E-1,-4.3295076E-1,-1.3530616E-1,3.6872917E-1,1.375458E-1,-9.044596E-2,2.3241353E-1,5.6998044E-1,3.8160995E-1,5.0217855E-1,7.488012E-1,8.176758E-2,6.626159E-1,6.260408E-2,1.02010705E-1,1.0739171E-1,8.496999E-1,-3.8574968E-2,-6.651277E-2,-3.7635054E-2,-1.3403856E-3,-1.0418534E-2,1.0241683E-2,4.683078E-3,5.555005E-2,-4.297284E-3,-5.2420896E-2,5.060212E-2,-1.4413481E-2,8.973849E-3,3.9040845E-2,-4.357312E-2,1.8777398E-2,-4.0133048E-2,5.4870965E-3,3.515659E-2,-1.3733766E-2,6.331168E-2,2.5167912E-2,2.0043341E-2,4.576909E-2,5.8587413E-2,3.880879E-2,8.194609E-2,2.4926128E-2,9.0719145E-3,7.133696E-2,-2.3939127E-2,3.163212E-2,4.073864E-2,8.8625036E-2],"categories":[],"categories_nodes":[],"categories_segments":[],"categories_sizes":[],"default_left":[0,0,0,0,0,0,0,0,0,0,0,0,0,0,0,0,0,0,0,0,0,0,0,0,0,0,0,0,0,0,0,0,0,0,0,0,0,0,0,0,0,0,0,0,0,0,0,0,0,0,0,0,0,0,0,0,0,0,0,0,0,0,0,0,0,0,0,0,0,0,0,0,0,0,0,0,0,0,0,0,0],"id":17,"left_children":[1,3,5,-1,7,9,11,13,15,17,19,21,23,25,27,29,31,33,35,-1,37,39,41,43,45,47,49,-1,-1,51,53,55,57,59,61,63,65,67,69,71,73,-1,75,-1,77,-1,79,-1,-1,-1,-1,-1,-1,-1,-1,-1,-1,-1,-1,-1,-1,-1,-1,-1,-1,-1,-1,-1,-1,-1,-1,-1,-1,-1,-1,-1,-1,-1,-1,-1,-1],"loss_changes":[2.8890497E2,3.6771164E1,2.8146408E1,0E0,1.8825272E1,1.4539165E0,1.864151E0,3.4803085E0,3.4268963E0,9.087992E-1,1.3259602E-1,1.7590332E0,1.5437775E0,1.8279877E0,1.7039318E0,1.1858629E0,1.4741883E0,1.4783125E0,1.2330242E0,0E0,2.1694756E-1,2.2481155E-1,2.2563171E-1,6.2102795E-1,6.7466736E-2,3.4921684E0,2.4946308E0,0E0,0E0,5.8389556E-1,1.0660437E0,6.576867E-1,9.2695713E-1,5.253229E-1,1.3161731E0,7.811551E-1,1.9093852E0,1.9236994E-1,4.0246868E-1,3.611908E-1,1.4325094E-1,0E0,1.5284195E0,0E0,3.9440924E-1,0E0,4.6304703E-1,0E0,0E0,0E0,0E0,0E0,0E0,0E0,0E0,0E0,0E0,0E0,0E0,0E0,0E0,0E0,0E0,0E0,0E0,0E0,0E0,0E0,0E0,0E0,0E0,0E0,0E0,0E0,0E0,0E0,0E0,0E0,0E0,0E0,0E0],"parents":[2147483647,0,0,1,1,2,2,4,4,5,5,6,6,7,7,8,8,9,9,10,10,11,11,12,12,13,13,14,14,15,15,16,16,17,17,18,18,20,20,21,21,22,22,23,23,24,24,25,25,26,26,29,29,30,30,31,31,32,32,33,33,34,34,35,35,36,36,37,37,38,38,39,39,40,40,42,42,44,44,46,46],"right_children":[2,4,6,-1,8,10,12,14,16,18,20,22,24,26,28,30,32,34,36,-1,38,40,42,44,46,48,50,-1,-1,52,54,56,58,60,62,64,66,68,70,72,74,-1,76,-1,78,-1,80,-1,-1,-1,-1,-1,-1,-1,-1,-1,-1,-1,-1,-1,-1,-1,-1,-1,-1,-1,-1,-1,-1,-1,-1,-1,-1,-1,-1,-1,-1,-1,-1,-1,-1],"split_conditions":[6.156035E-1,3.6298913E-1,6.723715E-1,-1.0470756E-1,5.520974E-1,6.6320217E-1,7.1757984E-1,3.63E2,4.2E1,6.4764595E-1,3.25E0,7E0,6.1E1,4.89E0,2.13E2,4.97E0,4.41E0,4.92E0,6.523476E-1,5.274395E-3,4.72E0,3.65E2,5E1,7.367091E-1,3E0,6.1E1,7.7E1,-7.727181E-2,2.2383427E-2,5.6568325E-1,6E0,5.6568325E-1,4.43E0,4.24E0,7E1,1.1E1,3.37E2,3.64E2,4.85E0,2.41E2,7.03412E-1,8.176758E-2,6.784127E-1,6.260408E-2,2E0,1.0739171E-1,4.33E0,-3.8574968E-2,-6.651277E-2,-3.7635054E-2,-1.3403856E-3,-1.0418534E-2,1.0241683E-2,4.683078E-3,5.555005E-2,-4.297284E-3,-5.2420896E-2,5.060212E-2,-1.4413481E-2,8.973849E-3,3.9040845E-2,-4.357312E-2,1.8777398E-2,-4.0133048E-2,5.4870965E-3,3.515659E-2,-1.3733766E-2,6.331168E-2,2.5167912E-2,2.0043341E-2,4.576909E-2,5.8587413E-2,3.880879E-2,8.194609E-2,2.4926128E-2,9.0719145E-3,7.133696E-2,-2.3939127E-2,3.163212E-2,4.073864E-2,8.8625036E-2],"split_indices":[1,1,1,0,1,1,1,3,3,1,4,2,3,4,2,4,4,4,1,0,4,3,2,1,2,3,2,0,0,1,2,1,4,4,3,2,3,3,4,3,1,0,1,0,2,0,4,0,0,0,0,0,0,0,0,0,0,0,0,0,0,0,0,0,0,0,0,0,0,0,0,0,0,0,0,0,0,0,0,0,0],"split_type":[0,0,0,0,0,0,0,0,0,0,0,0,0,0,0,0,0,0,0,0,0,0,0,0,0,0,0,0,0,0,0,0,0,0,0,0,0,0,0,0,0,0,0,0,0,0,0,0,0,0,0,0,0,0,0,0,0,0,0,0,0,0,0,0,0,0,0,0,0,0,0,0,0,0,0,0,0,0,0,0,0],"sum_hessian":[1.3447076E3,8.011743E2,5.435334E2,7.692023E1,7.242541E2,2.4304863E2,3.0048474E2,4.8544168E2,2.388124E2,1.9056116E2,5.2487465E1,2.0758904E2,9.289572E1,4.4796594E2,3.747574E1,7.086654E1,1.6794585E2,1.3351424E2,5.7046925E1,1.1328493E0,5.1354618E1,6.948183E1,1.3810721E2,1.3982343E1,7.891338E1,2.175257E2,2.3044025E2,3.609149E1,1.3842467E0,5.4869186E1,1.59973545E1,1.811319E1,1.4983266E2,9.164677E1,4.1867474E1,1.5803626E1,4.1243298E1,1.6501287E1,3.485333E1,6.0636578E1,8.845248E0,8.422048E1,5.3886723E1,1.0626704E1,3.3556385E0,2.8939047E1,4.9974335E1,1.4862862E2,6.889707E1,2.0954837E2,2.0891884E1,2.1948185E1,3.2921E1,7.8918195E0,8.1055355E0,3.7137864E0,1.4399403E1,1.269889E0,1.4856277E2,6.9785943E0,8.466817E1,2.7544665E0,3.9113007E1,4.472851E0,1.1330775E1,3.1228947E1,1.0014351E1,1.2944622E1,3.5566657E0,1.1382329E1,2.3471E1,3.259217E1,2.8044405E1,7.1880684E0,1.6571801E0,4.6196446E0,4.926708E1,1.2489692E0,2.1066694E0,4.7414713E0,4.523286E1],"tree_param":{"num_deleted":"0","num_feature":"5","num_nodes":"81","size_leaf_vector":"1"}},{"base_weights":[-1.1462593E-2,-3.6943015E-1,4.7963074E-1,-1.0471777E-1,-3.0317926E-1,2.0235644E-1,6.72124E-1,-3.994414E-1,-9.452489E-2,2.407787E-1,6.0795914E-2,6.121571E-1,8.1543106E-1,-3.3255908E-1,-5.083819E-1,8.66548E-2,-1.7747824E-1,4.6765664E-1,2.130162E-1,1.19136155E-1,-2.8244203E-1,5.086236E-1,6.5940607E-1,6.357848E-1,9.390151E-2,-2.601177E-1,-4.2593336E-1,-6.7321795E-1,-4.033791E-1,9.386082E-3,3.5233724E-1,-2.0733169E-1,1.1488808E-2,6.548607E-1,2.6344454E-1,1.0400916E-1,2.6606798E-1,9.35755E-2,5.4677874E-2,-4.3912724E-1,2.991345E-2,4.320581E-1,6.479407E-1,6.136477E-1,8.256183E-1,3.2402578E-1,7.291049E-1,-5.910274E-2,-2.2984874E-2,-4.3149624E-2,1.1241672E-2,-2.4042653E-2,-7.5404435E-2,-5.96357E-2,-3.273536E-2,2.4810113E-2,-2.451333E-3,4.6376612E-2,-3.8018934E-2,-1.6654637E-2,-4.6170138E-2,-3.609579E-2,1.1231662E-2,7.9398684E-2,1.345928E-2,-8.117897E-3,5.698852E-2,1.4130934E-2,-3.575082E-2,4.133448E-2,2.0460512E-2,1.5067952E-2,-1.3287986E-2,-7.513498E-2,3.8568728E-4,4.849861E-2,-7.757903E-3,7.063302E-2,2.5690472E-2,4.4821087E-2,6.6021554E-2,4.9055424E-2,9.3475714E-2,5.634889E-2,-1.8196948E-2,7.672002E-2,3.199077E-2],"categories":[],"categories_nodes":[],"categories_segments":[],"categories_sizes":[],"default_left":[0,0,0,0,0,0,0,0,0,0,0,0,0,0,0,0,0,0,0,0,0,0,0,0,0,0,0,0,0,0,0,0,0,0,0,0,0,0,0,0,0,0,0,0,0,0,0,0,0,0,0,0,0,0,0,0,0,0,0,0,0,0,0,0,0,0,0,0,0,0,0,0,0,0,0,0,0,0,0,0,0,0,0,0,0,0,0],"id":18,"left_children":[1,3,5,-1,7,9,11,13,15,17,19,21,23,25,27,29,31,33,35,37,39,41,43,45,-1,47,49,51,53,55,57,59,61,63,65,67,69,71,-1,73,-1,75,77,79,81,83,85,-1,-1,-1,-1,-1,-1,-1,-1,-1,-1,-1,-1,-1,-1,-1,-1,-1,-1,-1,-1,-1,-1,-1,-1,-1,-1,-1,-1,-1,-1,-1,-1,-1,-1,-1,-1,-1,-1,-1,-1],"loss_changes":[2.3565398E2,3.449553E1,3.0029083E1,0E0,1.4176544E1,1.2527571E0,2.3638458E0,3.3571777E0,3.3929126E0,1.0526342E0,1.0565367E0,8.331909E-1,1.5181313E0,1.9370956E0,2.8820992E0,1.4593718E0,8.7383986E-1,5.579748E-1,9.255228E-1,4.3376905E-1,8.3462644E-1,5.6518173E-1,7.1523285E-1,9.834938E-1,0E0,1.5975437E0,4.3992424E-1,2.2466316E0,1.4743481E0,4.610637E-1,1.484398E0,1.3076425E0,8.675612E-1,5.660205E-1,1.1880825E0,1.0076507E0,9.1320944E-1,5.769601E-1,0E0,8.998213E-1,0E0,1.4977579E0,4.1442776E-1,7.0459366E-1,7.03804E-1,1.4909196E0,2.4508667E-1,0E0,0E0,0E0,0E0,0E0,0E0,0E0,0E0,0E0,0E0,0E0,0E0,0E0,0E0,0E0,0E0,0E0,0E0,0E0,0E0,0E0,0E0,0E0,0E0,0E0,0E0,0E0,0E0,0E0,0E0,0E0,0E0,0E0,0E0,0E0,0E0,0E0,0E0,0E0,0E0],"parents":[2147483647,0,0,1,1,2,2,4,4,5,5,6,6,7,7,8,8,9,9,10,10,11,11,12,12,13,13,14,14,15,15,16,16,17,17,18,18,19,19,20,20,21,21,22,22,23,23,25,25,26,26,27,27,28,28,29,29,30,30,31,31,32,32,33,33,34,34,35,35,36,36,37,37,39,39,41,41,42,42,43,43,44,44,45,45,46,46],"right_children":[2,4,6,-1,8,10,12,14,16,18,20,22,24,26,28,30,32,34,36,38,40,42,44,46,-1,48,50,52,54,56,58,60,62,64,66,68,70,72,-1,74,-1,76,78,80,82,84,86,-1,-1,-1,-1,-1,-1,-1,-1,-1,-1,-1,-1,-1,-1,-1,-1,-1,-1,-1,-1,-1,-1,-1,-1,-1,-1,-1,-1,-1,-1,-1,-1,-1,-1,-1,-1,-1,-1,-1,-1],"split_conditions":[6.0906243E-1,3.5034445E-1,6.6627276E-1,-1.0471777E-1,5.520974E-1,4.98E0,7.1757984E-1,7.7E1,4.4E1,7.3E1,1.4E1,7E0,1.86E2,4.9005887E-1,4.82E0,4.98E0,6.0577697E-1,6.3974625E-1,2.08E2,1.3E1,6.554657E-1,3.14E2,4.93E0,4.46E0,9.390151E-2,4.7137332E-1,7E1,3E0,4E0,4.32E0,5.889432E-1,5.991775E-1,4E0,4.9E0,6.554657E-1,6.6320217E-1,2.78E2,6E0,5.4677874E-2,4.2E1,2.991345E-2,2.77E2,7.1054727E-1,6.784127E-1,1.4E1,1.38E2,1.78E2,-5.910274E-2,-2.2984874E-2,-4.3149624E-2,1.1241672E-2,-2.4042653E-2,-7.5404435E-2,-5.96357E-2,-3.273536E-2,2.4810113E-2,-2.451333E-3,4.6376612E-2,-3.8018934E-2,-1.6654637E-2,-4.6170138E-2,-3.609579E-2,1.1231662E-2,7.9398684E-2,1.345928E-2,-8.117897E-3,5.698852E-2,1.4130934E-2,-3.575082E-2,4.133448E-2,2.0460512E-2,1.5067952E-2,-1.3287986E-2,-7.513498E-2,3.8568728E-4,4.849861E-2,-7.757903E-3,7.063302E-2,2.5690472E-2,4.4821087E-2,6.6021554E-2,4.9055424E-2,9.3475714E-2,5.634889E-2,-1.8196948E-2,7.672002E-2,3.199077E-2],"split_indices":[1,1,1,0,1,4,1,3,3,3,2,2,3,1,4,4,1,1,3,2,1,3,4,4,0,1,3,2,2,4,1,1,2,4,1,1,3,2,0,2,0,3,1,1,2,3,3,0,0,0,0,0,0,0,0,0,0,0,0,0,0,0,0,0,0,0,0,0,0,0,0,0,0,0,0,0,0,0,0,0,0,0,0,0,0,0,0],"split_type":[0,0,0,0,0,0,0,0,0,0,0,0,0,0,0,0,0,0,0,0,0,0,0,0,0,0,0,0,0,0,0,0,0,0,0,0,0,0,0,0,0,0,0,0,0,0,0,0,0,0,0,0,0,0,0,0,0,0,0,0,0,0,0,0,0,0,0,0,0,0,0,0,0,0,0,0,0,0,0,0,0,0,0,0,0,0,0],"sum_hessian":[1.3384927E3,7.7432196E2,5.641707E2,6.763267E1,7.066893E2,2.3201671E2,3.3215402E2,4.8296182E2,2.2372748E2,1.8193512E2,5.008159E1,2.378833E2,9.427072E1,3.017561E2,1.8120572E2,7.02496E1,1.5347786E2,1.8108202E1,1.6382692E2,4.336392E1,6.71767E0,7.8229324E1,1.5965398E2,4.0925087E1,5.334564E1,1.7205707E2,1.2969904E2,6.8407104E1,1.12798615E2,5.522406E1,1.5025546E1,1.3245512E2,2.1022743E1,8.296195E0,9.812006E0,5.459974E1,1.0922718E2,4.2068268E1,1.295648E0,5.4848957E0,1.2327744E0,5.313099E1,2.5098337E1,1.2886833E2,3.0785639E1,1.0458396E1,3.046669E1,1.2866851E1,1.5919022E2,1.2856898E2,1.1300433E0,1.1390477E1,5.7016632E1,2.9944754E1,8.285386E1,6.0813413E0,4.914272E1,1.3360151E1,1.6653955E0,1.1557819E2,1.6876926E1,3.9291089E0,1.7093636E1,6.1306667E0,2.1655288E0,4.964271E0,4.847735E0,5.115886E1,3.4408803E0,3.047591E1,7.8751274E1,3.386367E1,8.2046E0,2.8089743E0,2.6759214E0,4.817607E1,4.9549184E0,2.1136005E1,3.962332E0,3.0640345E1,9.822799E1,8.913947E0,2.1871693E1,7.021727E0,3.4366693E0,2.7071503E1,3.3951879E0],"tree_param":{"num_deleted":"0","num_feature":"5","num_nodes":"87","size_leaf_vector":"1"}},{"base_weights":[-1.0411006E-2,-4.348439E-1,7.904278E-1,-1.05456434E-1,2.0260957E-1,3.6119777E-1,1.2082819E0,-7.066282E-1,8.3901674E-1,-1.0606432E-1,1.0869185E0,8.2249814E-1,1.2873934E-1,-1.0272285E0,2.0976709E-1,3.9266956E-1,1.2401968E-1,-9.952568E-2,1.2432836E0,-9.806734E-2,1.2607417E-1,-1.08105235E-1,-3.0829275E-1,-1.0233586E-1,1.0920724E0,-5.783567E-1,1.2139945E0,6.674064E-1,1.3270518E-1,-1.09453574E-1,1.0753634E-1,3.820616E-3,1.2405498E-1,-1.0040702E-1,2.9866768E-2,9.264447E-2,1.3678466E-1,-9.914682E-2,1.3903624E-1],"categories":[],"categories_nodes":[],"categories_segments":[],"categories_sizes":[],"default_left":[0,0,0,0,0,0,0,0,0,0,0,0,0,0,0,0,0,0,0,0,0,0,0,0,0,0,0,0,0,0,0,0,0,0,0,0,0,0,0],"id":19,"left_children":[1,3,5,-1,7,9,11,13,15,-1,17,19,-1,21,23,25,-1,-1,27,-1,-1,-1,29,-1,31,33,35,37,-1,-1,-1,-1,-1,-1,-1,-1,-1,-1,-1],"loss_changes":[4.4360175E2,3.3718127E2,8.064752E1,0E0,2.4438649E2,2.3273648E2,5.919586E0,5.1341087E1,4.397513E1,0E0,4.9776382E1,3.4172306E1,0E0,4.661804E0,5.109083E1,9.5605835E1,0E0,0E0,5.825287E0,0E0,0E0,0E0,1.248015E1,0E0,4.2178345E0,2.0911856E1,1.5991287E0,2.4978245E1,0E0,0E0,0E0,0E0,0E0,0E0,0E0,0E0,0E0,0E0,0E0],"parents":[2147483647,0,0,1,1,2,2,4,4,5,5,6,6,7,7,8,8,10,10,11,11,13,13,14,14,15,15,18,18,22,22,24,24,25,25,26,26,27,27],"right_children":[2,4,6,-1,8,10,12,14,16,-1,18,20,-1,22,24,26,-1,-1,28,-1,-1,-1,30,-1,32,34,36,38,-1,-1,-1,-1,-1,-1,-1,-1,-1,-1,-1],"split_conditions":[5.8310395E-1,6.0906243E-1,5.520974E-1,-1.05456434E-1,5.14781E-1,7.249747E-1,6.3552827E-1,7.1618164E-1,6.753994E-1,-1.0606432E-1,3.5034445E-1,6.0577697E-1,1.2873934E-1,4.9594304E-1,4.712882E-1,5.638985E-1,1.2401968E-1,-9.952568E-2,4.5937604E-1,-9.806734E-2,1.2607417E-1,-1.08105235E-1,6.9031626E-1,-1.0233586E-1,7.1757984E-1,6.6320217E-1,5.797813E-1,8.388072E-1,1.3270518E-1,-1.09453574E-1,1.0753634E-1,3.820616E-3,1.2405498E-1,-1.0040702E-1,2.9866768E-2,9.264447E-2,1.3678466E-1,-9.914682E-2,1.3903624E-1],"split_indices":[0,1,1,0,0,0,0,1,1,0,1,1,0,0,0,0,0,0,1,0,0,0,1,0,1,1,0,0,0,0,0,0,0,0,0,0,0,0,0],"split_type":[0,0,0,0,0,0,0,0,0,0,0,0,0,0,0,0,0,0,0,0,0,0,0,0,0,0,0,0,0,0,0,0,0,0,0,0,0,0,0],"sum_hessian":[1.3030748E3,8.519897E2,4.510851E2,4.316719E2,4.2031778E2,2.234333E2,2.2765181E2,1.7301712E2,2.4730067E2,7.534836E1,1.4808495E2,4.067902E1,1.8697278E2,1.2808554E2,4.4931583E1,1.1799734E2,1.2930333E2,9.969186E0,1.3811575E2,7.711594E0,3.2967426E1,1.1869558E2,9.389954E0,1.8673414E1,2.6258167E1,5.4206528E1,6.3790813E1,1.8678043E1,1.1943771E2,6.120832E0,3.269122E0,3.397888E0,2.286028E1,3.6395195E1,1.7811333E1,2.4681911E1,3.9108902E1,5.5566044E0,1.3121438E1],"tree_param":{"num_deleted":"0","num_feature":"5","num_nodes":"39","size_leaf_vector":"1"}},{"base_weights":[-1.3267947E-2,-4.3295532E-1,7.6109105E-1,-1.04845904E-1,1.8074009E-1,3.400556E-1,1.1816965E0,-7.4274224E-1,7.51377E-1,-1.0532502E-1,1.0584059E0,8.436621E-1,1.2502263E-1,-1.0717838E-1,1.8493445E-1,2.811889E-1,1.1424673E0,-9.781937E-2,1.2055031E0,-9.531197E-2,1.2434957E-1,-9.9398607E-1,1.0799356E0,-6.860719E-1,1.1637977E0,3.7215847E-1,1.1940886E0,6.2998134E-1,1.285945E-1,-1.043297E-1,-4.5009542E-2,2.2891393E-2,1.19493745E-1,-1.077335E-1,-1.955964E-3,7.9173386E-2,1.2858854E-1,-1.0582055E-1,1.1333581E-1,6.15186E-2,1.2110597E-1,-9.641661E-2,1.3269942E-1],"categories":[],"categories_nodes":[],"categories_segments":[],"categories_sizes":[],"default_left":[0,0,0,0,0,0,0,0,0,0,0,0,0,0,0,0,0,0,0,0,0,0,0,0,0,0,0,0,0,0,0,0,0,0,0,0,0,0,0,0,0,0,0],"id":20,"left_children":[1,3,5,-1,7,9,11,13,15,-1,17,19,-1,-1,21,23,25,-1,27,-1,-1,29,31,33,35,37,39,41,-1,-1,-1,-1,-1,-1,-1,-1,-1,-1,-1,-1,-1,-1,-1],"loss_changes":[3.896084E2,2.938554E2,7.42198E1,0E0,2.0615535E2,2.1328674E2,3.8190613E0,4.5834892E1,4.4112778E1,0E0,4.3231018E1,2.8871801E1,0E0,0E0,4.327688E1,9.5603355E1,4.7881317E0,0E0,5.2714386E0,0E0,0E0,7.3242188E-3,1.9986134E0,1.3960285E1,1.6363754E0,1.1779357E1,4.6214294E-1,2.135733E1,0E0,0E0,0E0,0E0,0E0,0E0,0E0,0E0,0E0,0E0,0E0,0E0,0E0,0E0,0E0],"parents":[2147483647,0,0,1,1,2,2,4,4,5,5,6,6,7,7,8,8,10,10,11,11,14,14,15,15,16,16,18,18,21,21,22,22,23,23,24,24,25,25,26,26,27,27],"right_children":[2,4,6,-1,8,10,12,14,16,-1,18,20,-1,-1,22,24,26,-1,28,-1,-1,30,32,34,36,38,40,42,-1,-1,-1,-1,-1,-1,-1,-1,-1,-1,-1,-1,-1,-1,-1],"split_conditions":[5.8310395E-1,6.0906243E-1,5.520974E-1,-1.04845904E-1,4.9594304E-1,7.249747E-1,6.3552827E-1,7.1618164E-1,6.723715E-1,-1.0532502E-1,3.5034445E-1,6.0577697E-1,1.2502263E-1,-1.0717838E-1,4.712882E-1,5.638985E-1,5.14781E-1,-9.781937E-2,4.5424792E-1,-9.531197E-2,1.2434957E-1,7.367091E-1,7.1757984E-1,6.570198E-1,6.269493E-1,6.9031626E-1,6.753994E-1,8.388072E-1,1.285945E-1,-1.043297E-1,-4.5009542E-2,2.2891393E-2,1.19493745E-1,-1.077335E-1,-1.955964E-3,7.9173386E-2,1.2858854E-1,-1.0582055E-1,1.1333581E-1,6.15186E-2,1.2110597E-1,-9.641661E-2,1.3269942E-1],"split_indices":[0,1,1,0,0,0,0,1,1,0,1,1,0,0,0,0,0,0,1,0,0,1,1,1,1,1,1,0,0,0,0,0,0,0,0,0,0,0,0,0,0,0,0],"split_type":[0,0,0,0,0,0,0,0,0,0,0,0,0,0,0,0,0,0,0,0,0,0,0,0,0,0,0,0,0,0,0,0,0,0,0,0,0,0,0,0,0,0,0],"sum_hessian":[1.196823E3,7.7644556E2,4.2037738E2,3.8729797E2,3.891476E2,2.1098509E2,2.0939229E2,1.4850882E2,2.4063878E2,7.161503E1,1.3937007E2,3.7538506E1,1.7185379E2,1.0951068E2,3.899814E1,1.10050095E2,1.3058868E2,9.007589E0,1.3036247E2,6.5809755E0,3.095753E1,1.6781921E1,2.2216215E1,5.261329E1,5.7436806E1,8.717215E0,1.21871475E2,1.7069614E1,1.1329286E2,1.4545013E1,2.2369077E0,3.0007813E0,1.9215435E1,3.276365E1,1.984964E1,1.6039907E1,4.13969E1,2.892243E0,5.824971E0,4.531918E0,1.1733956E2,5.0762863E0,1.1993327E1],"tree_param":{"num_deleted":"0","num_feature":"5","num_nodes":"43","size_leaf_vector":"1"}},{"base_weights":[-2.032923E-2,-4.321876E-1,7.5168544E-1,-8.911398E-1,-6.945235E-2,2.9917496E-1,1.0262243E0,-1.0341088E-1,-7.189887E-1,-9.49835E-1,1.2925752E-1,-2.2792818E-1,5.2269965E-1,7.6089203E-1,1.086337E0,-9.952631E-2,-5.9721947E-1,-9.652802E-2,-1.1894326E-2,-2.5677172E-2,2.547944E-1,-6.65796E-1,2.4906778E-1,6.1832106E-1,4.230511E-1,4.9095812E-1,8.203458E-2,1.2017714E-1,9.901729E-1,-2.3416509E-1,-7.372144E-1,3.8168952E-1,-1.3189705E-1,3.7691432E-1,1.07890844E-1,-7.448579E-1,2.3663228E-2,7.937299E-2,4.5387062E-1,4.835157E-1,7.034313E-1,5.386813E-1,3.218503E-1,1.9382972E-2,5.269543E-2,2.8890967E-2,9.9700403E-1,5.6661226E-2,-3.0335307E-2,-4.1045737E-2,-8.019444E-2,6.488808E-2,2.6539965E-2,2.627767E-2,-1.9682676E-2,2.0498479E-2,5.0295513E-2,2.5679499E-2,-1.5596295E-2,-8.498721E-2,-3.0522311E-2,-7.322305E-3,1.6450841E-2,5.6768782E-2,-2.2063654E-2,3.3380467E-2,6.715374E-2,7.994814E-2,4.9522407E-2,7.9182215E-2,4.2736206E-2,-1.588166E-2,3.8275167E-2,8.676598E-2,1.06358044E-1],"categories":[],"categories_nodes":[],"categories_segments":[],"categories_sizes":[],"default_left":[0,0,0,0,0,0,0,0,0,0,0,0,0,0,0,0,0,0,0,0,0,0,0,0,0,0,0,0,0,0,0,0,0,0,0,0,0,0,0,0,0,0,0,0,0,0,0,0,0,0,0,0,0,0,0,0,0,0,0,0,0,0,0,0,0,0,0,0,0,0,0,0,0,0,0],"id":21,"left_children":[1,3,5,7,9,11,13,-1,15,17,19,21,23,25,27,-1,29,-1,-1,31,33,35,37,39,41,43,-1,-1,45,47,49,51,53,55,57,59,-1,61,63,65,67,69,71,-1,-1,-1,73,-1,-1,-1,-1,-1,-1,-1,-1,-1,-1,-1,-1,-1,-1,-1,-1,-1,-1,-1,-1,-1,-1,-1,-1,-1,-1,-1,-1],"loss_changes":[3.510745E2,1.19800964E2,4.741423E1,7.077194E0,7.0664925E1,1.7375385E1,2.9801483E0,0E0,4.365967E0,8.3966064E-1,6.4223447E0,9.42054E0,7.2130203E-1,3.5830688E-1,9.4410706E-1,0E0,5.1559677E0,0E0,0E0,6.4782395E0,3.2299385E0,1.8440104E0,7.263162E-1,2.3897171E-1,4.5476532E-1,1.6047716E-2,0E0,0E0,2.4156189E-1,1.8695678E0,1.2613602E0,7.903943E-1,3.0902395E0,2.0455217E0,3.3465347E0,7.4397373E-1,0E0,1.8363288E-1,8.720417E-1,4.1572952E-1,1.7884254E-1,3.2576466E-1,9.714713E-1,0E0,0E0,0E0,1.651764E-2,0E0,0E0,0E0,0E0,0E0,0E0,0E0,0E0,0E0,0E0,0E0,0E0,0E0,0E0,0E0,0E0,0E0,0E0,0E0,0E0,0E0,0E0,0E0,0E0,0E0,0E0,0E0,0E0],"parents":[2147483647,0,0,1,1,2,2,3,3,4,4,5,5,6,6,8,8,9,9,10,10,11,11,12,12,13,13,14,14,16,16,19,19,20,20,21,21,22,22,23,23,24,24,25,25,28,28,29,29,30,30,31,31,32,32,33,33,34,34,35,35,37,37,38,38,39,39,40,40,41,41,42,42,46,46],"right_children":[2,4,6,8,10,12,14,-1,16,18,20,22,24,26,28,-1,30,-1,-1,32,34,36,38,40,42,44,-1,-1,46,48,50,52,54,56,58,60,-1,62,64,66,68,70,72,-1,-1,-1,74,-1,-1,-1,-1,-1,-1,-1,-1,-1,-1,-1,-1,-1,-1,-1,-1,-1,-1,-1,-1,-1,-1,-1,-1,-1,-1,-1,-1],"split_conditions":[5.8310395E-1,4.9594304E-1,6.357877E-1,4.712882E-1,1E0,2.3E1,7.249747E-1,-1.0341088E-1,3.9E1,2.24E2,5.3161705E-1,1.2E1,4.84E0,1E0,2.9E1,-9.952631E-2,4E0,-9.652802E-2,-1.1894326E-2,3E0,5.797813E-1,1E0,5.4E1,6.3552827E-1,1.8E2,4.36E0,8.203458E-2,1.2017714E-1,3.2E1,5.8E1,4.62E0,4.51E0,4.57E0,5.638985E-1,4.89E0,7E0,2.3663228E-2,4.8E0,2E0,5.2E1,4.74E0,3E0,2.15E2,1.9382972E-2,5.269543E-2,2.8890967E-2,8.388072E-1,5.6661226E-2,-3.0335307E-2,-4.1045737E-2,-8.019444E-2,6.488808E-2,2.6539965E-2,2.627767E-2,-1.9682676E-2,2.0498479E-2,5.0295513E-2,2.5679499E-2,-1.5596295E-2,-8.498721E-2,-3.0522311E-2,-7.322305E-3,1.6450841E-2,5.6768782E-2,-2.2063654E-2,3.3380467E-2,6.715374E-2,7.994814E-2,4.9522407E-2,7.9182215E-2,4.2736206E-2,-1.588166E-2,3.8275167E-2,8.676598E-2,1.06358044E-1],"split_indices":[0,0,0,0,3,3,0,0,3,2,0,2,4,3,3,0,2,0,0,2,0,3,2,0,3,4,0,0,3,3,4,4,4,0,4,2,0,4,3,2,4,2,3,0,0,0,0,0,0,0,0,0,0,0,0,0,0,0,0,0,0,0,0,0,0,0,0,0,0,0,0,0,0,0,0],"split_type":[0,0,0,0,0,0,0,0,0,0,0,0,0,0,0,0,0,0,0,0,0,0,0,0,0,0,0,0,0,0,0,0,0,0,0,0,0,0,0,0,0,0,0,0,0,0,0,0,0,0,0,0,0,0,0,0,0,0,0,0,0,0,0,0,0,0,0,0,0,0,0,0,0,0,0],"sum_hessian":[1.1021226E3,7.189915E2,3.831311E2,3.1675687E2,4.0223462E2,1.4546205E2,2.3766905E2,1.7030997E2,1.464469E2,7.3373566E1,3.2886105E2,4.3310356E1,1.0215169E2,4.642241E1,1.9124664E2,4.2606464E1,1.0384044E2,7.187574E1,1.4978226E0,1.4755167E2,1.8130939E2,2.2374989E1,2.093537E1,4.9473038E1,5.2678654E1,1.0050167E1,3.6372242E1,8.1689835E1,1.0955681E2,2.9641802E1,7.419863E1,2.9980244E1,1.1757143E2,9.8151215E1,8.315818E1,2.0733158E1,1.64183E0,1.2207817E1,8.727551E0,2.1732374E1,2.7740665E1,2.2568909E1,3.0109745E1,1.7758918E0,8.274275E0,1.4745713E0,1.0808224E2,1.785626E0,2.7856176E1,1.348211E1,6.0716522E1,7.7026153E0,2.2277628E1,1.6179235E1,1.013922E2,4.2628677E1,5.5522533E1,5.317562E1,2.9982557E1,1.5982368E1,4.7507896E0,4.421922E0,7.7858953E0,7.602981E0,1.12457E0,1.3643876E1,8.088497E0,1.7039963E1,1.0700702E1,5.026207E0,1.7542702E1,3.2051535E0,2.690459E1,4.149616E1,6.6586075E1],"tree_param":{"num_deleted":"0","num_feature":"5","num_nodes":"75","size_leaf_vector":"1"}},{"base_weights":[-2.8174669E-2,-3.601951E-1,4.1035885E-1,-9.6239805E-1,-2.902366E-1,1.9642273E-1,6.305401E-1,-1.0276828E-1,-6.0178155E-1,-3.6944136E-1,-1.257966E-1,1.4175679E-1,3.108401E-1,5.7110727E-1,7.454034E-1,-7.526345E-1,-9.668191E-2,